{
  "name": "iris_model",
  "input_shape": [
    4
  ],
  "output_shape": [
    3
  ],
  "quantize": false,
  "layers": [
    {
      "id": "layer_0",
      "type": "Dense",
      "input_size": 4,
      "output_size": 8,
      "activation": "relu",
      "weights": [
        [
          -2.058812797090741e-16,
          0.6546129737011853,
          0.9112330099848085,
          0.16462853319215426,
          -0.00013963976263391736,
          -0.00013976522105599306,
          -0.06987828281416199,
          0.7994630004809374
        ],
        [
          -9.327491613773256e-24,
          0.7442664842152644,
          -1.5856940614045272,
          0.3896315811075998,
          8.932941648047287e-05,
          -1.0641892334272749e-05,
          -0.029543105725810655,
          0.06587052059973696
        ],
        [
          -3.4933107381675983e-09,
          -0.3257913421341492,
          0.9173752127788027,
          -0.09875360814865061,
          5.897307117259605e-20,
          -0.00025020482922770486,
          -0.015973324355907287,
          -0.5613593672923504
        ],
        [
          1.0514617714994927e-35,
          0.02093286090713568,
          0.6459070353982713,
          0.20111963141979733,
          -5.1218398873735745e-25,
          -0.0027497047730595135,
          -0.000160603354318224,
          -1.2091909022924647
        ]
      ],
      "biases": [
        -0.6151099361327907,
        0.8138277735850875,
        -0.5258346919315265,
        0.4076970895659034,
        -0.2763178575359793,
        -0.5689775528930684,
        0.23529997118923343,
        0.7850373523234668
      ]
    },
    {
      "id": "layer_1",
      "type": "Dense",
      "input_size": 8,
      "output_size": 3,
      "activation": "softmax",
      "weights": [
        [
          -0.0007031273689223576,
          -1.1119631247613815e-40,
          -0.005003297957570735
        ],
        [
          0.7962712440204109,
          -0.37936286508327555,
          -0.550304801639177
        ],
        [
          -1.479669497610457,
          0.23010148971946712,
          1.3758227105399177
        ],
        [
          -0.016610153027401264,
          0.4812579538348859,
          0.04885516300599911
        ],
        [
          0.0030607513615355715,
          0.0011087491943137162,
          -1.367184022999002e-22
        ],
        [
          0.0021114499837584628,
          -0.0016684939261466252,
          -4.7463351859563515e-05
        ],
        [
          -0.0040705069177419725,
          -2.910927618807529e-08,
          -6.4775407410739085e-16
        ],
        [
          1.0689252022511322,
          1.4071202702968622,
          -1.5297787286637237
        ]
      ],
      "biases": [
        0.02541565323349012,
        0.2309371802553265,
        -1.3320582988538563
      ]
    }
  ]
}