{"name": "mnist_small", "input_shape": [784], "output_shape": [10], "quantize": false, "layers": [{"id": "layer_0", "type": "Dense", "input_size": 784, "output_size": 64, "activation": "relu", "weights": [[-0.473, -0.236, 0.253, 0.306, 0.235, 0.032, -0.167, -0.234, -0.041, 0.252, 0.365, -0.358, 0.203, -0.064, 0.113, 0.414, -0.281, -0.5, -0.347, 0.258, 0.059, -0.12, 0.393, -0.066, -0.009, 0.02, -0.043, 0.17, -0.053, 0.016, 0.185, -0.29, -0.281, -0.108, -0.131, -0.374, -0.485, -0.36, 0.481, -0.05, -0.041, 0.188, 0.269, -0.478, 0.243, -0.368, 0.385, 0.222, -0.393, 0.3, 0.053, -0.166, 0.203, -0.216, -0.063, 0.246, -0.457, 0.044, -0.187, 0.234, 0.251, 0.44, -0.463, 0.406], [0.151, 0.244, -0.347, -0.206, -0.309, 0.152, -0.087, -0.314, 0.439, -0.484, -0.395, 0.042, 0.259, 0.408, -0.127, -0.138, 0.055, -0.116, 0.125, 0.218, 0.059, -0.272, 0.121, -0.122, 0.495, 0.06, 0.357, -0.102, 0.339, -0.224, 0.337, 0.238, 0.151, 0.388, 0.013, 0.394, -0.373, -0.048, -0.271, -0.402, 0.311, 0.268, 0.021, 0.226, -0.165, -0.168, 0.017, -0.29, -0.057, -0.108, -0.451, -0.15, -0.277, -0.152, -0.447, 0.102, 0.431, 0.292, 0.333, -0.486, 0.259, 0.224, -0.199, -0.002], [0.151, 0.276, -0.155, -0.222, -0.293, -0.016, 0.249, -0.45, -0.113, -0.14, 0.005, -0.19, 0.131, -0.32, 0.217, 0.086, -0.097, 0.236, 0.437, -0.006, -0.429, -0.16, 0.209, -0.274, 0.391, 0.348, 0.269, -0.094, -0.421, 0.432, 0.217, 0.182, 0.279, -0.108, -0.171, -0.286, 0.187, -0.36, 0.401, 0.35, -0.473, -0.26, 0.125, -0.054, -0.173, -0.472, -0.167, -0.45, -0.441, -0.084, 0.037, -0.078, 0.443, -0.448, -0.031, -0.146, -0.297, 0.108, 0.181, 0.258, 0.443, 0.256, -0.279, 0.118], [0.063, -0.156, -0.219, -0.262, -0.453, -0.128, -0.279, 0.046, 0.287, -0.372, 0.141, 0.258, -0.469, -0.192, 0.241, 0.254, -0.361, -0.444, -0.267, 0.434, -0.189, 0.336, -0.271, 0.182, -0.497, -0.108, -0.187, -0.422, -0.429, 0.056, -0.183, -0.218, 0.375, 0.476, 0.357, 0.154, 0.195, 0.136, -0.239, 0.278, -0.377, 0.332, -0.107, 0.082, 0.371, -0.488, -0.279, -0.354, -0.081, 0.46, -0.251, -0.014, -0.389, 0.4, -0.359, 0.294, -0.433, -0.06, 0.157, -0.414, 0.203, 0.048, 0.321, 0.038], [-0.161, 0.404, -0.059, 0.33, -0.293, 0.392, -0.319, -0.018, 0.039, 0.284, 0.061, 0.226, 0.051, 0.376, -0.079, 0.062, 0.167, 0.316, 0.037, 0.21, -0.237, 0.104, 0.225, 0.422, 0.127, -0.124, -0.067, 0.474, -0.197, -0.048, -0.343, 0.398, -0.169, -0.02, 0.109, -0.246, 0.235, 0.456, 0.249, -0.37, 0.439, -0.052, 0.461, -0.438, -0.205, 0.104, 0.041, -0.218, -0.393, 0.436, 0.093, 0.154, -0.349, 0.368, -0.447, -0.314, -0.241, 0.356, -0.003, 0.146, 0.059, -0.008, 0.209, 0.262], [0.367, 0.236, -0.075, -0.318, -0.197, -0.408, -0.399, 0.342, -0.225, 0.116, -0.307, 0.378, -0.245, -0.208, 0.353, 0.326, 0.159, -0.484, 0.493, 0.226, 0.291, 0.264, 0.417, 0.15, 0.087, -0.34, 0.045, -0.374, -0.469, 0.248, 0.025, 0.27, -0.433, 0.476, 0.181, -0.214, 0.011, -0.32, 0.129, 0.126, 0.343, -0.036, 0.493, 0.434, 0.251, 0.448, -0.319, -0.138, -0.209, -0.068, 0.005, 0.01, 0.163, 0.016, -0.487, -0.178, 0.487, -0.196, 0.205, 0.354, 0.355, -0.4, 0.113, 0.062], [-0.401, 0.444, 0.213, -0.198, -0.021, 0.344, -0.463, 0.286, -0.105, 0.292, -0.267, -0.446, -0.117, -0.064, 0.161, 0.094, 0.167, -0.316, 0.125, 0.45, 0.379, -0.296, 0.201, 0.246, 0.031, 0.428, 0.445, 0.242, 0.187, -0.16, -0.207, 0.462, 0.327, 0.156, 0.085, -0.062, 0.403, 0.12, 0.489, 0.366, -0.473, -0.068, 0.125, 0.33, 0.067, -0.432, 0.297, -0.33, 0.055, -0.492, -0.107, -0.334, 0.219, -0.032, 0.153, -0.034, 0.487, -0.444, -0.187, 0.21, -0.037, -0.44, -0.359, -0.41], [0.367, -0.34, -0.243, -0.182, 0.203, -0.304, 0.313, 0.15, 0.031, 0.1, 0.109, -0.23, 0.499, 0.216, 0.497, 0.182, -0.433, 0.116, -0.219, -0.214, -0.109, -0.456, 0.297, 0.414, 0.079, 0.188, -0.099, 0.354, 0.083, 0.208, 0.249, 0.158, 0.383, 0.036, 0.213, 0.13, -0.181, 0.264, -0.407, -0.282, 0.303, 0.284, -0.331, 0.298, 0.043, -0.096, 0.129, 0.11, 0.215, 0.252, -0.307, 0.058, -0.229, 0.08, -0.071, 0.262, -0.329, 0.356, -0.323, -0.166, -0.421, -0.264, -0.183, -0.178], [0.383, 0.34, -0.315, 0.034, 0.267, -0.48, 0.281, -0.258, -0.065, 0.356, -0.131, -0.19, -0.157, -0.136, -0.071, -0.066, -0.441, -0.012, 0.429, 0.202, -0.189, 0.376, -0.399, -0.17, 0.231, 0.124, 0.005, -0.478, 0.299, -0.048, -0.439, -0.226, 0.127, -0.34, -0.219, -0.246, 0.435, -0.28, -0.119, 0.134, -0.433, -0.132, -0.387, -0.382, -0.141, 0.48, -0.463, 0.318, -0.441, 0.076, -0.187, -0.35, -0.461, 0.032, 0.177, -0.026, 0.423, 0.18, -0.171, -0.182, -0.277, -0.184, -0.399, 0.206], [0.423, -0.236, 0.301, 0.282, -0.213, 0.216, -0.383, 0.398, -0.113, -0.3, -0.411, 0.394, 0.331, -0.36, 0.257, -0.13, -0.481, -0.052, -0.083, -0.398, 0.003, -0.088, -0.167, 0.198, -0.041, 0.244, 0.229, 0.13, 0.147, -0.152, -0.279, -0.154, 0.479, -0.252, -0.171, 0.378, -0.341, -0.376, -0.383, -0.018, -0.017, -0.236, -0.379, 0.338, 0.315, 0.088, 0.057, 0.494, 0.199, -0.284, 0.189, 0.026, -0.173, 0.328, 0.353, -0.106, -0.049, 0.068, -0.227, -0.014, 0.443, 0.016, 0.369, -0.282], [-0.153, -0.26, -0.267, 0.218, -0.389, -0.344, -0.327, -0.074, -0.009, -0.052, 0.317, 0.01, -0.149, 0.072, 0.457, 0.334, -0.001, 0.172, -0.083, 0.306, -0.197, 0.448, -0.463, 0.398, -0.441, 0.084, -0.187, 0.034, 0.059, 0.496, 0.249, 0.438, 0.183, -0.156, 0.221, 0.394, -0.277, -0.064, -0.111, -0.138, -0.257, 0.172, 0.477, -0.262, 0.091, 0.048, -0.303, 0.126, 0.423, 0.436, -0.123, -0.054, 0.355, -0.352, 0.441, 0.286, 0.343, 0.348, -0.459, -0.366, -0.389, -0.328, 0.377, -0.138], [0.487, 0.196, -0.067, -0.382, -0.349, -0.112, -0.375, -0.338, -0.177, 0.388, -0.019, -0.03, 0.467, -0.08, -0.375, -0.154, 0.023, 0.308, -0.371, -0.134, -0.277, 0.4, 0.433, 0.43, 0.207, 0.3, 0.229, 0.266, 0.291, 0.024, 0.433, 0.438, 0.159, -0.036, 0.349, 0.018, -0.021, -0.208, -0.039, 0.494, -0.137, -0.476, 0.197, -0.43, -0.365, -0.496, -0.303, -0.234, -0.305, -0.028, 0.165, 0.05, 0.075, -0.208, -0.103, -0.058, -0.193, 0.06, -0.011, -0.47, 0.219, 0.296, -0.295, -0.442], [-0.001, -0.06, 0.029, 0.49, -0.245, -0.216, 0.177, -0.234, 0.191, 0.188, -0.371, 0.466, 0.123, -0.232, 0.033, 0.398, -0.209, -0.116, -0.331, -0.398, 0.099, 0.36, -0.231, -0.122, -0.153, 0.428, -0.283, 0.386, 0.331, 0.032, -0.207, 0.206, 0.151, 0.3, 0.077, 0.346, -0.341, 0.152, -0.079, 0.478, -0.465, 0.02, -0.083, 0.058, -0.021, 0.48, 0.065, 0.198, -0.345, 0.236, 0.109, 0.394, 0.059, 0.144, 0.353, -0.17, 0.079, -0.468, 0.149, -0.03, 0.491, -0.368, 0.257, -0.042], [0.215, -0.1, -0.323, 0.314, 0.187, 0.392, -0.199, 0.222, -0.329, -0.364, -0.163, -0.19, 0.179, -0.032, -0.167, -0.138, 0.031, 0.196, -0.411, 0.066, 0.091, 0.392, -0.087, 0.39, 0.303, -0.172, 0.101, -0.222, 0.435, -0.352, -0.031, 0.334, 0.431, -0.076, 0.149, -0.11, 0.467, 0.152, 0.385, -0.466, 0.423, 0.036, -0.051, 0.306, -0.429, 0.416, -0.311, -0.322, 0.063, -0.036, -0.355, -0.03, -0.093, -0.144, -0.031, 0.038, -0.281, -0.196, -0.123, 0.426, -0.229, 0.488, -0.239, 0.39], [-0.209, -0.116, 0.301, 0.042, 0.443, -0.064, -0.447, 0.19, 0.367, -0.452, -0.347, 0.194, 0.227, -0.192, -0.055, -0.122, -0.409, 0.068, 0.357, -0.07, -0.261, -0.208, 0.409, 0.198, -0.425, -0.02, 0.269, 0.298, 0.035, 0.12, 0.129, -0.17, 0.039, -0.324, 0.077, 0.098, -0.365, -0.248, -0.207, -0.09, 0.423, -0.172, -0.219, -0.11, 0.091, -0.016, -0.423, 0.286, 0.207, 0.42, -0.467, -0.166, 0.043, -0.392, 0.377, 0.182, 0.463, -0.148, -0.147, 0.194, 0.283, 0.256, -0.175, -0.05], [-0.089, -0.476, 0.205, -0.142, 0.139, 0.464, 0.257, -0.346, -0.441, -0.436, -0.347, -0.07, 0.331, -0.008, 0.169, 0.318, 0.199, 0.204, -0.179, 0.042, 0.203, 0.272, -0.319, 0.302, 0.431, -0.404, -0.307, -0.318, 0.443, 0.224, 0.265, 0.286, 0.247, -0.372, 0.253, 0.186, 0.219, 0.44, -0.295, 0.326, 0.495, -0.228, -0.275, -0.086, -0.309, -0.32, -0.383, -0.37, -0.097, -0.012, 0.005, -0.374, 0.067, -0.096, 0.385, 0.406, -0.481, 0.42, 0.285, 0.394, 0.019, -0.2, 0.177, 0.318], [-0.417, -0.428, -0.131, -0.286, 0.067, 0.2, -0.087, -0.226, -0.001, -0.5, 0.237, -0.142, 0.083, 0.104, 0.129, 0.174, 0.055, -0.276, 0.005, -0.222, -0.181, -0.224, -0.431, -0.066, -0.481, -0.14, -0.035, 0.434, -0.261, 0.264, -0.455, 0.414, 0.151, -0.38, -0.459, 0.194, -0.253, 0.472, -0.087, 0.382, -0.113, 0.42, -0.083, -0.398, 0.347, 0.472, -0.479, 0.142, 0.439, 0.284, 0.173, 0.106, 0.403, 0.072, -0.375, -0.378, -0.377, 0.132, -0.147, -0.03, 0.203, 0.456, 0.369, -0.41], [-0.065, 0.012, -0.107, 0.442, -0.453, 0.488, 0.401, -0.466, 0.319, -0.356, -0.019, -0.006, 0.195, 0.2, -0.079, 0.318, -0.465, -0.372, -0.299, -0.014, 0.099, 0.072, -0.151, 0.446, 0.367, -0.22, 0.205, 0.29, 0.235, -0.336, -0.391, -0.25, -0.033, 0.02, -0.315, 0.042, -0.373, 0.336, -0.319, 0.15, -0.441, -0.148, 0.373, -0.294, 0.211, -0.496, 0.121, 0.078, -0.425, -0.308, 0.269, 0.21, 0.299, -0.032, -0.447, -0.026, 0.335, 0.38, 0.413, -0.254, -0.469, 0.088, 0.185, -0.258], [-0.025, -0.404, 0.109, 0.346, 0.371, 0.256, 0.369, 0.094, -0.081, -0.188, -0.419, -0.174, -0.093, -0.488, -0.479, -0.258, -0.161, 0.444, 0.285, 0.338, 0.379, 0.4, -0.287, 0.366, 0.215, 0.188, 0.005, 0.106, 0.011, 0.376, -0.023, 0.358, -0.209, -0.276, 0.197, 0.122, 0.387, -0.008, -0.255, -0.474, 0.407, 0.268, -0.123, -0.494, -0.037, -0.2, 0.481, -0.13, 0.303, 0.476, 0.053, -0.302, -0.469, -0.08, -0.143, -0.274, 0.391, 0.14, -0.003, 0.314, 0.171, -0.264, 0.177, -0.074], [-0.113, -0.34, 0.117, -0.094, -0.493, -0.152, -0.303, -0.21, 0.079, -0.356, 0.317, 0.018, -0.365, 0.448, 0.025, -0.386, 0.343, 0.468, 0.253, 0.034, -0.477, -0.472, -0.119, 0.046, -0.057, -0.204, -0.163, -0.382, 0.379, 0.176, 0.289, -0.226, 0.191, -0.252, 0.469, -0.35, 0.435, -0.424, 0.073, -0.418, 0.095, 0.396, 0.093, 0.05, 0.403, -0.2, -0.215, 0.422, 0.383, 0.372, 0.109, -0.142, -0.005, 0.432, 0.289, 0.318, -0.001, -0.196, 0.461, 0.146, -0.477, -0.088, 0.425, 0.118], [0.327, -0.044, 0.045, 0.426, -0.253, 0.488, 0.033, -0.218, 0.255, 0.308, -0.115, 0.41, -0.381, -0.408, 0.057, -0.018, 0.247, -0.124, 0.277, 0.45, -0.485, -0.304, -0.103, -0.282, 0.143, -0.212, -0.059, 0.034, 0.419, -0.336, 0.361, 0.414, -0.385, -0.364, 0.069, -0.278, -0.053, 0.048, 0.401, -0.434, -0.185, 0.14, -0.491, -0.382, -0.493, 0.176, -0.255, -0.13, 0.455, 0.292, 0.197, -0.198, 0.467, 0.184, 0.185, 0.07, 0.247, 0.348, 0.485, -0.462, -0.245, -0.344, 0.185, -0.234], [0.127, 0.116, -0.451, -0.262, 0.411, 0.224, 0.257, -0.298, 0.023, -0.26, 0.213, 0.314, -0.429, 0.0, 0.417, 0.31, -0.073, 0.316, -0.499, -0.27, -0.133, -0.328, 0.185, -0.266, -0.361, -0.18, 0.085, 0.034, 0.443, -0.032, -0.111, -0.186, 0.279, -0.244, 0.333, -0.15, -0.317, 0.192, 0.345, -0.45, -0.417, 0.228, 0.085, 0.258, 0.131, 0.072, -0.103, -0.234, -0.369, -0.028, -0.099, 0.114, -0.453, 0.032, 0.001, -0.282, 0.343, -0.484, -0.075, -0.39, -0.085, -0.168, -0.167, -0.154], [-0.057, -0.404, 0.053, 0.146, -0.061, 0.28, 0.017, 0.062, -0.161, 0.108, 0.349, 0.274, 0.083, -0.448, 0.377, -0.354, -0.065, -0.036, -0.051, -0.398, 0.267, -0.304, 0.289, 0.27, 0.079, 0.428, -0.083, -0.174, -0.469, -0.312, 0.337, 0.038, -0.369, -0.348, 0.477, 0.482, 0.171, -0.328, -0.359, 0.43, -0.409, -0.14, -0.339, -0.398, -0.101, -0.192, -0.399, -0.106, -0.449, -0.324, -0.019, -0.094, -0.341, -0.4, -0.279, -0.418, -0.329, 0.228, 0.165, -0.342, -0.477, 0.128, -0.023, 0.158], [-0.393, 0.324, -0.139, 0.13, -0.349, -0.296, -0.159, 0.494, -0.369, -0.3, -0.483, -0.398, -0.429, 0.36, 0.033, -0.194, 0.295, -0.18, 0.469, -0.438, 0.227, -0.464, -0.423, -0.266, 0.287, 0.268, -0.147, 0.498, -0.005, 0.248, -0.303, -0.378, -0.465, -0.308, 0.245, 0.482, 0.467, -0.08, 0.257, -0.37, -0.497, 0.116, 0.197, -0.302, 0.315, -0.12, 0.393, -0.138, 0.327, 0.14, 0.021, 0.466, -0.301, 0.448, 0.153, -0.25, 0.143, -0.068, 0.357, 0.154, 0.275, 0.056, -0.303, -0.322], [0.127, 0.46, -0.195, 0.346, -0.013, 0.016, 0.081, -0.49, 0.151, 0.332, 0.469, -0.214, -0.077, -0.048, -0.287, 0.486, 0.207, -0.292, 0.381, -0.366, -0.269, -0.216, 0.297, -0.05, 0.207, 0.228, -0.163, -0.446, -0.085, 0.304, 0.137, 0.278, -0.209, 0.068, -0.499, -0.406, 0.451, 0.248, -0.423, 0.046, 0.215, -0.452, -0.467, 0.474, 0.355, -0.392, -0.015, 0.398, 0.247, 0.276, 0.429, 0.202, -0.205, -0.448, -0.423, 0.19, 0.495, -0.1, 0.237, -0.31, -0.309, 0.304, 0.193, -0.442], [0.335, -0.068, 0.133, -0.078, -0.381, -0.032, -0.087, 0.094, 0.031, -0.004, 0.429, -0.158, 0.203, 0.088, -0.487, 0.206, 0.399, 0.276, 0.181, 0.37, -0.357, 0.208, -0.183, -0.378, 0.015, 0.316, -0.363, 0.026, 0.251, -0.424, -0.351, 0.246, -0.385, -0.5, -0.067, 0.386, 0.179, 0.44, -0.079, 0.102, 0.039, -0.116, -0.371, -0.318, -0.477, 0.136, -0.439, 0.11, 0.423, 0.172, -0.211, 0.402, 0.195, 0.416, 0.153, 0.342, -0.417, 0.228, -0.043, 0.09, -0.181, 0.44, -0.399, 0.07], [-0.113, -0.452, 0.325, -0.486, 0.339, 0.08, -0.311, 0.406, 0.023, -0.196, -0.203, 0.258, -0.349, 0.0, 0.057, -0.042, 0.071, 0.052, -0.459, -0.262, -0.053, -0.304, 0.033, -0.018, 0.359, 0.364, 0.197, -0.174, 0.139, -0.28, 0.401, -0.41, 0.103, -0.468, 0.461, -0.102, -0.469, 0.16, -0.327, 0.342, 0.167, -0.324, 0.325, -0.102, -0.205, 0.432, -0.167, 0.43, -0.153, 0.388, 0.213, 0.178, -0.029, -0.28, -0.135, -0.178, -0.153, -0.164, -0.451, 0.298, 0.179, -0.2, -0.231, 0.014], [-0.385, 0.236, 0.333, -0.398, -0.237, -0.248, -0.415, -0.218, 0.055, -0.252, -0.203, 0.05, -0.317, -0.256, 0.441, -0.09, -0.401, -0.02, -0.339, -0.358, -0.493, 0.368, 0.017, 0.03, 0.007, -0.268, -0.363, -0.014, 0.483, 0.16, 0.033, 0.494, -0.177, -0.172, 0.421, 0.05, -0.437, 0.488, 0.449, 0.19, -0.033, 0.3, -0.419, 0.226, 0.323, 0.344, 0.337, -0.034, 0.279, 0.012, -0.067, 0.466, 0.075, -0.032, 0.169, 0.07, 0.143, 0.172, 0.221, -0.214, 0.467, -0.104, -0.167, 0.07], [0.175, -0.196, -0.011, 0.49, -0.317, -0.144, -0.399, -0.322, -0.417, 0.292, 0.181, -0.294, -0.461, -0.448, -0.359, 0.11, 0.183, -0.06, -0.491, 0.402, 0.011, 0.112, -0.039, -0.354, 0.311, -0.396, -0.451, 0.362, 0.419, -0.152, 0.065, 0.374, -0.129, -0.364, -0.267, -0.118, -0.197, 0.44, -0.311, -0.106, 0.279, 0.012, -0.115, -0.11, 0.435, -0.16, 0.433, 0.446, 0.007, -0.044, -0.291, 0.026, -0.421, -0.16, -0.303, 0.054, -0.441, 0.156, -0.347, 0.498, 0.203, -0.232, -0.007, -0.018], [0.103, -0.468, -0.459, 0.01, -0.229, 0.088, -0.383, -0.218, 0.183, 0.428, -0.179, 0.242, 0.283, 0.184, 0.105, 0.374, -0.153, -0.42, -0.067, -0.43, 0.267, 0.4, -0.063, 0.182, 0.391, -0.012, 0.053, -0.31, -0.445, -0.44, 0.137, -0.234, -0.185, -0.028, -0.267, -0.334, -0.341, 0.448, -0.047, 0.174, 0.471, 0.188, -0.099, -0.006, -0.069, 0.064, -0.343, -0.17, -0.153, 0.308, 0.125, -0.206, 0.083, -0.16, 0.257, -0.138, 0.303, 0.236, -0.299, -0.446, 0.435, 0.28, 0.329, 0.43], [0.351, -0.476, 0.469, 0.114, 0.115, 0.024, -0.071, -0.45, -0.337, -0.38, 0.469, 0.146, -0.197, -0.48, 0.105, 0.046, 0.495, 0.372, -0.395, -0.182, -0.037, 0.12, -0.159, -0.482, -0.105, 0.068, -0.259, -0.174, -0.325, -0.104, 0.065, 0.382, -0.249, 0.38, 0.341, -0.262, 0.011, -0.176, 0.385, -0.37, 0.031, 0.38, 0.413, 0.114, -0.157, 0.04, -0.279, -0.154, 0.383, -0.372, -0.411, -0.118, 0.363, 0.296, -0.167, 0.462, 0.463, 0.332, 0.397, -0.398, -0.317, 0.472, 0.097, 0.214], [0.103, -0.236, 0.077, -0.014, 0.387, -0.288, -0.231, 0.022, 0.247, 0.156, -0.299, 0.082, -0.133, -0.032, 0.089, -0.354, 0.151, -0.332, 0.373, -0.006, -0.389, -0.312, 0.041, 0.006, -0.353, 0.204, 0.381, 0.154, -0.261, -0.368, 0.193, 0.462, 0.247, 0.228, -0.107, -0.278, -0.437, -0.296, -0.455, -0.37, -0.321, 0.316, 0.437, 0.002, -0.381, 0.208, -0.191, 0.454, -0.217, 0.356, 0.389, 0.226, 0.315, 0.064, -0.119, -0.354, -0.105, -0.108, 0.245, -0.238, -0.357, -0.496, 0.377, -0.394], [0.367, 0.356, 0.141, -0.422, 0.027, -0.328, 0.137, 0.302, 0.391, -0.444, 0.213, -0.11, 0.363, -0.24, 0.033, -0.482, 0.015, 0.292, -0.443, 0.122, -0.101, 0.048, 0.433, -0.474, 0.295, -0.42, -0.379, -0.47, -0.173, -0.28, -0.311, -0.282, 0.399, -0.292, -0.043, 0.306, -0.453, -0.304, 0.225, 0.126, -0.097, -0.1, 0.109, 0.234, -0.413, -0.112, -0.367, -0.266, -0.369, -0.3, -0.419, 0.29, 0.363, 0.472, 0.385, -0.322, -0.313, -0.164, -0.371, -0.022, 0.187, 0.416, 0.073, 0.11], [-0.377, -0.42, 0.317, 0.37, 0.355, 0.304, -0.143, 0.43, 0.375, -0.244, 0.285, -0.414, 0.355, -0.344, 0.033, 0.182, -0.185, -0.108, -0.347, 0.402, -0.365, -0.384, 0.089, 0.43, -0.041, 0.204, -0.475, 0.042, -0.101, -0.064, -0.159, 0.038, 0.423, -0.46, -0.075, 0.058, -0.333, -0.064, 0.337, 0.486, 0.071, -0.492, -0.259, -0.086, 0.251, -0.072, 0.377, -0.058, -0.257, 0.452, 0.101, 0.306, 0.459, 0.024, 0.153, -0.002, 0.047, 0.26, 0.053, -0.278, -0.341, 0.072, 0.265, 0.35], [-0.121, -0.108, 0.029, 0.37, 0.163, -0.168, -0.367, -0.138, -0.049, -0.428, 0.261, 0.306, 0.083, 0.184, 0.065, -0.37, 0.399, -0.356, -0.315, -0.142, -0.141, -0.016, -0.447, 0.246, 0.287, -0.092, 0.389, -0.158, -0.261, -0.12, -0.479, 0.134, 0.119, 0.268, 0.309, -0.278, -0.197, -0.264, 0.321, -0.338, 0.375, 0.044, 0.469, 0.266, 0.235, -0.352, 0.105, -0.49, 0.407, 0.468, 0.357, 0.386, 0.027, 0.048, -0.183, -0.426, -0.289, 0.436, -0.451, 0.29, -0.069, -0.488, -0.495, -0.226], [-0.033, 0.276, -0.067, 0.354, 0.419, -0.048, 0.289, -0.066, 0.399, -0.004, 0.421, 0.066, -0.037, 0.104, -0.127, 0.382, 0.143, -0.452, 0.149, -0.014, -0.269, -0.432, 0.193, 0.03, 0.103, -0.244, -0.019, 0.018, -0.045, -0.32, 0.369, -0.106, 0.351, -0.092, -0.147, -0.134, 0.363, 0.232, 0.089, -0.33, -0.169, -0.116, 0.309, -0.254, 0.395, -0.16, 0.001, -0.306, 0.383, -0.46, -0.067, -0.182, -0.037, -0.248, 0.185, 0.198, 0.239, 0.46, -0.027, 0.45, -0.301, -0.104, 0.225, -0.29], [-0.105, 0.484, 0.157, 0.33, -0.085, -0.464, -0.119, 0.454, -0.177, 0.492, -0.187, 0.058, 0.235, 0.296, -0.215, 0.134, -0.401, 0.428, -0.283, 0.162, -0.413, -0.04, -0.391, -0.042, -0.297, -0.124, 0.245, 0.426, -0.021, -0.416, 0.201, 0.382, -0.433, 0.004, 0.421, -0.47, -0.125, 0.032, 0.433, 0.462, 0.279, -0.068, 0.397, 0.226, -0.293, -0.176, -0.223, 0.278, -0.337, 0.228, -0.059, -0.286, 0.043, 0.112, -0.111, -0.218, 0.367, -0.044, 0.005, 0.202, -0.165, -0.384, -0.319, -0.042], [-0.209, -0.204, -0.347, 0.426, -0.381, 0.336, -0.471, 0.11, -0.201, 0.348, -0.339, 0.242, -0.037, -0.128, -0.455, 0.35, 0.143, 0.284, -0.115, 0.234, 0.291, -0.072, -0.183, -0.266, -0.089, 0.332, -0.051, 0.45, 0.123, 0.072, 0.361, 0.134, 0.335, -0.076, 0.053, -0.366, 0.395, 0.272, 0.265, -0.242, 0.087, -0.436, 0.045, -0.19, 0.323, 0.096, -0.383, 0.166, 0.359, -0.38, -0.387, 0.306, -0.133, -0.016, -0.263, 0.47, -0.345, 0.316, 0.205, -0.038, -0.317, 0.184, 0.249, 0.494], [0.367, 0.372, -0.451, -0.054, -0.325, -0.48, -0.359, 0.358, 0.135, 0.084, -0.283, 0.458, 0.035, 0.36, 0.129, 0.43, -0.025, -0.06, 0.325, -0.422, -0.173, 0.36, -0.287, -0.114, 0.023, -0.396, 0.037, -0.054, -0.181, 0.392, -0.335, 0.214, -0.249, 0.212, -0.387, 0.218, -0.197, 0.264, -0.327, -0.194, -0.257, 0.036, 0.389, 0.426, 0.219, -0.024, 0.233, -0.21, 0.407, 0.276, 0.357, 0.41, -0.493, -0.304, -0.287, -0.474, 0.487, -0.484, -0.451, 0.378, 0.115, -0.36, 0.185, -0.234], [-0.249, 0.14, 0.149, 0.074, 0.051, -0.16, -0.311, -0.114, 0.407, 0.284, -0.147, 0.074, 0.219, 0.168, 0.337, -0.162, 0.119, 0.044, -0.467, 0.338, 0.059, 0.376, 0.369, 0.47, 0.215, 0.404, -0.371, -0.35, -0.325, -0.328, 0.105, -0.49, 0.031, 0.236, -0.155, 0.202, -0.493, -0.208, -0.375, -0.322, 0.319, 0.372, 0.093, 0.474, -0.101, -0.392, 0.161, -0.242, -0.377, -0.364, 0.461, -0.39, -0.437, -0.248, 0.273, -0.258, 0.423, -0.052, -0.403, -0.43, -0.173, 0.144, -0.079, -0.25], [-0.049, -0.444, -0.419, -0.238, 0.187, 0.168, 0.377, -0.498, -0.281, 0.468, 0.173, -0.126, 0.051, -0.12, -0.263, -0.378, 0.479, -0.228, -0.467, 0.242, -0.029, -0.432, 0.329, -0.338, 0.079, 0.212, 0.317, 0.418, 0.123, -0.488, 0.497, -0.266, -0.377, -0.46, -0.387, -0.022, -0.317, 0.168, -0.495, 0.27, -0.049, 0.476, -0.355, 0.234, 0.339, -0.336, -0.239, -0.202, 0.295, -0.092, -0.019, -0.334, 0.459, -0.168, 0.401, -0.266, 0.199, 0.236, 0.029, -0.166, 0.339, 0.088, -0.343, -0.402], [0.151, 0.252, 0.445, 0.49, -0.245, 0.2, -0.471, 0.19, 0.351, 0.276, 0.197, -0.422, 0.299, -0.448, -0.167, -0.402, 0.079, 0.124, 0.469, -0.214, 0.427, 0.0, 0.313, -0.186, 0.143, 0.092, -0.131, 0.282, 0.475, 0.04, -0.463, -0.226, -0.257, 0.14, 0.309, 0.41, -0.261, -0.176, -0.071, 0.006, 0.007, 0.076, 0.005, 0.402, 0.043, -0.064, -0.431, 0.222, -0.465, -0.468, -0.147, -0.134, 0.147, 0.44, -0.447, 0.294, 0.023, 0.476, -0.299, -0.358, 0.051, 0.336, 0.177, -0.418], [-0.345, 0.332, -0.427, -0.086, 0.195, 0.16, -0.151, 0.11, 0.407, -0.18, 0.029, -0.03, 0.203, 0.416, -0.455, 0.462, -0.233, -0.076, -0.283, 0.346, -0.237, -0.384, 0.217, 0.158, 0.351, -0.476, 0.229, 0.154, -0.189, -0.496, 0.337, 0.342, -0.161, -0.068, 0.445, -0.054, -0.445, -0.224, -0.311, -0.218, 0.031, -0.276, 0.013, -0.39, -0.013, -0.256, 0.297, 0.406, -0.369, 0.42, 0.485, 0.322, 0.347, -0.096, -0.287, -0.314, -0.017, -0.06, 0.293, -0.414, -0.221, 0.224, 0.033, 0.206], [-0.353, 0.076, -0.083, -0.486, 0.475, 0.096, 0.161, -0.402, 0.463, 0.092, -0.459, -0.23, 0.475, -0.12, -0.327, 0.382, -0.025, 0.172, 0.069, 0.418, 0.139, -0.168, -0.239, 0.046, -0.473, -0.132, -0.131, 0.066, 0.443, -0.32, -0.407, 0.326, 0.479, -0.068, -0.235, 0.45, 0.187, 0.104, -0.007, 0.022, 0.335, 0.148, -0.019, -0.39, 0.323, -0.416, 0.129, 0.31, 0.047, 0.308, -0.187, -0.382, -0.341, 0.432, -0.311, 0.35, 0.287, -0.276, 0.013, 0.49, -0.429, -0.384, 0.305, 0.094], [-0.217, -0.356, 0.253, -0.054, 0.091, 0.232, 0.169, 0.462, -0.025, -0.444, 0.485, -0.238, 0.355, 0.176, 0.137, -0.298, -0.153, -0.308, -0.451, 0.378, -0.405, 0.24, 0.489, 0.006, 0.319, -0.044, -0.323, -0.478, 0.451, -0.128, 0.121, 0.142, 0.407, 0.036, 0.133, 0.314, 0.163, 0.472, -0.015, 0.27, 0.463, 0.252, 0.045, 0.274, 0.027, -0.224, -0.223, 0.014, 0.071, 0.46, 0.245, 0.218, -0.141, -0.352, 0.113, -0.394, 0.023, 0.396, -0.107, 0.298, -0.053, -0.448, 0.249, 0.046], [-0.105, -0.388, 0.237, -0.014, 0.307, -0.384, 0.049, 0.038, 0.223, 0.204, 0.085, 0.314, -0.389, -0.288, 0.441, -0.058, 0.463, 0.132, 0.005, 0.074, -0.061, 0.256, 0.473, 0.39, 0.199, -0.148, 0.477, -0.39, -0.205, -0.144, -0.087, -0.378, 0.191, -0.092, -0.411, 0.458, -0.109, 0.312, -0.423, -0.05, 0.431, 0.06, -0.483, 0.41, -0.045, -0.184, -0.223, 0.126, 0.167, -0.092, 0.365, 0.354, 0.195, -0.24, -0.207, 0.19, -0.305, 0.108, 0.085, 0.13, -0.045, -0.456, -0.407, -0.314], [-0.361, -0.212, -0.355, -0.358, 0.267, -0.232, 0.449, 0.134, -0.041, -0.5, -0.259, -0.438, -0.221, 0.072, 0.153, 0.446, 0.023, -0.332, 0.405, -0.47, -0.141, 0.12, 0.257, 0.43, 0.463, -0.316, -0.491, 0.186, -0.389, -0.12, -0.215, -0.466, 0.279, -0.204, 0.349, -0.078, 0.251, 0.288, -0.143, 0.31, 0.079, -0.172, 0.237, -0.11, -0.269, 0.32, -0.159, -0.274, 0.271, -0.38, 0.285, -0.158, 0.091, 0.096, -0.287, 0.422, 0.095, 0.428, 0.325, 0.282, 0.115, -0.368, 0.241, 0.166], [0.199, -0.196, 0.429, 0.394, -0.061, 0.088, -0.399, 0.438, 0.111, 0.084, -0.323, -0.126, -0.373, -0.392, 0.425, 0.382, -0.449, 0.3, 0.301, -0.406, -0.133, -0.048, -0.087, 0.126, -0.065, -0.484, -0.107, -0.366, -0.197, 0.072, -0.271, 0.414, -0.113, -0.284, 0.453, -0.374, -0.053, -0.464, 0.441, 0.07, -0.225, -0.068, 0.165, -0.182, -0.141, 0.136, -0.199, 0.422, -0.153, -0.02, -0.115, -0.086, -0.205, 0.16, -0.023, 0.39, 0.079, -0.196, -0.235, -0.422, 0.475, 0.328, -0.375, 0.11], [0.231, -0.236, 0.421, -0.102, 0.467, -0.2, 0.153, 0.406, 0.135, -0.228, -0.355, -0.262, -0.309, -0.392, 0.177, 0.446, -0.401, -0.148, 0.309, -0.358, -0.349, 0.344, -0.367, 0.358, 0.263, -0.172, -0.427, 0.162, -0.493, 0.032, 0.265, -0.026, 0.463, -0.14, 0.469, -0.39, 0.211, 0.312, 0.417, -0.17, 0.359, 0.276, 0.141, -0.23, 0.315, 0.232, -0.279, 0.294, -0.465, -0.1, 0.277, 0.034, 0.083, -0.368, -0.079, 0.062, 0.031, -0.196, -0.211, 0.258, -0.149, -0.328, 0.297, -0.33], [-0.433, -0.052, 0.221, -0.07, 0.467, -0.048, 0.281, 0.374, -0.041, -0.148, -0.483, -0.182, -0.261, -0.224, -0.439, 0.454, 0.191, 0.324, -0.019, -0.182, 0.019, 0.36, -0.159, -0.17, 0.271, -0.02, 0.317, -0.198, 0.331, -0.112, 0.033, 0.102, 0.223, -0.052, 0.085, 0.442, -0.253, 0.104, 0.049, 0.31, -0.153, 0.236, -0.227, 0.498, 0.251, 0.104, 0.137, -0.05, 0.447, 0.116, 0.045, 0.138, -0.445, -0.336, 0.353, -0.122, 0.215, -0.42, 0.253, 0.146, -0.357, -0.472, -0.311, 0.47], [-0.137, 0.164, -0.043, -0.15, 0.083, 0.064, -0.311, -0.498, 0.335, -0.156, 0.045, -0.398, -0.341, 0.344, 0.497, 0.102, 0.231, -0.46, 0.285, 0.202, 0.011, -0.408, -0.271, -0.282, -0.097, -0.492, 0.069, -0.238, 0.059, -0.408, -0.151, -0.138, 0.263, -0.476, -0.483, 0.218, 0.435, 0.224, 0.425, 0.406, -0.217, -0.284, 0.253, -0.07, 0.347, 0.072, 0.057, 0.47, -0.129, -0.108, -0.051, -0.014, -0.069, 0.288, -0.447, 0.454, 0.015, 0.348, 0.485, -0.462, 0.371, -0.416, -0.295, 0.31], [0.303, 0.34, -0.067, 0.434, 0.283, -0.464, 0.201, -0.226, -0.105, 0.332, -0.195, 0.106, -0.133, 0.072, 0.137, -0.442, -0.257, -0.5, 0.421, -0.414, 0.435, -0.192, 0.369, 0.078, -0.017, 0.068, -0.051, 0.426, 0.299, 0.216, 0.057, -0.21, -0.497, -0.396, 0.157, 0.45, -0.317, 0.456, 0.161, -0.106, -0.169, 0.444, -0.107, -0.182, 0.051, -0.368, 0.369, 0.462, -0.081, 0.316, 0.221, -0.134, -0.485, 0.008, -0.319, 0.23, 0.287, -0.092, 0.045, 0.202, -0.269, 0.352, 0.073, -0.482], [0.191, -0.364, 0.277, 0.338, 0.211, -0.408, 0.169, 0.35, 0.391, 0.484, -0.155, 0.17, 0.251, -0.16, 0.401, -0.482, -0.425, -0.324, 0.357, 0.05, -0.317, -0.4, 0.305, 0.438, 0.159, -0.156, 0.197, 0.002, 0.483, -0.288, -0.175, -0.05, -0.313, 0.084, -0.483, 0.234, 0.019, 0.408, 0.345, 0.318, -0.169, -0.38, 0.477, -0.262, 0.395, 0.4, -0.215, 0.006, 0.231, -0.052, -0.379, 0.186, 0.027, -0.2, 0.369, 0.174, 0.471, 0.18, -0.387, -0.214, 0.243, -0.128, -0.303, 0.19], [-0.289, -0.372, -0.059, 0.042, 0.131, -0.072, 0.121, -0.434, 0.103, 0.292, 0.389, 0.458, -0.421, 0.408, 0.089, -0.202, -0.193, -0.228, 0.293, -0.262, 0.211, 0.032, -0.391, 0.15, -0.097, -0.452, 0.285, -0.126, -0.077, -0.44, 0.441, 0.23, 0.383, -0.372, 0.341, -0.214, 0.499, -0.08, 0.241, 0.102, -0.497, 0.324, -0.331, 0.09, -0.173, -0.128, 0.489, -0.29, 0.271, -0.476, 0.085, -0.414, 0.419, -0.128, 0.073, -0.274, 0.127, 0.26, 0.045, 0.41, -0.045, 0.008, 0.361, 0.006], [-0.481, 0.124, 0.053, 0.202, -0.461, 0.416, 0.057, 0.23, -0.217, -0.132, 0.189, 0.458, 0.387, -0.344, 0.473, 0.446, -0.361, -0.092, -0.451, 0.026, 0.059, 0.4, -0.175, 0.094, -0.137, -0.34, -0.195, -0.102, 0.051, -0.344, 0.425, 0.342, -0.313, 0.484, -0.155, 0.498, 0.003, -0.4, -0.063, 0.142, -0.313, 0.108, -0.043, 0.154, 0.027, -0.28, -0.159, 0.006, -0.025, 0.308, 0.021, -0.174, -0.237, 0.2, 0.129, 0.15, -0.065, 0.42, 0.021, 0.018, 0.387, 0.448, 0.265, 0.062], [-0.201, -0.244, 0.269, 0.298, 0.403, -0.192, -0.495, 0.326, 0.359, 0.204, 0.469, 0.186, 0.091, -0.36, 0.353, 0.278, -0.257, 0.436, -0.027, 0.114, -0.261, 0.416, -0.327, -0.026, -0.137, -0.108, -0.123, -0.19, 0.123, 0.48, 0.121, 0.174, -0.481, -0.332, 0.365, 0.29, 0.235, 0.232, -0.303, -0.49, 0.047, -0.3, 0.005, 0.33, -0.205, 0.088, -0.271, -0.202, -0.193, 0.388, 0.013, 0.49, 0.011, -0.008, -0.007, -0.41, -0.489, -0.244, 0.397, 0.434, 0.235, -0.296, -0.159, -0.314], [-0.145, -0.372, 0.013, -0.366, -0.485, 0.272, 0.113, 0.366, -0.361, -0.236, -0.371, 0.13, -0.069, 0.296, 0.353, -0.01, 0.023, -0.468, 0.237, 0.322, 0.235, 0.376, -0.303, -0.034, -0.153, -0.276, 0.093, 0.466, 0.275, 0.28, -0.359, -0.21, 0.271, 0.372, 0.173, -0.446, -0.221, 0.48, 0.313, 0.454, 0.127, -0.348, -0.403, 0.194, -0.189, 0.296, -0.487, -0.13, -0.297, -0.028, -0.179, 0.042, 0.235, -0.128, -0.351, 0.31, -0.465, -0.46, -0.443, 0.25, 0.371, 0.168, -0.007, 0.326], [-0.129, 0.02, -0.059, -0.31, -0.157, -0.44, 0.113, -0.018, -0.153, -0.46, 0.245, -0.046, 0.323, 0.328, 0.217, 0.398, -0.145, 0.492, 0.485, 0.202, 0.059, -0.008, 0.321, -0.226, -0.009, 0.22, -0.427, -0.102, 0.467, 0.184, -0.319, -0.274, -0.137, -0.332, 0.253, 0.154, 0.339, -0.224, 0.345, 0.046, -0.409, 0.34, 0.397, 0.202, -0.125, 0.488, -0.271, 0.126, -0.169, -0.148, 0.029, 0.418, -0.317, 0.4, 0.201, -0.25, 0.271, -0.132, 0.005, -0.062, -0.213, 0.352, -0.199, 0.31], [-0.497, -0.26, -0.171, 0.122, 0.179, -0.456, -0.199, -0.314, -0.209, -0.356, 0.365, -0.15, -0.197, -0.328, 0.273, 0.198, 0.087, 0.492, -0.259, 0.426, 0.251, -0.44, -0.263, -0.074, 0.239, -0.14, -0.091, -0.334, -0.221, 0.144, 0.057, 0.046, -0.257, 0.044, -0.475, 0.186, -0.205, -0.216, 0.233, -0.466, -0.017, 0.02, -0.107, 0.226, 0.315, -0.016, -0.263, 0.35, -0.225, 0.236, 0.397, 0.378, 0.131, 0.2, 0.337, 0.23, 0.103, -0.34, -0.227, -0.206, 0.059, -0.408, 0.169, 0.438], [-0.417, 0.068, -0.019, 0.41, -0.157, -0.08, 0.057, 0.462, 0.047, 0.42, 0.213, -0.222, 0.491, -0.32, -0.383, -0.09, 0.447, -0.468, -0.147, 0.194, -0.381, 0.496, 0.017, 0.478, -0.233, 0.356, 0.221, -0.198, 0.171, -0.416, -0.239, 0.286, 0.127, -0.076, -0.323, 0.218, -0.149, -0.064, -0.407, -0.362, -0.033, 0.068, 0.045, 0.37, -0.365, -0.072, 0.073, 0.15, 0.351, 0.212, 0.157, -0.142, 0.179, 0.48, -0.191, 0.486, 0.239, -0.284, -0.283, -0.062, -0.469, 0.456, -0.175, -0.018], [0.119, 0.108, -0.475, -0.494, 0.275, 0.264, -0.119, 0.47, 0.071, -0.02, -0.107, 0.282, -0.077, -0.36, 0.225, -0.122, 0.135, 0.436, 0.141, 0.178, -0.149, 0.04, -0.295, -0.394, 0.223, 0.188, 0.453, -0.134, 0.427, 0.104, -0.039, -0.49, -0.241, 0.148, 0.277, -0.062, -0.261, -0.456, -0.487, -0.394, -0.265, 0.388, 0.045, -0.438, 0.459, -0.36, 0.449, -0.098, 0.495, 0.044, 0.421, 0.322, -0.453, -0.432, 0.305, -0.162, -0.233, -0.396, -0.483, 0.018, -0.277, 0.28, 0.377, 0.446], [-0.409, -0.156, -0.235, -0.406, -0.205, 0.272, 0.449, 0.342, 0.439, -0.036, 0.277, -0.326, -0.485, 0.256, -0.159, 0.27, -0.473, 0.204, 0.101, -0.422, 0.107, -0.04, -0.479, 0.366, 0.375, 0.068, 0.373, -0.11, 0.155, 0.184, 0.297, -0.042, -0.089, 0.084, 0.013, -0.382, -0.485, -0.256, -0.095, -0.138, -0.345, 0.356, -0.499, 0.202, -0.061, -0.032, 0.401, -0.082, -0.329, 0.116, 0.421, 0.002, -0.461, -0.384, -0.071, 0.374, -0.105, -0.228, 0.381, 0.45, -0.317, -0.072, -0.447, 0.454], [0.007, 0.028, 0.477, -0.374, 0.195, -0.184, 0.113, -0.058, -0.393, -0.46, -0.235, -0.206, 0.155, 0.112, 0.441, 0.078, -0.177, -0.34, -0.243, 0.418, 0.427, 0.496, -0.287, -0.418, -0.425, 0.18, -0.075, 0.082, 0.139, 0.072, -0.063, -0.362, -0.025, 0.276, 0.101, -0.35, -0.293, 0.496, -0.439, 0.302, 0.215, -0.476, -0.099, 0.218, 0.107, -0.472, -0.063, -0.074, -0.481, -0.308, -0.083, 0.362, 0.227, 0.008, -0.335, -0.29, 0.359, 0.14, -0.363, 0.234, -0.421, 0.088, 0.257, -0.194], [0.199, -0.356, -0.035, 0.434, 0.443, 0.296, 0.401, -0.098, -0.497, -0.004, -0.419, 0.306, -0.389, 0.264, 0.473, -0.474, 0.399, -0.196, 0.253, 0.194, -0.029, 0.416, 0.297, -0.338, -0.057, 0.18, -0.123, 0.474, -0.365, -0.104, 0.225, 0.142, -0.129, 0.092, -0.067, -0.102, -0.277, -0.416, 0.393, -0.354, 0.135, -0.028, 0.261, 0.01, 0.411, -0.184, 0.297, -0.466, -0.201, -0.14, -0.155, 0.338, 0.211, -0.456, -0.327, -0.01, -0.281, 0.156, -0.155, 0.138, -0.189, -0.376, -0.431, 0.126], [0.175, 0.148, 0.357, 0.322, -0.317, -0.416, -0.039, 0.382, 0.231, 0.148, -0.171, 0.05, -0.229, -0.056, -0.439, 0.254, 0.455, 0.108, -0.387, -0.366, -0.277, 0.312, -0.479, -0.218, 0.479, -0.396, -0.475, -0.374, 0.131, -0.096, -0.375, -0.17, -0.305, 0.076, 0.373, 0.458, 0.091, 0.32, 0.489, 0.494, -0.097, -0.1, 0.013, -0.142, 0.179, -0.496, 0.137, 0.174, 0.151, -0.172, -0.387, 0.042, -0.437, -0.096, -0.119, 0.126, -0.289, -0.26, -0.315, 0.458, -0.453, 0.224, 0.393, -0.082], [0.415, 0.468, -0.043, -0.23, -0.469, -0.272, -0.327, 0.366, -0.281, 0.284, 0.029, 0.338, -0.301, -0.44, 0.153, -0.218, 0.367, 0.276, 0.333, 0.234, -0.101, -0.4, 0.105, -0.354, 0.303, 0.46, -0.067, -0.43, -0.469, -0.424, 0.481, 0.294, 0.015, -0.404, -0.187, -0.454, -0.133, -0.16, -0.183, -0.082, -0.113, 0.388, 0.173, 0.162, -0.085, 0.032, -0.303, 0.102, -0.313, 0.388, 0.453, 0.058, -0.117, -0.408, -0.199, 0.262, -0.457, 0.34, -0.339, -0.334, 0.483, 0.104, 0.161, 0.454], [-0.073, 0.06, -0.459, 0.434, 0.131, -0.4, -0.463, 0.014, 0.071, -0.076, -0.067, 0.362, -0.365, -0.304, -0.479, 0.454, -0.313, -0.22, 0.085, 0.37, 0.483, 0.224, -0.407, -0.218, 0.063, 0.284, -0.251, -0.134, 0.323, 0.16, -0.039, 0.19, -0.425, -0.156, 0.469, -0.446, 0.283, 0.104, -0.239, -0.186, 0.279, -0.364, 0.229, 0.498, -0.405, 0.424, 0.337, -0.25, 0.047, -0.252, -0.171, 0.498, -0.405, -0.36, -0.287, -0.338, -0.401, -0.124, 0.157, -0.294, -0.157, -0.4, 0.425, -0.114], [0.191, -0.444, 0.413, 0.442, 0.451, -0.4, -0.271, -0.338, -0.081, -0.348, 0.117, -0.214, -0.005, 0.056, 0.465, -0.21, 0.439, -0.38, -0.283, -0.462, -0.013, -0.104, -0.295, -0.106, -0.417, -0.268, 0.389, 0.194, 0.411, -0.216, -0.295, 0.462, -0.353, -0.46, 0.029, 0.402, 0.043, -0.104, 0.289, 0.254, 0.095, 0.076, 0.141, -0.382, 0.019, -0.176, 0.241, 0.374, -0.009, 0.348, -0.379, 0.298, -0.349, 0.2, 0.425, 0.118, 0.143, -0.204, -0.323, 0.05, -0.381, -0.072, 0.265, -0.162], [-0.433, -0.236, -0.299, -0.198, 0.283, -0.4, -0.399, 0.47, 0.311, -0.012, -0.371, 0.098, 0.019, 0.224, 0.257, 0.134, 0.175, 0.268, -0.451, -0.238, 0.099, -0.088, -0.311, -0.49, 0.159, 0.34, -0.203, 0.114, -0.069, 0.048, -0.119, 0.47, -0.377, -0.124, -0.291, 0.13, 0.027, -0.472, 0.137, 0.486, -0.177, -0.444, 0.397, 0.45, 0.219, -0.448, 0.121, 0.054, -0.489, -0.252, -0.059, -0.078, -0.229, -0.4, -0.079, 0.246, -0.441, 0.02, -0.395, -0.358, 0.035, 0.424, -0.063, 0.11], [-0.465, 0.26, -0.291, 0.29, -0.053, -0.352, -0.319, 0.07, 0.231, 0.22, 0.045, 0.314, 0.419, -0.392, -0.303, -0.346, 0.271, 0.428, 0.077, 0.242, -0.021, 0.336, -0.087, 0.334, -0.385, 0.116, 0.093, -0.342, 0.491, 0.08, 0.129, 0.102, 0.423, -0.428, -0.099, 0.306, 0.291, 0.136, -0.079, -0.418, -0.465, 0.156, -0.339, -0.254, -0.357, 0.4, -0.487, -0.25, -0.281, -0.316, 0.373, -0.398, -0.093, -0.304, 0.009, 0.134, 0.055, -0.356, 0.093, -0.046, 0.435, -0.048, 0.169, 0.03], [0.103, -0.148, -0.435, -0.086, -0.117, -0.032, -0.383, -0.378, 0.431, 0.164, -0.235, -0.078, -0.213, 0.44, 0.057, -0.306, -0.425, -0.428, 0.325, 0.002, -0.037, 0.112, -0.079, -0.106, -0.401, 0.244, 0.221, 0.386, -0.125, 0.128, 0.321, 0.422, -0.209, -0.18, 0.469, 0.322, -0.285, 0.328, -0.271, 0.438, 0.367, 0.428, 0.069, 0.434, -0.029, 0.392, -0.223, 0.19, -0.097, -0.228, -0.027, -0.198, 0.131, 0.168, 0.321, 0.102, 0.367, -0.06, -0.123, -0.07, -0.309, 0.2, -0.135, 0.046], [-0.249, 0.172, -0.131, 0.154, 0.059, -0.096, -0.063, -0.186, -0.161, 0.108, 0.013, -0.062, 0.187, 0.128, -0.215, -0.226, -0.185, 0.348, -0.211, -0.462, -0.085, 0.304, 0.137, -0.106, 0.231, -0.268, -0.403, 0.33, -0.309, 0.32, -0.255, -0.034, -0.353, -0.012, -0.195, 0.098, -0.293, 0.24, 0.177, 0.478, 0.039, -0.252, -0.067, -0.438, 0.355, 0.32, -0.199, -0.018, 0.175, 0.396, 0.029, 0.458, 0.043, 0.168, 0.313, -0.41, 0.055, 0.004, -0.243, 0.042, -0.149, -0.264, 0.457, 0.134], [-0.161, 0.324, 0.453, -0.038, -0.029, 0.384, 0.345, 0.102, -0.441, 0.22, -0.459, 0.498, 0.211, -0.448, -0.495, 0.238, 0.191, 0.284, 0.141, -0.422, -0.181, -0.144, -0.247, -0.49, 0.159, 0.116, -0.483, 0.346, 0.371, 0.256, -0.431, -0.202, 0.087, 0.268, 0.125, 0.322, 0.443, -0.464, 0.001, -0.05, 0.391, -0.276, -0.259, 0.41, 0.419, -0.496, -0.407, -0.09, 0.175, 0.468, 0.301, 0.33, 0.067, 0.376, 0.321, -0.138, -0.145, 0.108, -0.179, -0.414, -0.269, 0.192, -0.151, 0.094], [-0.153, -0.06, -0.083, -0.478, -0.117, -0.248, 0.313, 0.174, -0.129, -0.212, 0.221, -0.03, 0.219, 0.12, 0.017, -0.394, 0.079, 0.028, -0.475, -0.382, -0.461, 0.184, -0.159, -0.202, 0.207, 0.052, -0.251, -0.478, 0.227, 0.064, -0.215, 0.454, 0.327, -0.268, 0.117, 0.266, 0.331, 0.296, 0.465, 0.222, 0.439, 0.028, -0.195, 0.378, 0.019, -0.208, 0.041, -0.474, -0.337, 0.076, -0.331, -0.294, -0.197, 0.296, 0.449, 0.062, 0.327, 0.348, 0.221, -0.318, -0.269, 0.488, -0.231, -0.098], [0.431, 0.124, -0.259, -0.214, 0.291, -0.416, -0.103, 0.486, -0.473, -0.02, 0.453, -0.158, 0.155, 0.416, 0.241, -0.482, 0.031, 0.404, 0.317, -0.318, 0.059, -0.12, -0.407, 0.286, 0.023, 0.076, 0.237, 0.362, 0.339, -0.008, -0.439, 0.35, 0.463, 0.22, 0.349, -0.03, -0.101, 0.184, 0.009, 0.246, 0.023, -0.436, -0.387, 0.394, 0.131, 0.448, -0.495, -0.034, -0.369, 0.132, 0.245, 0.346, -0.325, -0.392, 0.033, 0.102, -0.145, -0.004, -0.363, 0.274, 0.371, -0.392, 0.473, 0.006], [-0.225, -0.492, 0.229, 0.234, -0.189, -0.424, -0.431, 0.374, 0.159, -0.268, 0.165, -0.222, -0.269, 0.496, 0.329, 0.198, -0.281, 0.06, 0.013, -0.382, 0.243, 0.008, -0.215, -0.322, 0.079, -0.452, -0.251, 0.25, 0.019, 0.168, -0.463, -0.33, -0.233, 0.452, -0.491, 0.354, -0.093, 0.336, 0.249, 0.39, -0.137, 0.412, 0.477, 0.21, 0.259, -0.328, -0.479, 0.134, 0.191, 0.372, -0.035, 0.186, -0.069, -0.184, -0.471, 0.126, -0.001, 0.148, -0.371, -0.166, 0.347, 0.416, 0.041, -0.266], [-0.465, -0.452, -0.195, -0.126, -0.413, -0.4, 0.033, 0.35, 0.167, 0.212, 0.405, -0.382, -0.461, -0.056, 0.201, 0.286, 0.047, -0.476, -0.067, -0.198, 0.427, -0.136, 0.257, 0.15, -0.329, -0.052, -0.123, 0.394, 0.347, -0.456, 0.233, -0.17, 0.279, -0.028, 0.165, 0.106, -0.469, 0.36, -0.079, 0.254, 0.447, -0.228, -0.115, 0.402, 0.027, 0.432, 0.449, 0.11, -0.369, 0.06, -0.467, 0.338, 0.347, 0.248, -0.431, 0.398, 0.495, 0.076, -0.123, 0.01, 0.179, 0.304, 0.025, -0.114], [-0.457, -0.124, 0.125, 0.482, -0.413, 0.408, -0.183, 0.046, -0.169, 0.06, 0.397, 0.026, -0.357, 0.464, -0.343, -0.346, 0.039, 0.444, -0.427, -0.27, 0.123, -0.488, 0.081, -0.242, -0.377, 0.34, 0.093, 0.178, 0.283, -0.104, 0.289, -0.282, 0.271, -0.204, 0.357, 0.498, 0.179, -0.256, 0.289, -0.09, 0.143, 0.372, -0.499, 0.074, -0.413, -0.128, -0.175, -0.146, 0.063, -0.42, -0.411, -0.262, -0.181, -0.24, 0.313, -0.29, -0.097, -0.124, -0.115, 0.218, -0.085, 0.432, 0.209, 0.086], [0.455, 0.244, 0.317, 0.066, -0.397, -0.48, -0.431, -0.378, 0.255, -0.26, -0.107, -0.158, -0.069, -0.008, -0.031, 0.294, 0.247, -0.356, -0.043, -0.222, -0.333, -0.104, 0.153, -0.322, -0.417, -0.148, -0.011, -0.19, -0.389, 0.472, 0.225, 0.342, 0.487, 0.116, -0.051, -0.43, 0.379, -0.256, 0.145, -0.098, -0.209, 0.116, -0.243, 0.45, -0.029, 0.312, -0.287, 0.446, 0.127, 0.196, 0.189, 0.146, 0.123, -0.32, 0.393, -0.322, -0.393, 0.468, -0.315, 0.106, 0.075, 0.488, -0.207, 0.134], [0.455, -0.364, 0.333, -0.246, 0.251, -0.368, -0.183, 0.414, -0.281, -0.108, -0.235, 0.378, 0.171, 0.232, 0.289, -0.274, -0.305, 0.124, -0.419, -0.206, 0.219, -0.272, 0.193, -0.034, -0.329, -0.452, -0.315, -0.326, -0.413, -0.248, 0.329, -0.354, -0.153, 0.356, 0.333, -0.462, 0.187, -0.448, 0.049, 0.358, -0.241, -0.268, 0.021, 0.282, 0.275, -0.4, -0.407, 0.142, -0.065, -0.004, -0.083, -0.15, -0.141, -0.488, -0.383, -0.258, -0.481, 0.3, 0.485, 0.146, 0.003, 0.04, 0.209, 0.358], [0.199, 0.156, 0.301, -0.446, 0.027, -0.328, -0.087, 0.23, 0.327, 0.332, 0.117, -0.174, -0.101, 0.12, 0.185, 0.294, -0.065, -0.292, 0.117, -0.198, -0.181, -0.344, -0.255, -0.202, 0.239, 0.26, -0.227, -0.374, -0.301, -0.016, -0.231, -0.362, 0.095, 0.004, 0.373, 0.498, -0.165, 0.072, -0.207, 0.47, -0.113, 0.42, 0.077, 0.498, -0.469, 0.0, -0.119, 0.374, -0.225, -0.46, -0.115, -0.39, 0.451, -0.064, 0.265, -0.13, -0.329, 0.292, -0.035, 0.282, -0.077, 0.072, 0.361, -0.146], [0.167, 0.436, -0.475, 0.242, -0.101, -0.016, 0.033, 0.406, -0.345, 0.052, 0.469, -0.15, -0.117, 0.36, -0.191, -0.482, -0.009, 0.396, 0.413, -0.35, -0.373, 0.392, -0.471, 0.23, 0.055, -0.356, 0.021, 0.05, -0.149, 0.296, -0.111, -0.09, -0.201, 0.428, -0.187, -0.334, 0.379, 0.144, 0.289, 0.31, 0.191, 0.26, -0.059, 0.202, -0.109, -0.288, -0.239, -0.25, 0.463, -0.084, 0.325, -0.286, -0.205, -0.192, 0.497, 0.15, 0.327, -0.108, -0.019, 0.282, -0.469, -0.2, -0.023, 0.302], [-0.281, -0.068, -0.219, -0.174, -0.341, -0.208, -0.471, -0.25, 0.159, -0.188, -0.075, -0.062, 0.011, 0.184, -0.215, 0.39, -0.233, 0.364, 0.437, 0.362, -0.021, -0.472, -0.207, 0.438, 0.119, -0.06, -0.275, 0.154, -0.469, 0.288, -0.495, 0.47, 0.055, -0.124, 0.165, -0.214, -0.005, 0.376, -0.023, -0.17, 0.215, -0.196, 0.045, 0.266, -0.021, -0.296, -0.407, 0.35, -0.417, 0.036, -0.003, -0.078, 0.019, -0.248, 0.297, -0.45, -0.481, 0.02, -0.435, 0.498, -0.005, 0.264, -0.335, 0.15], [0.335, -0.428, -0.275, 0.434, -0.077, 0.496, 0.225, -0.402, -0.233, 0.308, -0.291, 0.106, -0.301, -0.296, 0.209, 0.43, -0.065, -0.092, 0.389, -0.214, 0.387, 0.184, -0.447, 0.478, 0.255, 0.452, 0.301, -0.03, -0.357, -0.264, -0.039, -0.09, -0.217, 0.012, 0.469, -0.278, 0.443, -0.096, 0.121, 0.398, 0.271, 0.428, -0.243, 0.146, -0.349, 0.12, -0.087, 0.43, -0.401, -0.364, 0.485, 0.17, 0.371, 0.328, -0.231, -0.49, -0.193, 0.124, 0.221, -0.006, 0.363, -0.376, 0.153, 0.022], [0.023, -0.484, 0.485, -0.278, -0.165, -0.384, 0.177, 0.11, -0.417, 0.3, -0.131, -0.158, -0.165, 0.448, 0.353, 0.334, 0.399, 0.204, -0.059, 0.298, 0.187, 0.248, 0.409, 0.174, 0.407, 0.364, 0.045, 0.058, 0.323, -0.408, -0.279, -0.058, -0.273, -0.268, -0.355, 0.218, 0.251, 0.04, 0.161, 0.262, 0.255, 0.388, -0.491, 0.418, -0.469, -0.368, 0.433, 0.422, -0.497, -0.372, -0.451, 0.218, -0.077, 0.16, 0.249, -0.354, -0.073, 0.124, -0.019, -0.23, -0.493, -0.08, 0.345, 0.07], [0.263, -0.308, -0.339, 0.17, -0.285, 0.2, -0.143, -0.378, -0.113, 0.132, -0.019, 0.162, -0.165, -0.176, 0.369, -0.434, -0.169, -0.396, 0.237, 0.394, 0.243, 0.488, 0.377, -0.066, 0.399, 0.388, -0.275, -0.198, 0.179, -0.368, -0.223, -0.25, 0.455, 0.052, 0.029, 0.194, 0.475, -0.432, 0.009, -0.154, 0.479, -0.292, -0.331, 0.482, 0.123, 0.032, -0.311, -0.418, -0.297, 0.452, 0.421, -0.294, -0.373, 0.456, 0.193, 0.398, -0.209, 0.468, 0.053, -0.406, -0.229, 0.016, -0.327, -0.082], [0.415, -0.444, -0.267, 0.082, 0.003, 0.472, -0.031, -0.41, 0.431, 0.268, 0.445, 0.202, -0.061, 0.064, -0.471, -0.474, 0.135, 0.228, 0.301, 0.45, -0.461, -0.152, -0.295, 0.286, -0.121, 0.356, -0.067, -0.294, -0.357, -0.192, -0.351, 0.102, 0.063, -0.132, 0.189, 0.338, -0.005, 0.448, -0.247, 0.046, 0.487, -0.356, 0.021, 0.266, 0.403, -0.36, 0.041, -0.306, 0.191, 0.316, 0.213, 0.042, -0.093, -0.104, -0.415, 0.086, 0.431, 0.076, 0.117, 0.114, 0.027, -0.4, 0.337, 0.07], [-0.041, 0.388, -0.347, -0.062, 0.019, -0.168, -0.311, 0.35, 0.495, 0.348, -0.163, 0.33, -0.141, -0.072, -0.367, 0.03, 0.335, -0.22, -0.019, 0.314, -0.413, 0.04, 0.113, 0.23, 0.319, 0.276, 0.141, -0.142, 0.027, 0.192, -0.023, 0.182, 0.119, -0.156, 0.165, -0.078, -0.133, -0.184, 0.361, -0.418, 0.295, 0.22, -0.123, -0.478, -0.125, 0.304, 0.025, -0.338, 0.079, -0.34, -0.491, -0.486, -0.341, 0.28, -0.119, 0.446, -0.241, 0.044, 0.029, 0.098, -0.029, -0.464, 0.121, 0.446], [-0.097, -0.004, -0.451, -0.254, -0.445, -0.2, 0.017, 0.062, -0.169, -0.164, 0.205, 0.034, -0.461, 0.296, 0.249, 0.07, -0.017, -0.268, 0.245, -0.342, 0.075, 0.36, 0.145, -0.002, 0.367, -0.316, -0.411, -0.238, 0.411, 0.44, -0.071, 0.406, -0.281, 0.228, -0.179, -0.014, -0.029, -0.368, -0.431, 0.054, -0.257, -0.308, -0.275, -0.174, -0.485, -0.36, 0.001, 0.27, -0.345, 0.044, -0.283, -0.118, 0.011, 0.288, 0.065, 0.446, 0.159, 0.292, 0.469, 0.194, 0.123, -0.136, -0.423, -0.45], [-0.273, 0.308, 0.077, 0.282, 0.227, 0.424, -0.167, 0.062, 0.071, 0.372, 0.125, -0.022, -0.309, -0.424, -0.119, -0.13, 0.103, -0.268, 0.293, -0.318, -0.485, 0.224, -0.479, -0.41, 0.495, -0.412, -0.251, 0.154, -0.245, -0.376, 0.497, -0.042, 0.431, 0.036, -0.099, -0.254, 0.011, 0.384, -0.359, -0.466, 0.199, 0.436, 0.229, 0.282, -0.173, 0.496, -0.495, 0.422, 0.031, -0.092, -0.227, 0.082, -0.141, 0.128, -0.055, -0.474, 0.191, -0.028, -0.355, -0.478, -0.469, -0.256, -0.215, 0.006], [0.439, 0.484, -0.339, -0.446, -0.469, -0.072, 0.433, 0.158, -0.385, 0.124, -0.003, 0.002, -0.445, 0.0, 0.449, 0.07, 0.247, 0.308, 0.445, -0.238, -0.109, -0.48, 0.137, 0.238, -0.297, 0.172, -0.139, -0.11, 0.195, 0.048, 0.497, -0.394, 0.351, 0.46, -0.083, 0.298, -0.429, 0.328, -0.335, -0.082, -0.497, 0.356, -0.475, 0.114, 0.435, 0.192, 0.249, -0.45, 0.199, 0.46, -0.267, 0.226, -0.021, -0.224, 0.153, -0.346, 0.239, 0.3, 0.237, 0.026, -0.285, -0.432, 0.001, -0.386], [-0.129, 0.1, -0.043, -0.31, 0.435, 0.36, 0.049, -0.314, 0.095, 0.38, 0.045, 0.418, -0.453, -0.024, -0.247, 0.19, 0.439, 0.46, 0.197, 0.042, -0.285, -0.28, -0.287, 0.294, -0.241, 0.444, 0.397, -0.294, 0.283, 0.488, 0.273, 0.182, 0.047, 0.22, 0.261, -0.142, 0.003, 0.304, -0.391, 0.278, 0.023, 0.476, 0.277, 0.426, 0.195, 0.168, -0.231, 0.262, -0.433, -0.212, -0.115, 0.25, -0.381, -0.264, 0.497, 0.27, -0.433, -0.276, 0.453, 0.178, 0.019, -0.152, -0.047, 0.35], [0.031, -0.036, -0.259, 0.346, 0.379, -0.408, -0.319, 0.102, 0.263, -0.396, 0.021, -0.23, -0.093, -0.264, 0.417, -0.074, 0.231, 0.308, -0.075, 0.25, 0.027, -0.288, 0.145, 0.286, 0.015, -0.412, -0.051, 0.106, -0.141, -0.456, 0.289, 0.102, -0.385, -0.492, -0.203, -0.182, 0.187, -0.432, 0.209, -0.138, 0.247, 0.052, 0.269, 0.146, -0.269, -0.2, 0.425, -0.362, 0.127, 0.156, 0.285, 0.266, 0.203, 0.04, -0.391, -0.362, 0.207, 0.164, -0.379, -0.078, -0.333, 0.272, -0.455, 0.014], [0.399, -0.292, 0.317, 0.002, 0.331, 0.024, 0.153, 0.446, 0.399, 0.14, -0.203, 0.018, 0.347, 0.336, -0.463, 0.094, -0.001, 0.204, 0.421, 0.234, -0.365, 0.264, 0.153, -0.434, -0.409, -0.036, 0.285, -0.174, 0.179, -0.36, 0.241, 0.254, -0.377, 0.044, 0.269, 0.394, -0.117, -0.04, -0.271, -0.258, -0.105, -0.188, -0.483, 0.322, -0.453, -0.472, -0.247, 0.286, -0.009, 0.3, 0.221, 0.21, -0.317, 0.488, 0.297, -0.098, -0.281, 0.42, -0.051, 0.082, 0.003, 0.056, 0.209, 0.23], [-0.017, 0.084, -0.187, -0.038, -0.213, -0.472, -0.183, 0.174, -0.393, 0.1, 0.125, 0.354, 0.107, 0.36, -0.263, -0.258, -0.057, 0.324, -0.291, -0.334, -0.421, -0.032, 0.281, 0.366, 0.135, 0.404, -0.299, 0.074, -0.325, 0.432, -0.055, -0.002, 0.167, 0.372, -0.459, -0.318, -0.085, -0.264, -0.391, -0.186, 0.455, 0.308, -0.195, -0.118, -0.029, 0.024, 0.113, 0.286, 0.447, 0.132, -0.251, -0.158, -0.221, 0.464, -0.455, -0.026, 0.487, 0.412, 0.469, 0.25, 0.251, -0.464, -0.151, -0.498], [-0.385, 0.428, 0.181, -0.294, 0.363, -0.2, -0.447, -0.026, 0.463, 0.124, 0.229, 0.442, -0.045, 0.216, -0.183, 0.334, 0.439, -0.036, 0.285, 0.394, -0.333, 0.24, 0.249, -0.314, 0.471, -0.38, -0.035, -0.118, -0.341, -0.008, 0.041, -0.074, -0.185, 0.156, 0.301, -0.102, 0.043, -0.264, -0.239, -0.146, -0.353, -0.436, 0.149, -0.07, -0.197, -0.216, 0.393, -0.106, -0.393, 0.388, -0.195, 0.098, 0.443, -0.232, -0.191, 0.35, -0.225, -0.116, -0.315, 0.25, 0.403, -0.424, 0.193, 0.102], [-0.049, 0.14, -0.099, -0.11, -0.149, 0.416, -0.343, 0.302, -0.225, 0.028, -0.491, -0.23, -0.221, -0.216, 0.049, -0.082, -0.313, -0.348, 0.173, -0.206, -0.413, -0.328, 0.305, 0.406, -0.457, 0.092, -0.331, 0.458, 0.211, 0.272, -0.303, 0.398, 0.311, -0.356, 0.117, 0.434, 0.147, 0.216, -0.023, 0.054, -0.041, 0.188, 0.333, 0.042, 0.371, -0.224, -0.399, -0.106, 0.111, 0.332, -0.203, 0.442, -0.253, 0.432, 0.073, -0.058, -0.385, 0.46, -0.019, -0.326, 0.331, 0.216, 0.497, -0.17], [0.175, -0.444, -0.075, -0.006, 0.219, -0.28, 0.361, 0.494, -0.233, 0.452, 0.189, 0.002, -0.357, 0.472, -0.119, -0.338, 0.063, 0.036, -0.483, 0.066, -0.149, -0.32, 0.465, 0.23, -0.121, -0.468, -0.419, 0.186, -0.061, 0.4, -0.095, 0.302, -0.425, -0.5, 0.381, -0.494, -0.069, -0.336, -0.183, 0.19, -0.241, -0.444, 0.373, -0.03, 0.179, 0.144, -0.023, -0.458, 0.423, -0.3, 0.309, 0.458, -0.357, -0.392, -0.207, -0.458, -0.081, 0.236, -0.139, 0.346, 0.083, -0.032, -0.159, 0.014], [-0.409, 0.428, 0.381, 0.322, -0.037, -0.36, 0.313, 0.358, 0.247, 0.212, 0.021, 0.33, -0.213, -0.136, -0.063, -0.442, 0.119, -0.06, -0.011, -0.47, -0.205, -0.144, 0.329, -0.314, 0.071, 0.124, -0.003, 0.274, 0.331, -0.376, 0.185, -0.298, 0.351, -0.028, -0.395, 0.21, 0.275, 0.392, 0.425, 0.158, 0.239, -0.132, 0.053, -0.062, -0.149, -0.44, 0.177, -0.082, 0.479, 0.404, 0.453, 0.258, 0.203, -0.024, 0.305, -0.234, -0.281, 0.132, 0.357, 0.21, 0.179, -0.128, -0.223, -0.25], [0.383, -0.26, 0.221, 0.354, 0.347, -0.48, 0.041, -0.066, 0.143, -0.052, 0.229, 0.066, -0.373, 0.016, -0.335, 0.478, -0.121, -0.284, 0.437, 0.386, -0.069, -0.032, -0.087, 0.126, 0.295, -0.476, 0.037, 0.106, -0.357, 0.072, -0.175, 0.134, -0.089, -0.276, 0.181, 0.41, 0.235, 0.48, 0.361, -0.322, 0.063, 0.204, 0.037, 0.402, 0.243, 0.168, 0.089, -0.37, -0.257, 0.18, -0.187, -0.222, -0.325, 0.392, -0.287, 0.054, 0.279, 0.244, -0.027, 0.034, -0.037, 0.44, -0.263, -0.282], [-0.441, 0.244, -0.075, -0.254, -0.485, -0.416, -0.455, 0.326, 0.207, 0.124, -0.139, 0.402, 0.051, 0.16, -0.311, 0.414, -0.105, 0.484, -0.467, 0.01, -0.053, -0.392, 0.465, 0.43, -0.153, 0.268, -0.059, -0.462, 0.307, -0.304, -0.007, -0.338, -0.353, 0.3, 0.325, 0.202, -0.309, -0.056, 0.065, 0.35, -0.225, 0.468, -0.187, -0.414, -0.021, 0.288, 0.073, 0.11, -0.145, 0.292, 0.445, -0.222, 0.187, -0.168, 0.001, -0.274, -0.369, 0.196, 0.093, -0.182, 0.011, -0.288, -0.023, -0.282], [0.247, -0.076, 0.093, -0.022, -0.213, 0.232, 0.001, -0.13, -0.281, 0.38, -0.155, 0.298, 0.475, 0.352, 0.457, 0.238, 0.191, -0.052, -0.227, -0.102, 0.003, -0.16, -0.295, 0.302, -0.449, 0.364, -0.171, -0.046, 0.283, -0.08, 0.033, 0.174, 0.479, -0.228, 0.077, 0.45, -0.301, -0.432, -0.199, 0.246, 0.039, -0.316, -0.307, -0.406, -0.437, 0.064, 0.017, 0.262, 0.223, 0.476, 0.285, -0.454, 0.283, -0.496, -0.023, 0.166, 0.335, 0.084, -0.427, -0.318, -0.037, 0.2, -0.479, 0.022], [-0.193, -0.116, -0.443, 0.354, -0.397, -0.016, 0.465, 0.078, -0.217, -0.468, 0.229, 0.298, 0.139, -0.472, -0.407, -0.41, 0.319, -0.42, -0.171, 0.074, 0.435, 0.256, 0.177, -0.082, -0.297, -0.004, 0.293, -0.438, 0.355, 0.344, -0.239, -0.266, 0.151, -0.372, -0.347, -0.102, 0.491, -0.04, -0.343, 0.262, 0.047, 0.108, -0.187, -0.35, 0.323, -0.184, 0.281, -0.482, 0.191, -0.356, 0.093, 0.194, 0.091, 0.384, 0.273, 0.046, 0.127, 0.476, 0.093, 0.218, 0.043, -0.056, 0.329, 0.43], [0.071, 0.404, -0.083, -0.294, -0.069, -0.112, 0.057, -0.066, 0.327, 0.22, -0.411, 0.362, 0.107, -0.256, 0.193, -0.01, -0.345, 0.38, 0.197, -0.262, 0.107, -0.024, -0.399, 0.334, 0.127, -0.476, 0.157, -0.254, 0.131, 0.448, 0.169, -0.474, -0.417, -0.06, 0.093, 0.466, 0.419, -0.392, -0.399, -0.178, -0.185, -0.236, -0.163, 0.21, 0.059, 0.04, 0.401, -0.162, -0.481, -0.468, 0.453, 0.306, 0.211, 0.328, 0.049, 0.454, -0.081, 0.172, -0.491, 0.25, -0.053, -0.192, 0.129, -0.378], [-0.305, 0.292, -0.347, -0.014, 0.267, -0.48, -0.167, 0.246, 0.455, 0.26, 0.325, 0.034, -0.381, -0.12, 0.233, 0.486, 0.047, 0.172, -0.099, -0.438, 0.003, -0.112, -0.127, -0.274, 0.119, 0.132, 0.309, 0.362, 0.395, -0.168, 0.073, -0.034, -0.481, -0.1, -0.387, -0.158, -0.285, 0.472, 0.017, 0.47, -0.465, -0.092, 0.253, 0.146, 0.099, -0.296, 0.385, -0.05, -0.153, 0.404, -0.227, -0.006, 0.363, -0.336, -0.415, 0.358, -0.257, 0.444, -0.147, 0.074, -0.453, 0.48, -0.175, -0.306], [-0.489, -0.172, -0.283, -0.326, -0.125, -0.424, -0.031, -0.002, 0.447, -0.06, 0.309, 0.274, -0.261, -0.304, -0.191, -0.458, -0.425, 0.308, 0.085, 0.098, -0.013, 0.112, -0.287, 0.15, -0.497, -0.172, -0.131, 0.146, 0.403, -0.08, -0.183, -0.41, -0.121, -0.124, 0.253, -0.054, 0.083, -0.312, -0.479, -0.37, -0.425, 0.268, 0.021, -0.086, -0.053, 0.304, 0.473, 0.462, 0.287, -0.004, -0.011, 0.194, 0.499, -0.104, 0.041, -0.154, -0.489, -0.316, -0.371, 0.458, 0.187, 0.472, 0.145, -0.026], [0.175, 0.468, 0.237, -0.222, 0.251, -0.072, 0.465, 0.054, 0.055, 0.428, -0.355, -0.374, -0.293, 0.424, -0.103, -0.146, -0.265, -0.092, 0.421, -0.334, 0.043, -0.464, 0.017, -0.218, -0.073, 0.444, 0.133, -0.046, -0.357, -0.336, 0.217, 0.462, 0.407, 0.412, 0.229, 0.17, 0.107, -0.136, -0.447, -0.45, 0.423, 0.044, -0.371, -0.262, 0.227, 0.16, -0.327, 0.454, -0.225, -0.132, -0.491, 0.018, -0.309, 0.056, 0.049, -0.114, -0.393, -0.132, 0.221, -0.302, -0.261, -0.176, -0.303, -0.09], [-0.129, 0.492, -0.483, 0.426, -0.341, -0.376, 0.497, -0.306, -0.441, 0.012, 0.205, 0.05, -0.061, 0.12, -0.407, -0.058, -0.393, -0.324, 0.109, 0.466, 0.035, 0.28, -0.495, 0.326, -0.489, -0.308, -0.131, 0.17, 0.019, -0.16, 0.265, 0.118, 0.023, -0.476, -0.419, -0.27, 0.139, 0.488, 0.025, -0.05, 0.095, -0.036, -0.259, -0.278, -0.205, -0.232, -0.479, -0.114, 0.479, -0.188, -0.083, 0.402, -0.109, -0.056, 0.065, -0.434, -0.409, 0.388, 0.485, 0.266, -0.453, 0.4, 0.209, 0.478], [0.255, 0.356, 0.333, 0.274, -0.053, 0.24, -0.231, 0.43, 0.063, -0.492, -0.259, 0.386, 0.323, 0.368, -0.127, -0.202, 0.039, 0.084, 0.117, -0.126, 0.299, -0.416, -0.279, -0.338, 0.255, 0.404, 0.317, 0.002, -0.333, 0.4, 0.129, -0.026, 0.119, 0.108, -0.475, -0.278, 0.411, -0.48, 0.377, 0.43, 0.487, -0.068, 0.493, 0.09, 0.275, -0.256, -0.271, 0.486, -0.017, 0.036, 0.325, 0.106, 0.171, -0.408, 0.073, -0.442, 0.199, 0.22, 0.101, 0.458, -0.165, -0.112, -0.063, -0.17], [0.159, 0.34, 0.341, -0.198, 0.379, 0.12, 0.105, -0.106, 0.495, 0.204, 0.125, -0.35, 0.275, 0.224, 0.481, 0.294, 0.407, 0.484, -0.355, 0.386, -0.005, -0.136, 0.385, 0.142, 0.279, -0.06, 0.301, 0.482, -0.157, -0.232, -0.199, -0.434, 0.319, -0.468, 0.101, 0.01, -0.373, -0.256, -0.127, -0.29, -0.089, 0.324, -0.451, 0.298, 0.171, -0.064, -0.167, -0.138, 0.103, -0.372, -0.035, 0.418, 0.131, -0.496, -0.119, 0.246, -0.009, -0.244, -0.075, 0.042, 0.299, -0.2, 0.257, -0.41], [0.239, -0.1, -0.035, -0.038, 0.099, -0.16, 0.209, -0.05, -0.041, 0.268, 0.461, -0.318, -0.317, -0.08, -0.255, 0.07, 0.263, -0.004, -0.339, 0.026, -0.189, 0.064, -0.255, 0.294, -0.417, 0.484, 0.061, 0.17, 0.035, 0.248, 0.097, -0.394, -0.337, -0.012, -0.123, 0.338, 0.019, 0.12, -0.047, 0.038, -0.441, 0.044, 0.045, -0.43, 0.459, -0.336, 0.193, 0.094, 0.127, -0.5, -0.403, 0.098, 0.195, 0.008, 0.121, -0.05, 0.351, -0.028, -0.363, -0.334, 0.107, -0.472, -0.223, -0.442], [-0.321, 0.02, 0.213, -0.062, 0.427, 0.096, -0.095, -0.418, 0.383, 0.34, 0.269, -0.206, 0.315, -0.136, -0.239, 0.35, -0.369, 0.324, 0.365, -0.006, 0.259, -0.4, -0.183, -0.178, -0.361, 0.044, -0.283, 0.098, 0.147, 0.264, 0.361, -0.018, 0.423, 0.196, 0.189, 0.274, 0.291, 0.136, -0.471, 0.486, -0.201, -0.18, 0.293, -0.342, -0.357, -0.28, 0.345, 0.142, -0.185, 0.388, 0.453, 0.434, -0.389, -0.04, -0.399, 0.11, -0.161, 0.26, -0.203, 0.45, 0.307, -0.416, 0.225, 0.358], [-0.217, 0.1, -0.491, -0.318, 0.451, 0.464, -0.455, 0.246, 0.223, -0.468, -0.347, -0.174, -0.293, 0.288, 0.153, -0.226, 0.063, -0.06, 0.429, -0.038, -0.325, -0.288, 0.201, -0.394, 0.095, -0.196, -0.139, 0.474, 0.315, -0.232, 0.057, -0.242, 0.343, -0.004, -0.043, 0.21, 0.323, -0.248, -0.311, -0.05, 0.471, 0.204, -0.219, 0.138, -0.301, -0.224, 0.001, -0.266, 0.159, -0.444, -0.355, 0.186, 0.155, 0.336, 0.305, 0.342, -0.457, 0.244, 0.381, -0.31, -0.229, 0.304, -0.143, 0.494], [0.087, 0.476, 0.157, 0.026, -0.157, -0.064, -0.343, 0.278, 0.407, 0.188, -0.163, -0.206, -0.373, -0.4, 0.017, -0.138, -0.065, 0.196, -0.003, 0.13, -0.429, 0.168, -0.087, -0.002, 0.071, 0.124, -0.035, -0.318, 0.147, -0.464, -0.119, -0.178, 0.343, 0.46, -0.483, -0.286, -0.477, -0.248, 0.401, -0.146, -0.057, -0.428, -0.179, 0.114, -0.221, 0.328, -0.007, -0.17, 0.271, 0.092, -0.243, -0.062, 0.075, 0.344, -0.311, 0.438, 0.319, -0.332, 0.301, -0.494, -0.157, 0.256, 0.401, 0.238], [-0.457, -0.1, 0.285, 0.274, 0.395, -0.208, 0.241, 0.19, -0.313, -0.228, -0.131, 0.186, -0.037, 0.032, 0.329, -0.042, 0.095, 0.212, 0.093, -0.478, 0.283, -0.44, 0.201, -0.474, -0.433, -0.164, 0.269, -0.07, 0.427, 0.168, 0.297, -0.466, -0.185, -0.22, -0.211, -0.174, 0.419, 0.448, 0.401, 0.094, -0.297, 0.18, 0.253, -0.486, 0.211, -0.008, -0.263, 0.158, 0.087, 0.204, -0.451, -0.494, -0.205, 0.312, -0.263, -0.338, -0.097, -0.492, -0.467, -0.158, 0.043, -0.224, -0.239, -0.258], [-0.313, 0.356, 0.197, -0.094, -0.277, 0.024, 0.473, -0.034, -0.305, -0.428, -0.323, -0.334, 0.131, -0.008, -0.111, -0.418, 0.271, -0.308, -0.139, -0.014, -0.325, 0.304, -0.215, -0.458, 0.407, 0.3, -0.107, 0.25, 0.411, 0.44, 0.297, 0.134, 0.031, -0.028, 0.461, -0.182, 0.067, -0.376, -0.047, 0.094, 0.119, 0.052, -0.315, 0.386, 0.499, -0.384, 0.417, 0.326, 0.423, 0.332, 0.253, 0.122, -0.085, 0.392, -0.095, 0.454, 0.207, 0.156, -0.363, -0.478, -0.229, -0.272, 0.369, -0.37], [-0.177, -0.052, 0.021, -0.422, 0.323, 0.208, -0.295, 0.414, -0.169, -0.244, -0.043, 0.074, 0.019, 0.36, 0.265, 0.078, 0.015, 0.108, -0.323, 0.194, 0.379, -0.008, 0.209, 0.278, -0.465, 0.348, 0.133, -0.15, 0.235, -0.344, 0.401, -0.314, -0.265, -0.068, -0.251, 0.378, 0.347, -0.408, 0.497, 0.398, 0.383, 0.444, 0.309, -0.342, 0.267, -0.48, 0.041, -0.234, -0.433, 0.036, -0.371, 0.25, -0.493, -0.384, 0.177, 0.134, -0.385, -0.116, -0.059, 0.49, 0.195, -0.2, -0.223, 0.054], [0.135, -0.044, -0.291, 0.418, -0.189, 0.392, 0.465, -0.482, -0.273, -0.388, -0.363, 0.426, -0.309, -0.104, -0.391, -0.386, -0.001, -0.188, -0.315, -0.302, -0.389, 0.04, 0.193, 0.086, -0.225, 0.044, 0.405, 0.114, -0.493, -0.112, -0.103, -0.274, 0.495, 0.028, 0.045, 0.074, 0.315, 0.136, 0.297, -0.218, -0.489, -0.268, -0.267, 0.434, -0.333, -0.152, -0.151, 0.086, 0.279, -0.244, 0.261, 0.474, -0.477, 0.488, 0.009, -0.21, -0.313, 0.14, -0.347, -0.486, 0.011, -0.144, 0.417, 0.286], [0.279, -0.164, 0.389, 0.434, -0.021, 0.448, -0.247, 0.142, 0.135, -0.044, 0.117, -0.142, 0.091, -0.168, -0.455, -0.114, -0.225, -0.076, -0.443, -0.478, 0.355, 0.04, -0.367, 0.142, -0.225, -0.484, 0.301, 0.25, 0.011, 0.44, 0.305, -0.034, 0.055, 0.452, -0.139, 0.002, -0.149, 0.216, -0.207, -0.21, -0.305, 0.468, -0.203, -0.062, 0.379, -0.432, -0.151, 0.014, -0.449, 0.052, -0.091, -0.094, 0.387, -0.016, -0.263, -0.314, -0.193, -0.156, 0.453, -0.406, 0.091, -0.064, 0.193, 0.182], [0.087, -0.428, 0.365, 0.402, 0.147, -0.224, -0.255, -0.434, 0.335, 0.428, 0.269, 0.386, -0.421, 0.224, 0.169, -0.29, 0.071, 0.148, 0.141, 0.162, 0.123, -0.24, -0.399, -0.146, 0.007, 0.476, -0.355, -0.358, 0.355, 0.088, -0.031, -0.354, -0.313, -0.076, -0.059, 0.026, -0.341, 0.32, -0.455, -0.154, -0.401, 0.38, 0.165, 0.274, -0.445, 0.176, -0.071, 0.158, 0.495, -0.34, -0.491, -0.166, -0.005, 0.312, -0.183, 0.318, -0.113, 0.444, -0.451, -0.15, 0.131, 0.2, -0.167, -0.338], [-0.433, -0.436, -0.235, 0.33, -0.245, -0.104, -0.207, 0.302, 0.079, -0.156, 0.197, 0.498, -0.253, 0.304, 0.457, -0.218, -0.265, 0.308, -0.243, -0.358, -0.397, 0.44, 0.289, 0.046, -0.233, 0.108, 0.325, 0.146, -0.029, 0.432, 0.001, 0.126, 0.135, 0.284, 0.149, -0.11, 0.323, 0.056, 0.345, -0.154, -0.233, 0.372, 0.269, 0.018, 0.171, 0.344, 0.097, -0.05, 0.399, -0.156, 0.117, 0.018, 0.123, -0.2, -0.119, -0.402, 0.311, -0.14, -0.379, -0.126, -0.349, 0.392, -0.407, -0.122], [0.199, 0.148, -0.459, -0.302, 0.475, -0.144, 0.073, 0.334, -0.001, -0.156, 0.421, -0.438, 0.011, -0.168, 0.153, 0.27, 0.495, -0.3, 0.253, 0.162, -0.045, -0.152, 0.417, -0.226, 0.231, 0.42, 0.165, 0.146, 0.171, 0.248, 0.097, -0.354, -0.033, -0.396, -0.475, 0.162, -0.453, -0.44, 0.457, -0.138, -0.137, -0.18, 0.477, -0.078, 0.379, -0.136, 0.241, -0.354, -0.273, 0.34, 0.317, 0.042, 0.371, -0.048, -0.263, 0.318, -0.361, 0.188, -0.475, 0.49, -0.301, 0.32, -0.447, -0.194], [0.343, 0.428, -0.179, -0.19, -0.253, 0.232, 0.289, -0.178, 0.495, -0.108, 0.045, -0.286, -0.093, -0.312, -0.415, -0.13, 0.199, -0.148, -0.051, -0.254, -0.133, -0.424, 0.233, -0.434, -0.305, -0.404, 0.053, -0.15, -0.317, 0.136, -0.279, 0.27, 0.279, 0.076, 0.285, 0.234, -0.141, -0.208, -0.031, 0.142, 0.431, -0.372, -0.427, -0.086, 0.155, 0.056, -0.279, -0.322, 0.415, 0.06, -0.427, -0.278, 0.163, 0.096, 0.017, 0.446, -0.393, 0.052, -0.059, -0.358, 0.443, 0.376, -0.383, 0.246], [0.127, -0.316, -0.091, -0.206, -0.461, -0.28, 0.265, -0.25, 0.199, -0.372, 0.293, -0.03, 0.203, -0.072, -0.151, -0.25, 0.223, 0.412, 0.045, -0.11, -0.149, -0.312, 0.457, 0.126, -0.017, -0.356, -0.187, -0.006, 0.171, 0.224, 0.217, 0.182, -0.361, -0.284, -0.179, 0.322, 0.315, 0.24, 0.497, -0.242, -0.217, 0.172, 0.221, 0.394, 0.355, -0.232, 0.425, -0.346, -0.073, 0.092, -0.235, 0.29, -0.253, 0.088, -0.119, -0.282, -0.225, -0.156, 0.077, -0.198, 0.283, 0.072, -0.487, -0.178], [-0.089, 0.372, -0.067, -0.342, -0.357, 0.192, 0.001, 0.278, -0.137, 0.22, 0.213, -0.182, 0.139, 0.488, -0.431, 0.254, 0.471, -0.444, -0.139, 0.322, -0.109, 0.48, 0.281, -0.37, 0.039, 0.1, -0.315, 0.082, 0.067, 0.464, -0.247, -0.202, -0.209, -0.228, -0.003, 0.17, 0.499, -0.488, -0.223, -0.042, -0.185, 0.356, -0.091, -0.062, -0.045, -0.384, 0.361, 0.302, -0.449, -0.004, -0.347, -0.142, -0.453, 0.256, -0.039, -0.194, 0.175, -0.46, -0.035, -0.086, 0.035, 0.448, -0.151, -0.314], [0.175, -0.228, 0.197, -0.118, -0.269, 0.048, 0.377, -0.258, -0.233, -0.396, -0.267, -0.078, 0.427, 0.424, -0.159, -0.45, -0.385, -0.068, -0.107, -0.462, -0.149, -0.336, 0.129, 0.134, -0.313, -0.028, -0.211, 0.498, -0.373, 0.28, 0.321, -0.346, -0.345, -0.092, -0.147, -0.006, 0.411, -0.256, 0.073, -0.186, 0.191, -0.092, -0.403, 0.002, -0.245, 0.096, 0.065, -0.418, 0.103, -0.14, 0.173, -0.286, 0.163, 0.104, -0.287, 0.446, 0.071, -0.116, 0.109, 0.098, 0.099, 0.016, 0.001, 0.462], [-0.073, -0.308, 0.477, -0.23, -0.109, -0.192, 0.393, -0.05, -0.337, -0.404, -0.451, 0.474, -0.341, -0.032, -0.007, -0.018, 0.207, 0.364, 0.165, 0.21, 0.067, 0.184, -0.455, -0.186, -0.073, 0.092, -0.283, 0.45, -0.013, 0.272, 0.385, -0.186, 0.327, -0.332, -0.043, -0.462, -0.013, 0.248, 0.177, -0.13, 0.103, 0.028, 0.125, 0.458, 0.435, -0.472, 0.249, -0.426, 0.167, -0.052, -0.267, -0.382, 0.019, -0.336, 0.121, -0.394, -0.153, -0.204, -0.459, 0.354, -0.005, -0.184, -0.423, 0.302], [-0.353, 0.412, -0.275, 0.45, 0.443, 0.224, 0.225, -0.114, -0.169, -0.46, -0.411, -0.214, -0.101, 0.176, -0.231, 0.422, -0.377, -0.148, -0.179, 0.242, -0.301, -0.192, 0.249, -0.274, -0.121, 0.172, -0.059, -0.326, -0.245, -0.08, 0.289, -0.186, 0.375, -0.228, -0.003, 0.37, 0.227, 0.456, 0.001, -0.098, 0.215, 0.148, 0.453, -0.238, -0.205, 0.408, 0.449, -0.466, -0.441, -0.356, -0.435, -0.494, 0.363, -0.264, -0.007, -0.274, -0.289, 0.076, 0.117, 0.098, 0.419, -0.288, -0.047, -0.17], [-0.305, 0.036, -0.227, -0.07, -0.469, -0.184, 0.225, 0.062, 0.375, 0.196, 0.253, 0.05, 0.387, -0.368, 0.145, -0.138, 0.063, -0.428, -0.115, -0.046, -0.213, -0.224, -0.215, 0.398, -0.161, 0.044, 0.053, -0.326, 0.363, 0.472, -0.447, 0.07, -0.457, 0.412, 0.189, -0.118, -0.285, 0.032, -0.367, -0.194, 0.071, 0.116, 0.069, 0.138, 0.163, -0.296, 0.025, -0.106, -0.433, 0.212, 0.133, 0.49, -0.029, -0.296, -0.039, -0.226, -0.249, 0.292, -0.483, -0.374, -0.109, 0.04, -0.263, -0.154], [-0.097, 0.196, 0.221, -0.31, 0.419, -0.016, -0.079, 0.462, 0.223, -0.092, 0.413, 0.226, 0.187, 0.392, -0.431, 0.47, -0.097, 0.172, -0.147, 0.194, 0.139, -0.496, -0.127, 0.182, 0.335, 0.068, 0.469, -0.462, 0.123, -0.296, 0.113, -0.234, 0.103, 0.308, -0.075, 0.29, 0.155, 0.408, -0.311, -0.346, 0.039, 0.012, -0.363, 0.338, 0.043, -0.088, -0.487, 0.262, 0.303, -0.26, -0.331, -0.494, 0.091, 0.368, -0.167, -0.162, 0.175, 0.244, 0.301, 0.41, 0.107, -0.336, 0.305, 0.326], [-0.425, 0.348, 0.197, -0.318, -0.045, 0.248, -0.039, 0.246, 0.479, 0.14, 0.173, -0.142, -0.461, 0.04, 0.313, -0.41, -0.305, -0.172, 0.045, 0.338, -0.205, -0.064, -0.239, -0.394, -0.041, 0.076, -0.163, 0.418, 0.115, -0.08, -0.159, 0.318, 0.095, 0.3, 0.069, 0.338, 0.427, 0.248, -0.391, 0.342, 0.255, 0.388, 0.293, 0.29, 0.059, 0.352, -0.375, -0.282, 0.407, 0.436, -0.419, -0.334, 0.147, 0.408, -0.407, -0.114, -0.281, -0.5, 0.445, 0.098, -0.061, -0.024, 0.265, 0.07], [-0.457, 0.124, 0.005, 0.09, 0.403, 0.008, -0.127, 0.046, 0.423, -0.468, 0.405, -0.094, -0.141, -0.368, -0.175, 0.094, 0.463, 0.188, -0.339, 0.234, -0.437, 0.136, 0.169, -0.274, -0.113, 0.428, -0.075, 0.402, 0.299, 0.192, -0.271, -0.09, 0.143, 0.108, -0.339, 0.242, -0.061, 0.336, -0.047, 0.294, 0.439, -0.028, 0.349, -0.254, 0.067, 0.168, -0.455, -0.482, -0.361, -0.26, -0.195, -0.446, 0.387, -0.32, 0.345, -0.29, -0.057, 0.156, -0.491, 0.106, 0.083, 0.136, 0.345, 0.054], [0.167, 0.276, 0.125, -0.134, 0.259, 0.488, 0.009, 0.374, -0.193, -0.452, -0.491, -0.086, 0.035, -0.248, 0.081, -0.026, 0.407, 0.076, 0.021, -0.446, 0.483, 0.048, 0.289, -0.282, -0.233, 0.308, -0.027, 0.346, 0.107, -0.176, 0.241, 0.31, -0.361, 0.276, 0.269, -0.254, -0.133, -0.368, -0.487, -0.242, 0.431, -0.332, -0.355, 0.282, -0.309, -0.32, -0.015, 0.094, -0.361, 0.212, 0.101, 0.282, -0.061, 0.16, 0.425, 0.222, -0.417, 0.188, 0.173, -0.27, 0.059, 0.184, 0.449, 0.078], [-0.073, -0.212, -0.195, 0.49, -0.213, 0.384, -0.455, 0.214, -0.089, -0.172, -0.291, -0.158, 0.483, 0.104, 0.177, -0.25, 0.255, -0.156, -0.379, -0.15, -0.285, 0.088, 0.193, 0.286, 0.367, 0.076, 0.453, -0.366, -0.149, -0.408, -0.279, -0.298, -0.497, 0.172, -0.419, 0.418, -0.381, -0.08, 0.201, 0.454, -0.401, -0.148, 0.141, 0.002, 0.083, 0.032, 0.481, 0.054, -0.129, 0.292, -0.299, 0.138, 0.347, 0.056, -0.359, -0.434, -0.153, -0.012, 0.293, -0.206, -0.085, -0.368, 0.009, -0.234], [-0.169, 0.116, -0.123, -0.382, 0.483, -0.08, -0.167, -0.274, -0.161, -0.46, 0.109, -0.118, 0.091, -0.376, -0.263, 0.414, 0.207, -0.036, 0.485, -0.206, -0.405, -0.152, -0.223, 0.31, 0.039, -0.436, -0.043, 0.122, -0.389, -0.256, -0.015, 0.15, 0.479, -0.012, -0.187, 0.298, 0.427, -0.136, 0.457, 0.278, 0.431, 0.076, -0.027, -0.222, -0.077, -0.104, 0.393, 0.478, -0.377, -0.46, 0.365, -0.118, 0.091, -0.304, -0.375, 0.006, 0.119, -0.172, -0.451, 0.242, -0.181, -0.128, -0.423, 0.27], [0.359, 0.188, 0.293, -0.27, 0.315, -0.208, 0.049, 0.246, -0.481, -0.028, 0.229, -0.302, 0.275, 0.368, -0.439, 0.486, 0.287, 0.436, 0.109, 0.234, -0.013, 0.392, -0.239, -0.21, 0.255, 0.132, -0.395, -0.454, 0.347, -0.24, 0.377, 0.19, 0.135, 0.444, 0.357, 0.306, -0.357, 0.248, -0.455, 0.006, -0.353, 0.068, 0.157, 0.418, 0.363, 0.416, -0.391, -0.378, 0.007, 0.044, -0.323, 0.45, -0.285, -0.416, -0.167, -0.314, -0.337, 0.156, 0.149, 0.194, 0.171, 0.064, 0.233, 0.214], [-0.481, -0.188, -0.467, 0.482, -0.277, -0.424, -0.455, 0.23, 0.407, -0.06, 0.173, 0.13, -0.373, -0.432, -0.431, 0.31, 0.047, 0.436, -0.187, -0.454, -0.125, 0.016, -0.311, -0.042, 0.311, -0.388, 0.341, -0.238, -0.157, 0.24, 0.361, 0.238, -0.081, -0.268, 0.429, -0.166, 0.499, -0.32, -0.095, 0.182, 0.087, 0.084, -0.171, -0.206, 0.379, -0.44, -0.215, 0.27, -0.337, -0.284, 0.397, -0.046, -0.005, 0.048, 0.249, -0.482, -0.137, -0.108, -0.227, -0.054, -0.213, 0.248, 0.233, -0.25], [0.143, 0.268, -0.155, 0.002, 0.379, -0.032, 0.497, 0.366, -0.273, -0.268, -0.187, 0.49, -0.493, -0.368, -0.439, -0.242, -0.137, -0.388, -0.203, 0.226, -0.229, -0.216, -0.367, 0.166, 0.031, -0.284, -0.419, -0.494, 0.355, -0.392, -0.367, -0.17, 0.399, 0.22, -0.283, -0.254, -0.301, 0.0, 0.449, 0.23, -0.233, -0.204, 0.301, 0.01, 0.123, -0.176, -0.487, 0.326, 0.351, -0.06, 0.461, -0.022, 0.179, -0.408, -0.319, -0.354, -0.073, 0.484, -0.371, -0.382, 0.067, 0.288, -0.343, 0.15], [0.239, 0.012, 0.061, -0.054, 0.371, -0.16, -0.095, 0.462, 0.287, -0.484, -0.099, -0.382, -0.141, 0.44, -0.487, 0.47, -0.065, 0.14, 0.029, 0.298, 0.363, 0.288, 0.137, 0.294, -0.289, 0.276, -0.379, 0.282, 0.019, 0.168, 0.009, -0.322, -0.033, 0.452, 0.437, 0.49, 0.475, 0.464, -0.383, 0.046, -0.473, 0.46, -0.291, -0.358, -0.429, -0.12, 0.449, 0.222, 0.063, 0.332, -0.075, 0.338, 0.395, 0.248, -0.239, 0.334, -0.409, -0.148, 0.045, -0.142, -0.469, 0.224, 0.057, -0.082], [0.287, -0.324, 0.485, 0.442, 0.371, -0.056, -0.351, -0.146, 0.015, -0.42, 0.309, -0.47, 0.395, -0.248, 0.169, -0.034, -0.361, -0.332, -0.291, 0.314, 0.163, 0.296, -0.079, 0.342, -0.177, 0.3, 0.229, -0.174, 0.443, 0.344, 0.129, 0.022, 0.247, 0.148, -0.019, -0.07, -0.117, -0.44, -0.327, -0.298, -0.265, -0.196, 0.069, -0.206, -0.421, -0.48, 0.481, -0.082, -0.441, -0.372, -0.275, -0.086, 0.187, 0.168, 0.297, -0.274, 0.415, 0.092, -0.419, 0.434, -0.477, 0.216, -0.487, -0.322], [0.295, 0.012, -0.459, 0.498, -0.181, 0.448, 0.377, 0.35, 0.015, -0.26, 0.141, -0.286, 0.355, -0.2, 0.153, -0.41, 0.175, 0.02, -0.195, -0.406, 0.155, 0.048, -0.119, 0.19, 0.367, 0.324, 0.349, -0.006, 0.411, -0.264, 0.161, 0.222, 0.279, 0.148, 0.213, -0.19, -0.197, 0.248, -0.295, -0.202, -0.417, 0.38, 0.165, -0.31, 0.123, 0.064, -0.031, -0.21, -0.169, 0.388, 0.269, -0.478, -0.317, 0.032, 0.273, 0.382, 0.135, 0.476, -0.435, 0.29, 0.267, 0.304, 0.281, 0.23], [0.095, 0.356, -0.115, -0.406, -0.317, 0.104, -0.383, 0.286, 0.215, -0.012, 0.269, 0.186, 0.155, -0.36, -0.383, -0.138, 0.271, -0.452, -0.131, 0.338, 0.203, 0.312, 0.385, -0.458, -0.185, 0.356, -0.251, -0.478, 0.179, -0.176, 0.097, -0.482, 0.335, -0.18, -0.475, 0.346, -0.413, -0.336, 0.329, -0.298, -0.265, -0.436, 0.013, 0.082, 0.003, 0.008, 0.449, -0.202, 0.287, -0.3, 0.493, -0.254, -0.221, -0.008, 0.145, 0.15, -0.041, 0.452, -0.147, -0.398, 0.107, -0.296, 0.441, 0.198], [0.343, 0.108, 0.293, -0.318, 0.459, 0.432, -0.279, -0.178, 0.367, 0.436, 0.093, 0.082, 0.035, -0.496, 0.129, 0.478, 0.423, -0.276, -0.131, -0.43, -0.357, 0.328, 0.033, -0.074, -0.185, -0.42, 0.021, 0.266, -0.117, -0.144, 0.105, -0.378, 0.159, 0.412, -0.219, 0.282, -0.181, 0.416, -0.367, 0.014, 0.383, 0.26, 0.045, 0.25, -0.453, 0.32, -0.367, 0.374, -0.081, -0.172, 0.157, 0.05, 0.251, 0.432, -0.455, -0.41, -0.025, -0.412, -0.171, -0.038, -0.085, 0.4, -0.455, -0.266], [-0.129, -0.396, 0.421, -0.406, -0.237, 0.48, -0.135, -0.41, 0.103, -0.276, 0.189, -0.23, 0.059, 0.152, 0.193, -0.098, 0.063, -0.1, -0.347, 0.49, -0.365, 0.216, -0.159, 0.046, 0.487, 0.004, -0.011, 0.258, 0.131, -0.392, 0.177, 0.422, 0.319, -0.412, 0.373, -0.166, -0.445, -0.008, -0.471, 0.454, -0.105, 0.196, -0.371, 0.242, 0.259, -0.152, -0.295, 0.422, -0.161, -0.492, 0.141, -0.334, -0.301, -0.2, -0.367, -0.154, 0.391, -0.316, -0.003, 0.49, 0.387, -0.04, 0.377, -0.186], [-0.313, -0.404, -0.307, -0.366, 0.387, -0.176, 0.049, 0.454, -0.473, 0.372, -0.043, -0.262, 0.115, 0.464, 0.377, 0.182, -0.313, -0.452, -0.107, 0.418, 0.219, -0.136, -0.295, 0.43, -0.169, -0.188, -0.459, 0.41, -0.293, 0.384, 0.129, -0.018, -0.089, -0.108, -0.483, -0.254, 0.323, 0.352, -0.191, -0.378, 0.111, -0.076, -0.451, 0.338, 0.115, -0.44, 0.377, 0.374, -0.313, 0.3, -0.091, 0.058, 0.195, -0.168, 0.041, -0.466, -0.057, 0.308, 0.389, -0.166, -0.309, -0.28, 0.137, 0.238], [-0.377, -0.284, 0.117, -0.366, 0.299, 0.16, -0.199, -0.306, 0.215, -0.036, 0.269, -0.35, -0.029, -0.152, 0.185, 0.134, -0.329, 0.02, -0.267, 0.258, 0.203, 0.04, 0.345, -0.218, 0.319, 0.364, -0.203, 0.05, -0.133, -0.392, 0.305, 0.486, -0.145, -0.308, -0.099, 0.234, 0.179, -0.368, 0.385, -0.41, 0.047, -0.476, 0.469, -0.062, 0.267, -0.4, -0.463, -0.162, 0.223, -0.356, -0.307, -0.19, -0.309, -0.024, -0.423, 0.094, 0.191, -0.092, -0.139, 0.114, -0.421, -0.456, 0.257, 0.278], [0.335, -0.228, -0.235, -0.454, -0.357, 0.36, 0.473, -0.178, -0.377, -0.332, 0.229, -0.006, -0.485, -0.112, 0.185, -0.194, -0.433, -0.212, -0.451, -0.022, -0.373, 0.336, 0.009, 0.278, 0.247, -0.156, 0.053, 0.442, -0.253, -0.12, -0.479, -0.298, -0.457, -0.116, 0.093, 0.042, 0.003, 0.44, 0.345, -0.098, 0.247, -0.156, -0.475, -0.03, 0.395, 0.288, -0.159, 0.246, -0.265, -0.252, 0.253, -0.262, -0.093, -0.384, -0.127, -0.21, -0.481, 0.108, 0.093, 0.274, -0.133, 0.12, -0.359, 0.438], [0.007, 0.34, -0.355, -0.446, 0.387, -0.176, 0.241, 0.174, 0.327, 0.476, 0.061, 0.138, -0.189, 0.288, 0.177, 0.014, -0.249, -0.148, -0.163, 0.482, 0.299, 0.168, -0.287, -0.026, 0.439, 0.26, 0.077, -0.086, -0.045, 0.328, 0.417, -0.186, 0.247, 0.132, -0.219, 0.386, -0.149, 0.264, -0.343, -0.018, 0.023, 0.316, 0.381, -0.166, -0.053, 0.12, 0.177, -0.146, 0.391, 0.404, -0.179, -0.278, -0.205, -0.448, 0.385, 0.118, -0.161, 0.3, 0.293, 0.434, -0.397, -0.336, 0.017, 0.342], [-0.409, -0.42, -0.115, 0.258, 0.323, 0.072, 0.105, -0.442, 0.135, 0.148, -0.187, 0.218, 0.451, -0.368, 0.137, 0.102, 0.423, 0.388, -0.435, 0.09, 0.259, 0.48, -0.295, 0.398, -0.457, -0.204, 0.461, 0.026, -0.077, 0.2, -0.135, -0.466, -0.289, -0.316, -0.467, -0.342, -0.397, 0.064, 0.057, -0.274, -0.081, 0.14, 0.173, -0.19, 0.251, 0.416, 0.257, -0.258, 0.423, -0.18, -0.139, -0.422, -0.221, -0.184, 0.449, -0.362, 0.183, -0.244, 0.141, -0.406, 0.307, -0.488, -0.007, -0.21], [-0.025, -0.228, 0.085, -0.158, 0.419, -0.144, -0.407, -0.042, -0.377, 0.38, 0.061, 0.25, 0.147, 0.328, -0.191, -0.058, -0.041, 0.396, 0.285, 0.002, 0.315, 0.336, -0.295, 0.254, 0.031, -0.188, 0.325, 0.162, -0.037, 0.328, -0.199, 0.454, -0.497, 0.204, 0.037, -0.222, 0.315, -0.376, -0.191, -0.09, -0.401, 0.044, 0.213, -0.054, 0.163, 0.32, -0.383, 0.166, -0.001, 0.436, 0.253, -0.11, 0.107, -0.088, -0.479, -0.154, 0.463, 0.276, 0.493, 0.17, -0.325, -0.12, 0.297, 0.11], [0.111, 0.02, 0.373, 0.258, 0.467, 0.344, 0.057, -0.466, -0.105, 0.284, -0.147, 0.074, 0.491, 0.256, 0.169, 0.174, -0.441, -0.004, -0.035, -0.11, -0.141, 0.328, -0.391, -0.282, -0.449, 0.14, 0.261, 0.178, 0.155, 0.256, 0.097, -0.066, 0.367, -0.412, -0.139, 0.138, -0.133, -0.096, 0.353, -0.274, -0.393, -0.068, 0.341, -0.478, -0.045, 0.152, 0.265, 0.262, 0.055, -0.188, -0.243, -0.23, 0.203, 0.168, -0.415, 0.006, 0.415, 0.428, 0.381, 0.162, -0.421, 0.104, -0.167, 0.398], [-0.465, -0.044, 0.405, -0.31, -0.213, -0.36, 0.321, -0.378, 0.231, -0.5, 0.469, 0.002, -0.453, 0.176, 0.017, -0.33, -0.049, 0.244, 0.453, -0.342, 0.347, 0.224, -0.215, 0.494, -0.425, 0.14, 0.389, -0.19, 0.107, -0.184, 0.393, -0.138, -0.425, -0.148, 0.045, -0.046, 0.315, 0.392, -0.399, -0.05, -0.041, 0.18, -0.483, -0.062, 0.483, 0.056, 0.441, -0.418, 0.055, 0.036, 0.309, 0.154, -0.333, 0.44, 0.097, -0.442, 0.247, 0.308, 0.309, -0.014, -0.285, 0.048, -0.319, -0.37], [-0.449, 0.036, -0.043, -0.262, -0.181, -0.088, 0.089, 0.382, -0.265, 0.492, 0.253, -0.126, -0.445, 0.32, -0.079, 0.422, -0.369, 0.26, 0.421, 0.274, -0.181, -0.384, 0.129, 0.462, 0.399, -0.004, -0.347, -0.086, 0.307, 0.256, -0.143, -0.05, -0.129, -0.108, 0.453, -0.382, -0.461, 0.048, 0.345, 0.478, 0.495, -0.308, 0.229, 0.122, 0.075, -0.296, -0.199, -0.09, 0.287, -0.332, 0.317, -0.198, 0.275, 0.056, 0.041, 0.118, -0.305, -0.46, 0.013, 0.29, -0.045, -0.248, -0.255, 0.31], [-0.009, -0.46, 0.333, -0.414, 0.235, -0.44, -0.463, 0.446, -0.017, -0.396, 0.133, -0.294, -0.421, -0.256, 0.385, 0.302, -0.321, 0.044, 0.365, -0.062, 0.435, -0.432, 0.361, 0.326, 0.199, -0.284, -0.179, -0.126, -0.341, 0.352, 0.129, 0.438, 0.471, -0.276, 0.477, 0.05, 0.243, -0.344, 0.145, 0.382, -0.417, -0.156, 0.141, 0.474, 0.179, -0.112, -0.415, 0.15, -0.137, 0.148, -0.283, 0.002, -0.429, -0.48, -0.127, 0.478, -0.329, 0.22, 0.293, 0.194, 0.291, -0.272, 0.105, -0.29], [0.215, -0.076, 0.309, -0.462, 0.123, 0.456, -0.335, 0.326, 0.431, -0.052, -0.491, 0.338, -0.141, 0.032, 0.329, -0.05, 0.295, -0.228, 0.309, 0.026, -0.469, 0.376, 0.377, 0.262, -0.081, 0.484, 0.485, -0.454, 0.299, 0.056, -0.271, 0.038, 0.175, -0.108, 0.333, 0.29, -0.341, -0.472, 0.145, -0.09, 0.063, -0.46, 0.037, 0.274, 0.475, 0.28, 0.153, 0.086, 0.423, 0.036, -0.435, -0.134, 0.035, 0.16, -0.423, 0.254, 0.207, 0.268, -0.115, -0.006, 0.299, 0.016, 0.017, -0.37], [0.351, 0.468, -0.459, -0.278, 0.155, -0.352, 0.001, 0.006, 0.359, -0.484, -0.395, -0.27, 0.459, 0.24, -0.447, 0.238, 0.151, 0.092, 0.397, 0.386, 0.323, -0.248, -0.103, -0.026, -0.265, -0.34, 0.117, -0.334, 0.483, 0.144, 0.297, 0.286, -0.153, 0.116, 0.061, 0.258, 0.491, 0.448, -0.095, -0.218, -0.049, -0.492, -0.067, -0.43, 0.115, 0.024, -0.311, 0.326, 0.079, 0.42, -0.203, -0.374, 0.211, 0.184, -0.039, -0.114, -0.137, -0.22, 0.293, -0.19, -0.029, 0.48, 0.209, 0.398], [-0.241, -0.02, -0.195, -0.206, -0.229, 0.36, -0.455, -0.354, -0.481, -0.228, 0.173, 0.426, -0.029, -0.4, 0.329, -0.49, -0.497, 0.18, 0.301, -0.31, 0.091, -0.008, 0.465, 0.342, -0.057, 0.076, 0.309, 0.442, 0.347, -0.432, 0.001, -0.402, -0.065, 0.236, -0.475, -0.006, -0.029, 0.376, -0.135, 0.246, 0.439, -0.052, -0.387, -0.358, 0.427, 0.088, -0.447, -0.402, 0.119, 0.212, 0.173, 0.098, 0.227, -0.432, 0.009, -0.01, -0.273, 0.028, -0.451, 0.29, 0.179, 0.456, -0.415, 0.462], [-0.081, 0.388, 0.405, -0.414, 0.291, -0.36, -0.175, -0.122, -0.161, 0.356, -0.267, -0.262, 0.459, 0.168, 0.105, -0.066, 0.023, -0.316, -0.131, 0.138, 0.403, -0.192, 0.153, -0.282, 0.015, 0.444, 0.181, -0.446, 0.499, -0.248, -0.167, 0.158, -0.345, -0.028, 0.117, 0.066, -0.197, -0.2, 0.289, -0.274, -0.457, 0.292, 0.093, 0.242, -0.437, -0.328, -0.015, 0.158, 0.359, 0.148, 0.277, -0.134, -0.021, -0.184, -0.175, 0.358, -0.345, 0.46, -0.491, 0.202, -0.029, 0.16, -0.423, -0.202], [-0.161, -0.5, 0.117, 0.05, -0.493, 0.36, -0.159, -0.434, -0.225, 0.084, -0.259, -0.494, -0.189, 0.232, -0.143, -0.146, -0.385, -0.22, -0.227, -0.246, -0.109, 0.496, -0.143, -0.37, -0.401, 0.244, -0.027, -0.086, -0.277, 0.296, -0.391, 0.382, -0.193, -0.132, -0.299, 0.218, 0.219, 0.328, -0.383, 0.118, 0.455, 0.388, -0.491, -0.406, 0.147, 0.04, -0.007, 0.142, 0.383, 0.14, -0.131, 0.042, -0.405, -0.04, 0.393, 0.254, 0.087, -0.004, -0.147, -0.158, -0.485, 0.28, -0.263, 0.206], [-0.001, -0.404, -0.403, 0.018, 0.035, -0.432, 0.121, 0.342, -0.097, 0.244, -0.283, 0.042, 0.443, -0.208, -0.319, -0.21, -0.049, 0.116, -0.491, -0.262, 0.419, 0.472, -0.407, 0.134, 0.167, 0.188, 0.157, 0.202, -0.373, 0.032, -0.327, 0.158, 0.255, -0.06, 0.021, -0.334, -0.077, 0.096, 0.113, 0.494, -0.161, -0.332, -0.179, -0.198, 0.387, 0.04, 0.465, 0.454, -0.345, 0.276, 0.181, -0.438, -0.381, 0.152, -0.127, 0.47, -0.121, -0.268, 0.437, 0.33, -0.141, 0.328, 0.145, -0.338], [-0.241, 0.132, -0.379, -0.206, 0.371, 0.488, -0.335, 0.366, 0.031, 0.004, 0.413, -0.11, -0.405, 0.136, 0.201, -0.266, -0.417, -0.132, -0.251, 0.41, 0.323, -0.376, -0.039, 0.406, 0.367, 0.46, -0.323, -0.022, -0.357, -0.496, -0.159, 0.494, 0.095, 0.084, -0.411, -0.198, -0.205, 0.416, -0.487, -0.25, -0.409, 0.332, -0.131, 0.442, -0.445, -0.008, 0.057, 0.174, -0.185, -0.18, -0.027, 0.186, -0.469, -0.28, -0.455, -0.378, 0.119, -0.06, -0.355, 0.314, -0.125, -0.304, 0.409, -0.034], [-0.401, 0.388, 0.493, -0.142, 0.483, -0.184, 0.001, -0.026, 0.383, 0.004, 0.405, 0.362, 0.331, 0.32, -0.135, -0.442, -0.113, 0.036, 0.341, -0.03, 0.115, 0.424, 0.329, -0.202, 0.023, -0.284, -0.051, 0.274, 0.379, 0.192, 0.105, 0.334, -0.401, 0.316, -0.203, -0.454, 0.243, 0.072, 0.433, 0.31, -0.329, -0.244, 0.317, -0.382, 0.155, -0.312, 0.361, -0.09, 0.327, -0.196, 0.181, 0.202, -0.125, -0.128, -0.431, -0.498, 0.015, -0.284, -0.019, -0.438, -0.445, -0.456, -0.447, 0.094], [-0.473, -0.18, 0.341, -0.134, 0.459, -0.224, 0.129, -0.026, -0.233, 0.356, -0.259, -0.054, -0.109, 0.224, 0.297, -0.098, 0.063, 0.092, -0.395, -0.206, 0.131, -0.24, 0.241, -0.458, 0.079, 0.492, -0.083, 0.298, 0.323, 0.048, -0.367, -0.314, 0.159, 0.18, -0.139, -0.062, 0.443, 0.376, 0.313, 0.07, 0.327, -0.452, -0.403, 0.202, -0.133, 0.152, 0.033, 0.094, 0.127, -0.156, -0.139, -0.278, 0.427, -0.416, -0.423, 0.374, -0.049, -0.02, 0.125, 0.37, 0.475, -0.088, -0.463, 0.494], [0.023, -0.292, 0.469, 0.298, 0.323, -0.232, -0.423, 0.35, -0.241, 0.404, -0.355, -0.342, 0.339, 0.256, -0.055, -0.01, -0.161, 0.036, 0.037, 0.378, -0.469, 0.048, -0.231, -0.01, -0.289, -0.204, 0.053, 0.434, 0.379, 0.144, 0.065, 0.142, 0.343, 0.044, 0.469, -0.102, 0.155, -0.24, 0.417, 0.454, -0.129, 0.38, 0.077, 0.002, 0.139, 0.176, -0.039, 0.334, 0.327, 0.324, 0.301, -0.022, -0.213, -0.288, 0.025, 0.03, 0.191, -0.468, 0.285, -0.438, -0.373, -0.336, -0.263, 0.494], [0.095, -0.14, 0.301, 0.106, -0.485, 0.312, 0.345, -0.386, -0.185, 0.26, 0.221, 0.338, 0.267, 0.352, 0.081, 0.462, 0.063, 0.044, -0.339, 0.098, 0.355, -0.416, -0.191, -0.33, 0.215, 0.164, 0.245, -0.11, -0.317, 0.136, -0.079, -0.29, -0.401, -0.196, -0.459, 0.114, -0.445, -0.112, 0.481, 0.006, 0.143, -0.492, -0.459, -0.11, -0.349, 0.08, -0.143, 0.358, -0.081, -0.14, -0.091, -0.214, 0.027, -0.416, -0.103, 0.086, 0.415, 0.292, 0.493, 0.378, 0.235, 0.136, 0.057, -0.458], [-0.073, -0.444, -0.155, 0.474, -0.349, 0.456, -0.391, -0.25, -0.489, -0.084, -0.011, 0.298, 0.387, -0.136, -0.495, 0.19, 0.463, 0.116, -0.027, -0.198, -0.237, 0.432, -0.271, 0.286, 0.415, 0.252, 0.317, 0.05, -0.157, 0.096, -0.159, -0.018, 0.495, 0.124, 0.413, -0.142, 0.051, -0.456, 0.473, -0.498, 0.215, 0.308, -0.347, -0.03, 0.203, 0.36, -0.095, -0.226, -0.337, -0.164, 0.269, 0.378, 0.099, -0.296, 0.001, -0.018, 0.239, 0.004, 0.253, -0.006, 0.291, -0.104, 0.281, -0.034], [-0.177, -0.1, -0.475, -0.294, 0.227, -0.224, 0.073, -0.434, 0.303, -0.164, 0.053, 0.378, 0.291, -0.272, -0.159, 0.166, -0.113, -0.276, -0.355, 0.162, 0.443, -0.168, 0.425, 0.366, -0.393, 0.244, -0.139, -0.23, 0.291, -0.024, -0.007, -0.33, -0.225, -0.1, -0.347, -0.478, -0.125, -0.312, -0.223, 0.486, 0.223, -0.316, -0.451, -0.182, 0.475, -0.016, 0.465, 0.014, 0.199, 0.164, -0.211, 0.218, 0.075, -0.248, 0.321, 0.334, 0.343, 0.292, -0.403, 0.002, 0.371, 0.28, -0.391, 0.214], [-0.385, -0.476, -0.003, -0.07, 0.211, -0.384, -0.439, 0.398, 0.119, 0.012, 0.285, -0.406, 0.043, 0.0, -0.463, -0.09, 0.063, 0.22, 0.173, -0.27, 0.203, -0.096, -0.031, -0.386, 0.263, -0.148, -0.355, 0.434, -0.013, -0.096, 0.369, -0.042, 0.007, -0.5, 0.301, -0.03, 0.379, 0.456, -0.287, 0.382, -0.465, 0.012, -0.107, 0.186, 0.267, -0.2, 0.425, -0.314, -0.361, -0.068, 0.405, -0.406, -0.445, -0.416, -0.039, -0.066, -0.361, 0.252, 0.381, -0.126, 0.467, 0.152, 0.473, -0.09], [0.311, -0.116, 0.389, -0.198, 0.043, -0.448, -0.223, 0.406, 0.063, -0.444, 0.437, 0.434, -0.117, -0.088, -0.135, -0.234, -0.161, 0.076, 0.229, -0.174, 0.083, 0.24, -0.447, -0.442, 0.383, -0.444, -0.387, 0.25, -0.285, 0.48, -0.215, -0.386, -0.361, 0.116, -0.427, 0.298, -0.205, -0.192, -0.335, 0.086, 0.343, 0.196, -0.179, 0.002, -0.093, 0.424, 0.145, -0.482, -0.377, 0.052, -0.475, -0.438, -0.037, 0.176, 0.257, 0.046, -0.489, -0.196, 0.285, -0.446, -0.197, 0.2, -0.223, -0.442], [0.095, 0.26, 0.301, -0.198, 0.043, 0.28, -0.455, -0.426, 0.415, -0.188, -0.267, -0.086, -0.125, -0.128, 0.273, -0.098, 0.295, -0.356, -0.339, 0.002, -0.405, -0.448, 0.249, -0.098, 0.087, 0.068, -0.467, 0.25, -0.269, 0.48, 0.233, 0.174, -0.113, 0.116, -0.491, -0.278, -0.173, -0.12, 0.249, -0.33, 0.015, -0.036, -0.003, -0.334, -0.453, 0.352, 0.161, 0.47, -0.089, -0.388, 0.085, -0.238, -0.101, 0.032, -0.335, -0.186, 0.223, 0.396, -0.131, -0.134, 0.371, 0.288, -0.399, -0.218], [0.271, 0.46, 0.213, 0.234, 0.003, 0.024, 0.217, 0.414, -0.073, -0.108, 0.221, -0.478, 0.259, 0.112, 0.385, 0.014, -0.073, -0.252, -0.211, -0.07, 0.371, 0.136, -0.047, -0.178, 0.375, 0.22, 0.349, 0.346, 0.171, -0.496, 0.233, -0.002, -0.153, 0.396, -0.027, -0.366, -0.293, -0.016, -0.447, -0.266, -0.313, -0.484, 0.205, 0.458, -0.133, 0.256, -0.167, 0.27, 0.495, 0.172, 0.493, -0.046, 0.435, -0.464, 0.169, -0.498, 0.455, -0.052, 0.461, 0.402, -0.253, 0.456, -0.151, 0.03], [-0.329, 0.06, 0.429, 0.282, 0.243, -0.168, -0.031, 0.206, -0.121, -0.212, 0.181, -0.43, 0.451, 0.04, 0.001, -0.082, 0.463, 0.036, 0.109, 0.458, -0.021, 0.408, 0.033, 0.374, 0.367, 0.372, -0.171, -0.134, -0.357, 0.328, 0.425, -0.322, 0.439, -0.028, -0.291, -0.046, 0.139, -0.448, 0.193, -0.354, 0.431, 0.284, -0.187, 0.426, 0.315, -0.072, 0.049, -0.122, 0.135, -0.18, 0.333, 0.426, 0.171, 0.136, 0.225, -0.45, 0.119, -0.092, -0.083, -0.014, -0.077, -0.136, -0.399, -0.018], [0.303, -0.428, -0.275, -0.454, 0.203, -0.424, -0.495, -0.186, 0.023, -0.036, -0.043, -0.398, -0.013, -0.112, 0.393, -0.338, 0.455, 0.332, -0.003, -0.038, 0.051, -0.392, -0.263, 0.086, 0.063, -0.292, 0.269, -0.278, -0.421, 0.256, -0.375, -0.426, 0.407, 0.036, 0.229, -0.278, 0.355, -0.104, -0.095, 0.006, 0.383, 0.116, 0.253, 0.498, 0.219, 0.04, -0.183, 0.374, 0.471, 0.116, -0.283, -0.414, -0.469, 0.216, 0.169, -0.074, -0.049, 0.196, 0.269, 0.21, 0.123, -0.096, -0.239, 0.382], [-0.353, -0.428, 0.405, -0.142, -0.149, -0.344, -0.351, -0.13, -0.361, 0.06, 0.477, -0.07, -0.013, -0.288, 0.009, 0.062, -0.425, 0.34, 0.245, 0.29, 0.099, -0.496, 0.433, 0.31, -0.417, -0.116, 0.085, -0.054, -0.061, -0.288, 0.177, -0.074, 0.319, -0.34, 0.277, 0.154, 0.411, -0.496, 0.305, -0.114, -0.385, 0.092, -0.459, -0.222, 0.435, -0.264, 0.025, 0.014, -0.385, -0.5, -0.475, 0.074, 0.115, -0.424, 0.105, 0.07, 0.159, 0.26, 0.373, -0.102, 0.339, 0.088, 0.409, 0.262], [0.063, -0.132, -0.051, -0.126, 0.331, -0.408, -0.247, -0.466, 0.183, -0.108, 0.141, 0.394, -0.365, 0.448, 0.473, 0.462, -0.273, 0.18, 0.229, 0.114, -0.189, -0.312, 0.017, -0.074, -0.073, -0.212, -0.427, -0.254, -0.493, 0.296, -0.103, 0.094, 0.271, 0.036, 0.365, -0.302, 0.483, -0.368, -0.167, 0.182, 0.263, -0.236, -0.187, -0.158, 0.235, 0.336, -0.319, 0.23, -0.145, -0.116, -0.131, 0.298, 0.347, -0.4, 0.017, 0.246, -0.169, -0.332, 0.261, -0.358, 0.147, 0.104, 0.449, 0.366], [0.383, 0.388, -0.043, -0.278, -0.389, -0.216, 0.345, 0.142, -0.121, 0.1, 0.173, 0.306, 0.051, 0.448, 0.233, -0.266, 0.287, -0.148, 0.093, -0.366, -0.301, -0.424, 0.209, -0.362, -0.433, 0.428, 0.149, 0.154, -0.461, 0.136, -0.223, 0.318, 0.183, 0.18, 0.237, -0.134, 0.331, -0.232, 0.401, -0.034, 0.047, 0.212, 0.381, 0.09, 0.475, -0.016, 0.025, -0.37, 0.007, -0.348, 0.333, -0.454, 0.475, 0.088, 0.361, -0.402, 0.175, 0.22, -0.211, 0.266, -0.461, 0.168, -0.039, 0.374], [-0.441, 0.292, -0.443, 0.41, -0.165, 0.456, 0.425, -0.498, -0.465, 0.148, 0.325, -0.142, 0.123, -0.352, -0.087, -0.482, 0.103, -0.468, -0.491, -0.126, 0.099, -0.24, -0.095, -0.378, -0.201, 0.284, 0.109, -0.27, 0.171, -0.168, 0.337, 0.31, 0.447, -0.012, 0.405, -0.246, -0.165, -0.128, 0.449, -0.162, -0.193, -0.364, -0.267, 0.45, 0.131, 0.0, 0.065, -0.058, 0.007, 0.42, 0.325, -0.422, -0.077, -0.28, -0.175, 0.39, -0.425, -0.164, 0.285, -0.286, -0.261, -0.384, 0.201, -0.266], [0.479, -0.492, 0.053, -0.286, 0.267, -0.048, -0.183, -0.05, 0.079, 0.028, 0.117, -0.286, -0.085, 0.104, -0.391, -0.314, -0.449, 0.22, -0.027, -0.318, -0.477, -0.344, 0.473, -0.418, 0.095, 0.42, 0.221, 0.154, 0.011, -0.488, -0.135, -0.394, 0.335, 0.476, 0.261, 0.226, 0.347, 0.08, -0.111, 0.166, -0.441, 0.412, 0.181, -0.326, 0.355, -0.12, 0.337, 0.478, -0.033, -0.428, -0.219, -0.318, -0.357, -0.296, 0.161, 0.414, 0.295, -0.388, -0.339, 0.106, -0.261, -0.336, -0.103, -0.226], [0.447, 0.492, -0.075, -0.358, -0.245, -0.152, -0.423, -0.354, 0.263, 0.204, 0.005, 0.362, 0.315, 0.4, 0.297, -0.418, 0.183, -0.26, -0.491, 0.434, 0.307, -0.144, 0.161, 0.398, -0.193, -0.332, 0.429, 0.338, -0.157, 0.424, -0.471, -0.026, -0.409, -0.46, 0.373, 0.378, 0.099, 0.352, -0.487, -0.45, 0.495, 0.148, 0.213, 0.338, 0.475, -0.408, -0.447, -0.386, -0.473, 0.02, 0.109, 0.266, -0.293, -0.336, -0.295, 0.286, 0.015, -0.18, -0.107, 0.09, 0.115, -0.352, -0.047, -0.41], [0.295, -0.124, -0.227, 0.322, -0.437, 0.192, -0.119, -0.426, 0.367, 0.316, -0.491, -0.182, 0.443, 0.24, 0.425, 0.374, 0.375, -0.26, -0.387, -0.374, -0.389, 0.128, 0.337, -0.226, -0.297, 0.036, 0.149, 0.314, -0.077, -0.304, -0.327, 0.246, -0.217, -0.156, 0.077, 0.426, 0.147, -0.176, -0.119, -0.29, -0.369, -0.484, -0.211, 0.194, -0.357, -0.368, 0.249, -0.042, 0.151, -0.148, 0.245, -0.03, 0.363, -0.192, -0.087, 0.446, -0.001, -0.444, 0.189, 0.434, -0.141, 0.432, -0.199, -0.49], [-0.321, -0.236, -0.275, -0.238, -0.165, -0.144, 0.377, -0.106, 0.495, 0.18, -0.267, -0.078, 0.483, -0.44, 0.265, 0.406, 0.327, 0.044, -0.043, 0.282, 0.475, -0.288, 0.249, -0.114, -0.217, -0.292, 0.029, -0.062, 0.387, -0.072, 0.113, -0.162, -0.345, -0.364, 0.293, 0.114, -0.277, 0.104, 0.137, 0.246, 0.159, 0.124, 0.101, -0.478, 0.187, 0.32, 0.433, 0.294, -0.225, -0.02, 0.245, -0.446, 0.387, 0.112, -0.231, -0.49, -0.369, 0.092, 0.229, 0.434, -0.157, 0.408, -0.007, -0.018], [-0.217, -0.212, 0.437, -0.262, -0.461, -0.112, -0.407, 0.238, -0.425, 0.436, 0.197, -0.014, 0.203, 0.416, -0.383, 0.198, 0.063, 0.356, 0.037, -0.398, 0.059, 0.376, 0.265, 0.438, -0.481, 0.044, 0.485, -0.054, 0.491, 0.248, 0.489, -0.362, 0.479, -0.068, 0.357, 0.306, 0.179, -0.32, -0.159, 0.23, -0.257, -0.356, 0.109, 0.37, -0.093, 0.152, 0.345, -0.122, -0.137, 0.492, 0.397, -0.046, 0.027, 0.432, 0.081, 0.27, 0.471, -0.476, -0.427, -0.438, 0.115, 0.384, -0.391, -0.314], [0.263, 0.404, -0.315, 0.258, 0.467, -0.488, 0.233, 0.47, -0.289, -0.1, 0.005, -0.15, -0.157, -0.312, -0.247, -0.258, 0.487, -0.204, -0.475, 0.258, -0.301, -0.288, -0.071, -0.042, -0.441, 0.228, 0.109, 0.194, 0.371, 0.256, -0.327, 0.006, -0.353, -0.076, 0.189, 0.098, -0.253, -0.488, 0.433, 0.206, -0.073, -0.316, -0.051, -0.334, 0.131, -0.256, -0.007, 0.438, -0.297, -0.052, 0.109, -0.07, -0.293, 0.448, 0.481, 0.342, -0.097, 0.124, 0.197, 0.114, -0.157, 0.104, 0.257, -0.282], [-0.049, -0.108, -0.227, 0.45, -0.061, 0.424, -0.231, 0.222, 0.183, -0.492, 0.381, 0.178, 0.115, 0.488, 0.121, -0.442, -0.377, 0.364, 0.269, -0.198, -0.093, -0.216, -0.335, -0.498, 0.023, -0.084, 0.373, -0.286, -0.365, 0.376, -0.047, 0.182, 0.431, -0.316, 0.477, 0.354, 0.483, -0.264, -0.471, -0.402, 0.375, -0.084, 0.285, 0.162, 0.363, -0.056, -0.087, -0.066, -0.241, 0.436, -0.387, -0.23, 0.027, -0.336, 0.425, -0.186, 0.487, -0.364, -0.339, -0.142, 0.075, 0.376, -0.039, 0.054], [-0.497, -0.292, 0.477, -0.03, 0.395, -0.152, 0.257, -0.346, 0.095, -0.22, -0.275, -0.19, -0.389, 0.344, -0.303, 0.342, -0.329, -0.412, 0.237, -0.446, 0.371, -0.464, -0.335, 0.246, 0.263, -0.004, -0.131, 0.418, -0.285, -0.088, 0.497, 0.23, 0.223, -0.3, 0.085, 0.17, -0.085, -0.04, -0.135, -0.346, -0.369, -0.052, 0.253, 0.434, 0.227, -0.28, -0.183, -0.202, 0.319, 0.22, 0.021, 0.234, 0.411, 0.056, -0.103, -0.346, 0.311, -0.316, -0.355, 0.09, 0.331, -0.056, 0.329, -0.154], [0.103, 0.132, 0.101, 0.298, 0.155, -0.168, -0.479, 0.102, 0.023, 0.004, 0.261, -0.238, -0.253, -0.336, 0.225, -0.09, 0.007, -0.236, -0.019, -0.286, 0.251, 0.384, -0.351, -0.106, 0.047, 0.124, -0.283, -0.014, -0.429, -0.36, 0.297, 0.334, 0.295, 0.396, -0.243, -0.238, 0.451, -0.328, -0.295, 0.094, 0.359, 0.156, -0.131, -0.414, -0.421, -0.08, -0.111, -0.066, 0.495, 0.332, -0.083, -0.39, 0.459, -0.168, 0.057, -0.346, 0.231, 0.364, -0.347, -0.366, -0.341, -0.032, 0.441, -0.282], [0.055, -0.38, 0.125, -0.262, 0.363, 0.248, -0.087, 0.374, 0.423, -0.356, 0.389, 0.17, 0.059, 0.384, 0.033, 0.31, 0.183, 0.068, 0.469, 0.306, -0.117, -0.08, -0.135, -0.026, 0.375, -0.164, -0.491, -0.022, -0.013, -0.192, -0.479, -0.09, -0.313, 0.26, 0.357, -0.478, -0.029, -0.168, -0.159, -0.482, -0.249, -0.26, -0.435, 0.194, 0.395, 0.16, 0.193, -0.226, -0.425, 0.388, -0.291, 0.306, 0.243, 0.32, 0.185, 0.078, 0.335, -0.404, 0.421, 0.082, 0.227, -0.16, 0.201, 0.47], [-0.457, -0.196, 0.149, 0.122, 0.283, 0.496, 0.257, 0.454, -0.425, -0.308, 0.333, 0.402, 0.315, -0.144, -0.135, 0.006, 0.223, 0.148, -0.451, -0.47, 0.131, -0.088, 0.033, 0.19, -0.281, -0.212, 0.013, 0.426, -0.429, -0.104, 0.161, -0.154, 0.023, 0.364, 0.277, 0.018, 0.179, 0.224, 0.185, -0.354, -0.177, -0.22, -0.291, -0.342, 0.475, -0.064, -0.439, -0.074, 0.375, 0.124, 0.333, -0.038, 0.363, 0.024, 0.089, 0.07, 0.183, -0.172, -0.251, -0.094, 0.083, -0.28, 0.337, 0.078], [-0.425, -0.212, -0.347, -0.246, 0.411, 0.448, -0.391, -0.146, -0.121, -0.036, -0.155, -0.406, 0.403, 0.016, 0.049, 0.046, -0.321, 0.18, -0.107, 0.058, 0.331, 0.248, 0.345, 0.07, -0.273, -0.484, -0.475, -0.462, -0.245, 0.152, 0.033, -0.498, 0.047, -0.1, 0.029, -0.358, -0.045, 0.16, -0.175, -0.274, 0.119, 0.18, 0.085, 0.258, 0.499, -0.08, 0.057, 0.47, -0.169, -0.196, 0.197, 0.338, -0.405, -0.376, -0.247, 0.19, -0.193, -0.02, 0.373, 0.402, -0.253, 0.296, 0.105, 0.342], [-0.369, -0.444, -0.411, -0.238, 0.363, 0.152, -0.207, -0.442, -0.033, -0.252, 0.149, -0.238, -0.261, 0.272, 0.329, 0.246, -0.073, 0.164, -0.003, -0.262, -0.357, 0.048, -0.127, 0.318, 0.223, 0.38, -0.187, 0.346, 0.147, -0.296, 0.129, 0.118, -0.025, -0.412, 0.357, -0.038, -0.293, 0.424, 0.377, 0.182, -0.049, -0.036, 0.005, 0.042, -0.381, -0.096, -0.135, 0.014, 0.407, 0.46, -0.115, 0.018, -0.165, 0.272, -0.367, 0.286, 0.471, -0.5, 0.149, -0.31, -0.085, 0.136, -0.415, 0.238], [-0.281, -0.14, 0.437, 0.154, -0.365, 0.48, -0.191, 0.374, -0.409, -0.492, -0.003, -0.254, 0.211, 0.152, 0.329, -0.346, -0.185, -0.428, -0.115, -0.054, 0.403, -0.448, -0.487, -0.186, 0.151, -0.14, -0.179, -0.238, 0.235, -0.496, -0.031, 0.406, -0.097, -0.084, -0.227, 0.37, 0.315, 0.328, -0.071, 0.206, -0.137, 0.388, -0.043, 0.29, -0.189, 0.208, -0.303, -0.362, 0.391, -0.292, 0.157, 0.466, -0.493, 0.0, -0.287, -0.082, 0.207, 0.308, 0.405, -0.286, 0.459, -0.424, -0.319, -0.434], [0.319, 0.332, -0.203, 0.058, 0.491, -0.168, -0.463, -0.01, 0.383, -0.412, -0.091, 0.21, 0.235, -0.232, 0.201, 0.086, 0.071, -0.244, -0.299, -0.47, -0.173, -0.12, -0.015, -0.442, 0.335, 0.02, -0.035, 0.466, -0.077, -0.376, -0.159, 0.254, 0.103, 0.308, 0.021, 0.434, 0.131, 0.008, -0.255, -0.074, -0.481, -0.172, -0.395, -0.246, 0.227, -0.32, -0.263, 0.302, -0.105, -0.364, -0.403, 0.266, -0.437, -0.04, 0.449, 0.23, -0.073, -0.5, 0.349, 0.298, 0.075, 0.128, 0.473, -0.05], [-0.209, 0.428, 0.149, 0.13, 0.075, -0.272, -0.375, -0.138, 0.391, 0.452, -0.011, -0.358, 0.051, -0.352, -0.135, -0.114, -0.105, -0.46, 0.117, -0.486, -0.453, -0.432, 0.185, 0.43, -0.225, -0.012, -0.459, -0.334, -0.005, -0.28, 0.265, 0.374, -0.033, -0.396, -0.035, -0.102, -0.261, 0.072, -0.087, -0.114, -0.185, -0.164, 0.085, -0.342, 0.195, -0.064, 0.049, 0.382, 0.207, 0.452, -0.035, -0.118, 0.427, -0.168, 0.177, -0.162, 0.367, -0.3, -0.339, 0.386, 0.283, 0.184, -0.135, -0.458], [0.263, -0.22, 0.445, -0.15, -0.293, -0.432, -0.047, 0.326, -0.401, 0.388, 0.461, -0.294, -0.277, -0.096, -0.231, -0.426, -0.337, -0.076, 0.333, 0.394, 0.427, 0.088, 0.129, 0.134, -0.409, -0.172, 0.317, -0.254, 0.411, -0.136, -0.119, 0.006, 0.063, -0.476, -0.003, -0.374, 0.491, -0.344, 0.049, 0.158, -0.289, 0.14, 0.061, 0.106, 0.219, 0.472, -0.183, -0.162, 0.143, -0.404, -0.155, -0.102, -0.005, 0.472, 0.353, 0.182, 0.383, 0.3, -0.099, 0.098, -0.221, -0.096, -0.415, -0.034], [0.447, 0.492, 0.165, -0.126, -0.173, -0.424, 0.169, -0.458, -0.241, 0.212, 0.373, -0.406, 0.491, 0.064, -0.111, 0.494, -0.073, 0.38, 0.317, -0.102, -0.197, 0.328, 0.417, -0.154, 0.079, 0.372, 0.237, -0.086, -0.045, 0.008, 0.209, -0.49, -0.161, -0.388, -0.371, 0.362, -0.029, 0.072, 0.241, -0.01, 0.103, -0.356, 0.317, 0.026, -0.077, -0.04, 0.401, 0.102, -0.361, -0.372, -0.355, 0.074, 0.395, -0.144, 0.257, -0.122, 0.063, 0.276, 0.045, -0.27, 0.435, -0.32, 0.241, 0.022], [0.119, -0.156, -0.091, -0.022, -0.245, 0.096, -0.199, -0.154, 0.151, -0.436, -0.347, -0.03, 0.419, -0.112, 0.321, 0.166, 0.359, -0.388, -0.083, -0.478, 0.187, 0.056, 0.417, -0.378, 0.415, -0.372, 0.421, 0.202, 0.235, 0.28, -0.463, 0.126, -0.137, -0.468, -0.395, -0.326, -0.117, 0.104, -0.247, 0.454, 0.007, 0.076, -0.131, 0.466, -0.189, 0.192, 0.337, 0.43, 0.159, -0.364, 0.301, 0.05, -0.477, 0.488, 0.401, -0.282, -0.033, 0.372, 0.301, 0.402, -0.405, 0.024, -0.439, 0.038], [-0.009, -0.356, 0.157, -0.478, 0.283, 0.056, 0.201, 0.046, -0.473, -0.388, -0.003, 0.322, 0.099, -0.392, 0.041, -0.418, -0.137, 0.388, -0.195, 0.29, -0.085, -0.136, 0.025, 0.342, 0.247, 0.132, 0.109, 0.17, -0.317, 0.28, -0.263, -0.434, -0.121, -0.468, -0.211, 0.306, -0.245, 0.064, -0.327, -0.202, 0.263, -0.364, -0.147, -0.294, -0.141, 0.488, 0.337, -0.098, -0.009, -0.116, 0.221, -0.414, 0.155, -0.248, 0.065, -0.034, 0.479, -0.14, -0.299, -0.238, 0.483, 0.272, 0.449, 0.462], [-0.457, 0.172, 0.213, 0.282, 0.027, -0.2, -0.455, 0.126, -0.185, 0.292, -0.315, -0.038, 0.243, 0.28, -0.207, 0.262, 0.463, -0.236, 0.477, 0.05, 0.499, -0.48, -0.039, -0.346, 0.343, -0.46, -0.227, -0.15, 0.259, 0.432, 0.097, -0.282, 0.455, -0.372, -0.427, 0.122, 0.347, -0.264, 0.265, -0.258, -0.113, 0.052, -0.419, 0.498, -0.077, 0.344, -0.063, -0.226, 0.247, -0.244, -0.011, 0.266, 0.187, 0.096, 0.409, 0.414, -0.489, -0.164, 0.453, -0.422, 0.443, -0.008, -0.015, 0.27], [-0.217, -0.116, -0.499, -0.086, 0.483, -0.448, 0.185, -0.402, -0.177, -0.228, 0.413, 0.434, 0.443, 0.488, -0.095, -0.45, -0.289, -0.14, -0.043, 0.178, -0.373, 0.264, -0.231, 0.142, 0.055, 0.388, 0.005, -0.198, 0.395, 0.392, -0.215, 0.294, 0.039, 0.012, 0.469, -0.134, -0.165, 0.08, -0.031, -0.114, -0.281, -0.42, 0.189, 0.066, 0.275, 0.08, 0.145, 0.182, -0.433, 0.164, -0.283, -0.446, 0.099, -0.096, -0.287, -0.322, 0.095, 0.22, -0.467, 0.146, 0.347, -0.128, 0.425, -0.09], [-0.161, 0.06, 0.029, 0.25, -0.381, 0.36, 0.297, 0.094, -0.225, 0.34, -0.243, 0.402, 0.411, 0.288, 0.121, -0.386, -0.369, 0.028, 0.389, -0.478, 0.107, -0.488, -0.127, -0.194, -0.497, -0.316, -0.075, -0.294, 0.051, 0.232, 0.145, 0.182, -0.153, -0.244, 0.221, 0.106, -0.373, -0.416, 0.401, -0.05, 0.479, 0.244, -0.307, -0.134, -0.229, -0.16, 0.201, -0.322, 0.063, -0.452, 0.285, 0.034, 0.083, 0.328, 0.137, 0.198, 0.495, -0.188, -0.499, -0.062, -0.461, 0.072, 0.145, 0.062], [0.423, 0.156, -0.427, -0.406, -0.125, 0.448, -0.119, -0.226, 0.127, -0.188, 0.117, 0.002, 0.091, 0.264, -0.231, 0.15, -0.225, 0.092, -0.203, 0.106, -0.021, -0.144, 0.113, 0.174, -0.313, -0.036, 0.125, 0.122, 0.011, -0.448, -0.359, 0.446, -0.025, -0.3, -0.307, -0.414, -0.397, -0.144, -0.055, 0.182, 0.007, -0.052, 0.229, -0.23, 0.035, -0.056, 0.113, 0.046, 0.375, 0.116, 0.157, -0.182, -0.381, 0.048, 0.313, -0.058, -0.257, 0.18, 0.389, -0.102, 0.243, -0.016, 0.105, -0.178], [0.015, 0.452, 0.085, 0.074, -0.429, -0.488, 0.465, 0.326, 0.159, 0.18, -0.283, 0.25, -0.157, 0.472, -0.407, 0.326, -0.481, 0.052, -0.323, 0.426, 0.403, 0.064, -0.087, 0.302, -0.273, -0.116, 0.373, 0.082, -0.469, -0.168, -0.031, -0.378, 0.343, -0.436, 0.277, 0.17, 0.467, 0.032, -0.431, -0.346, -0.033, 0.42, -0.243, 0.234, -0.077, -0.112, -0.231, -0.458, 0.263, -0.34, 0.213, 0.194, -0.397, -0.432, -0.303, -0.002, 0.399, -0.228, 0.349, 0.498, 0.451, 0.12, 0.329, -0.482], [-0.081, -0.244, -0.307, -0.302, 0.499, 0.128, 0.401, 0.206, 0.271, -0.444, 0.309, -0.014, 0.259, 0.144, -0.431, -0.162, 0.063, 0.38, -0.299, -0.142, 0.067, -0.272, 0.465, -0.282, 0.271, -0.372, 0.317, -0.206, -0.253, -0.328, 0.241, -0.226, -0.305, -0.46, -0.163, -0.398, 0.451, 0.072, 0.361, -0.386, -0.097, 0.212, 0.117, 0.482, 0.411, -0.36, 0.177, -0.402, -0.281, 0.388, -0.435, -0.43, -0.189, -0.432, -0.375, -0.314, 0.199, -0.14, -0.235, -0.318, -0.261, -0.48, 0.425, -0.402], [0.023, 0.348, -0.299, -0.406, -0.373, -0.008, -0.487, -0.25, 0.447, -0.068, -0.235, -0.478, -0.245, 0.336, 0.145, -0.498, 0.431, -0.22, 0.365, -0.398, 0.131, 0.264, 0.193, 0.422, 0.143, -0.092, 0.021, -0.006, 0.267, 0.496, -0.495, -0.21, -0.049, -0.004, 0.413, 0.45, 0.259, 0.464, 0.233, -0.218, -0.169, -0.3, -0.379, -0.382, 0.299, -0.304, 0.225, 0.118, -0.497, 0.388, 0.445, -0.414, 0.491, 0.2, 0.201, -0.258, -0.297, 0.188, 0.493, 0.274, 0.099, 0.344, 0.121, 0.038], [0.279, 0.332, 0.237, 0.066, -0.253, -0.024, -0.495, 0.118, 0.087, 0.124, 0.189, 0.402, 0.219, -0.016, -0.407, -0.338, -0.473, 0.372, 0.341, -0.022, -0.069, -0.088, 0.289, -0.002, -0.361, 0.204, 0.429, 0.186, -0.477, -0.392, -0.127, 0.03, -0.497, -0.172, -0.427, 0.106, -0.229, -0.184, -0.023, -0.242, -0.409, 0.14, -0.243, 0.218, 0.267, 0.376, 0.273, -0.114, -0.097, -0.428, -0.035, -0.35, 0.067, 0.144, -0.239, 0.486, -0.353, 0.38, 0.213, -0.486, 0.403, 0.336, -0.327, -0.01], [-0.481, 0.34, -0.395, -0.054, 0.179, 0.128, -0.447, 0.294, 0.471, 0.42, 0.101, -0.414, 0.067, 0.144, 0.361, 0.19, 0.375, 0.156, 0.125, -0.462, 0.331, -0.208, 0.177, 0.094, 0.231, 0.228, 0.013, 0.106, 0.475, 0.432, 0.041, 0.086, -0.377, 0.052, 0.005, -0.214, 0.395, 0.264, -0.495, 0.262, -0.449, 0.26, 0.485, 0.034, 0.115, 0.472, 0.209, -0.49, -0.265, -0.324, -0.291, -0.302, -0.213, 0.256, -0.239, 0.006, -0.409, -0.468, 0.133, -0.422, 0.347, 0.304, -0.191, 0.078], [0.103, -0.172, -0.419, -0.11, -0.285, 0.024, 0.009, 0.438, -0.297, -0.364, -0.395, -0.086, 0.187, 0.048, -0.223, 0.078, 0.175, -0.34, -0.259, -0.046, -0.333, -0.208, -0.303, -0.058, 0.271, 0.46, 0.365, -0.038, -0.445, -0.432, 0.473, -0.33, -0.297, -0.14, 0.277, -0.414, -0.341, -0.232, -0.095, -0.458, 0.199, -0.092, -0.355, -0.358, -0.477, 0.008, -0.311, -0.282, -0.065, 0.316, 0.085, 0.194, -0.221, -0.488, -0.167, 0.27, -0.433, 0.212, -0.067, 0.058, -0.197, -0.008, -0.215, 0.102], [-0.489, 0.076, 0.469, 0.026, 0.323, 0.008, -0.303, -0.466, -0.289, 0.412, -0.427, -0.246, -0.005, -0.248, 0.233, 0.494, 0.303, 0.18, -0.315, 0.426, 0.451, 0.032, 0.273, -0.106, 0.175, -0.036, 0.253, -0.214, -0.277, 0.496, -0.487, -0.034, 0.015, 0.324, 0.077, -0.278, -0.029, 0.464, 0.145, -0.33, 0.255, -0.484, 0.197, 0.146, 0.291, -0.224, -0.047, 0.118, -0.033, -0.476, -0.323, 0.074, -0.413, 0.12, 0.137, -0.282, -0.161, -0.428, 0.469, 0.426, 0.467, -0.44, -0.319, 0.038], [-0.249, -0.46, 0.397, -0.342, -0.205, -0.344, 0.321, 0.094, -0.401, -0.436, -0.243, -0.11, 0.379, -0.16, 0.057, 0.486, 0.311, 0.244, 0.277, -0.022, -0.333, 0.4, -0.199, -0.17, -0.353, 0.22, 0.269, -0.214, -0.237, 0.464, -0.023, -0.258, 0.303, 0.284, -0.379, 0.234, -0.493, 0.312, -0.391, -0.106, -0.441, 0.284, -0.019, -0.23, -0.253, 0.448, 0.361, -0.21, 0.119, -0.084, -0.107, -0.254, 0.339, 0.056, -0.047, -0.386, 0.439, -0.172, -0.227, 0.33, -0.141, -0.304, 0.049, -0.314], [0.303, -0.148, -0.331, -0.382, 0.099, -0.336, -0.295, -0.25, -0.353, -0.268, 0.381, -0.31, 0.107, 0.368, 0.345, -0.482, -0.425, -0.204, -0.283, 0.106, 0.179, 0.368, 0.297, -0.25, 0.455, -0.06, -0.115, -0.006, -0.069, 0.248, -0.143, 0.182, 0.135, 0.46, 0.301, 0.042, 0.027, -0.2, 0.265, -0.066, 0.127, 0.292, -0.043, -0.382, 0.043, -0.184, 0.097, -0.306, -0.145, -0.124, 0.021, -0.15, 0.283, 0.176, -0.207, 0.454, 0.279, -0.22, -0.299, 0.186, -0.325, -0.384, 0.321, 0.022], [0.175, 0.116, 0.061, 0.21, 0.027, -0.392, -0.447, -0.338, -0.041, 0.028, 