{
  "name": "pytorch_iris",
  "input_shape": [
    4
  ],
  "output_shape": [
    3
  ],
  "quantize": false,
  "layers": [
    {
      "id": "fc1",
      "type": "Dense",
      "input_size": 4,
      "output_size": 8,
      "activation": "relu",
      "weights": [
        [
          -0.35227611660957336,
          0.5736452341079712,
          0.6823310256004333,
          -0.03684192895889282,
          -0.3559077978134155,
          0.43869176506996155,
          0.8092712163925171,
          -0.4146813750267029
        ],
        [
          -0.6376228332519531,
          0.3094825744628906,
          -0.677069902420044,
          -0.3866052031517029,
          -0.041310012340545654,
          0.6548197269439697,
          1.010826587677002,
          -0.32228875160217285
        ],
        [
          0.8139895796775818,
          -0.709452748298645,
          0.8460099101066589,
          -0.38372278213500977,
          0.3523603677749634,
          -1.0728319883346558,
          -1.2629224061965942,
          0.10566145181655884
        ],
        [
          1.559585452079773,
          -0.7563683390617371,
          0.646845281124115,
          0.26046526432037354,
          -0.25814884901046753,
          -0.43529483675956726,
          -0.8981216549873352,
          -0.34459608793258667
        ]
      ],
      "biases": [
        -1.542744755744934,
        1.0171011686325073,
        -0.5022140741348267,
        -0.40554118156433105,
        -0.47674477100372314,
        0.5709813833236694,
        1.7446792125701904,
        0.22489440441131592
      ]
    },
    {
      "id": "fc2",
      "type": "Dense",
      "input_size": 8,
      "output_size": 3,
      "activation": "softmax",
      "weights": [
        [
          0.008467121981084347,
          -1.7031053304672241,
          1.2073415517807007
        ],
        [
          1.0238655805587769,
          0.6298396587371826,
          -1.2050870656967163
        ],
        [
          -0.8965297937393188,
          0.31803300976753235,
          0.6370185613632202
        ],
        [
          -0.2194957286119461,
          -0.1461006999015808,
          0.11554795503616333
        ],
        [
          -0.3113131523132324,
          0.08510008454322815,
          -0.06643819808959961
        ],
        [
          0.8438482284545898,
          -1.1773937940597534,
          -0.29678377509117126
        ],
        [
          0.5537335872650146,
          0.4610181748867035,
          -1.0909494161605835
        ],
        [
          0.0659046471118927,
          -0.145793154835701,
          0.18958303332328796
        ]
      ],
      "biases": [
        0.0773017555475235,
        0.32914721965789795,
        -0.6184305548667908
      ]
    }
  ]
}