{
  "name": "wine_quality_binary",
  "input_shape": [
    11
  ],
  "output_shape": [
    1
  ],
  "quantize": false,
  "use_fpu": true,
  "layers": [
    {
      "id": "layer_0",
      "type": "Dense",
      "input_size": 11,
      "output_size": 32,
      "activation": "relu",
      "weights": [
        [
          0.19827979803085327,
          0.06251797080039978,
          -0.18931125104427338,
          0.012561872601509094,
          0.22499920427799225,
          0.057024456560611725,
          0.2502475082874298,
          -0.0731247290968895,
          -0.25050801038742065,
          -0.30345413088798523,
          0.30601319670677185,
          -0.1668039858341217,
          -0.29691559076309204,
          -0.34974929690361023,
          0.18647722899913788,
          -0.08325335383415222,
          -0.38855406641960144,
          -0.17097997665405273,
          -0.056901149451732635,
          0.008214703761041164,
          -0.11677809804677963,
          0.19666413962841034,
          -0.16704635322093964,
          -0.26612818241119385,
          0.016325540840625763,
          -0.2568568289279938,
          -0.31787943840026855,
          -0.03426627814769745,
          -0.14677327871322632,
          0.12889689207077026,
          0.060597777366638184,
          -0.2122088074684143
        ],
        [
          0.27314966917037964,
          0.18160611391067505,
          0.3223135471343994,
          -0.12701711058616638,
          -0.19114425778388977,
          0.2099451720714569,
          -0.11665389686822891,
          0.25752922892570496,
          0.1416148990392685,
          -0.2005319744348526,
          0.1769058257341385,
          0.14295156300067902,
          0.2620408535003662,
          -0.2335543930530548,
          -0.17121972143650055,
          -0.10917648673057556,
          0.10096701979637146,
          -0.011435644701123238,
          0.14388586580753326,
          0.3009288012981415,
          0.2396412193775177,
          0.24127349257469177,
          -0.19336852431297302,
          -0.010270626284182072,
          0.3739577829837799,
          -0.12751832604408264,
          0.2520061135292053,
          0.0008296367013826966,
          0.1211366280913353,
          -0.3473711311817169,
          0.16914498805999756,
          -0.05027426779270172
        ],
        [
          -0.06264214962720871,
          0.09670320898294449,
          -0.3300633132457733,
          0.2511254847049713,
          0.10972987860441208,
          -0.050179798156023026,
          -0.1676405370235443,
          0.12096284329891205,
          0.029749734327197075,
          0.18445388972759247,
          0.13196052610874176,
          -0.28058913350105286,
          -0.046788282692432404,
          0.1168341189622879,
          0.13246040046215057,
          0.3126419484615326,
          0.27915632724761963,
          -0.0018533194670453668,
          -0.3330037593841553,
          0.028490526601672173,
          -0.11192499101161957,
          0.2503143548965454,
          0.049576759338378906,
          -0.32736462354660034,
          -0.17512480914592743,
          0.0037924519274383783,
          0.3278866410255432,
          -0.2067766934633255,
          0.23497596383094788,
          -0.002088309498503804,
          -0.35220715403556824,
          -0.3437800109386444
        ],
        [
          0.1424538940191269,
          0.19787338376045227,
          -0.2421092540025711,
          -0.017899051308631897,
          0.2068621665239334,
          0.1547737717628479,
          -0.2991792857646942,
          -0.2089635282754898,
          -0.18618302047252655,
          -0.011023258790373802,
          -0.3481060266494751,
          -0.3505491316318512,
          -0.1874171644449234,
          0.08937550336122513,
          -0.009921038523316383,
          0.004414096474647522,
          -0.31571897864341736,
          0.013761191628873348,
          -0.23420527577400208,
          -0.3515876829624176,
          -0.10109610110521317,
          0.05031362175941467,
          -0.20012794435024261,
          0.08170461654663086,
          -0.09966595470905304,
          0.04303252696990967,
          -0.21227337419986725,
          -0.0349779911339283,
          0.11293750256299973,
          0.3781069815158844,
          -0.40342819690704346,
          -0.41103070974349976
        ],
        [
          -0.18582910299301147,
          -0.04262177273631096,
          -0.0800660252571106,
          0.3130289614200592,
          -0.06929602473974228,
          -0.2831079363822937,
          0.5478558540344238,
          -0.17820008099079132,
          0.26975494623184204,
          -0.101449154317379,
          -0.22639790177345276,
          -0.1664389669895172,
          -0.29527390003204346,
          0.3494527339935303,
          0.3097807765007019,
          -0.047536451369524,
          0.13648110628128052,
          -0.011097301729023457,
          0.3460988700389862,
          -0.10521283000707626,
          -0.17952731251716614,
          0.2506183087825775,
          -0.055906932801008224,
          -0.04245752468705177,
          -0.05060292035341263,
          -0.3703639805316925,
          -0.04793998599052429,
          -0.059540607035160065,
          -0.08436664193868637,
          -0.08560812473297119,
          0.1817334145307541,
          -0.11481021344661713
        ],
        [
          0.03521394357085228,
          0.21016712486743927,
          -0.20163194835186005,
          0.0389660969376564,
          -0.06376353651285172,
          0.0062690735794603825,
          0.04724625125527382,
          0.10436780005693436,
          0.2417345643043518,
          0.03369488939642906,
          -0.216297447681427,
          -0.12140769511461258,
          -0.2982661724090576,
          0.27165132761001587,
          -0.20809268951416016,
          -0.1823323518037796,
          0.18665605783462524,
          0.21110694110393524,
          0.18310339748859406,
          -0.14718271791934967,
          0.14200565218925476,
          -0.05823128670454025,
          0.05040839686989784,
          0.21440763771533966,
          -0.25514060258865356,
          -0.038172170519828796,
          -0.1896069496870041,
          -0.05551251769065857,
          0.12659190595149994,
          -0.1390434205532074,
          -0.2928009033203125,
          0.2745594382286072
        ],
        [
          -0.10119736939668655,
          -0.008403560146689415,
          0.015379508025944233,
          -0.05029601976275444,
          -0.3866831362247467,
          -0.13279017806053162,
          0.33149453997612,
          0.04981190711259842,
          -0.28595712780952454,
          -0.13773922622203827,
          0.10291430354118347,
          -0.23401322960853577,
          0.15888361632823944,
          -0.10809949040412903,
          0.34527090191841125,
          0.0409049466252327,
          0.19338008761405945,
          0.3276060223579407,
          0.119705431163311,
          0.33860233426094055,
          0.13658343255519867,
          -0.1309424787759781,
          -0.06615761667490005,
          0.24406258761882782,
          0.24815382063388824,
          -0.10032954066991806,
          -0.3068954646587372,
          -0.038154784590005875,
          0.3405812978744507,
          -0.2784337103366852,
          0.0793963372707367,
          -0.017419418320059776
        ],
        [
          0.2358185201883316,
          -0.10602923482656479,
          -0.2535700798034668,
          0.12512648105621338,
          -0.1531049758195877,
          0.1337667852640152,
          -0.03045538254082203,
          0.23098039627075195,
          -0.09697701781988144,
          -0.14334726333618164,
          -0.16679762303829193,
          0.4535768926143646,
          0.04911298304796219,
          0.10250188410282135,
          0.17895770072937012,
          0.31964561343193054,
          -0.05394479259848595,
          0.0719061866402626,
          -0.06953035295009613,
          0.19107279181480408,
          0.2341751754283905,
          -0.13372626900672913,
          0.24566800892353058,
          0.2823236286640167,
          -0.3540491461753845,
          0.007401695940643549,
          -0.15501011908054352,
          -0.26347091794013977,
          0.23054960370063782,
          -0.29072946310043335,
          0.2489650547504425,
          -0.1488591879606247
        ],
        [
          0.237345352768898,
          0.03706173598766327,
          0.33732348680496216,
          -0.06886111199855804,
          -0.18047945201396942,
          -0.08422811329364777,
          -0.40269196033477783,
          0.042866822332143784,
          0.32372090220451355,
          -0.09130412340164185,
          -0.16394266486167908,
          -0.020934520289301872,
          0.14828434586524963,
          -0.10076978802680969,
          0.11370778828859329,
          -0.04623505845665932,
          0.25355440378189087,
          -0.10031191259622574,
          -0.1706477701663971,
          -0.09555158019065857,
          -0.18596652150154114,
          -0.3330446183681488,
          -0.023023832589387894,
          -0.27353525161743164,
          0.29598361253738403,
          0.002211132552474737,
          0.16343823075294495,
          0.2638414800167084,
          0.21318064630031586,
          -0.38329756259918213,
          -0.1074904277920723,
          0.1772996038198471
        ],
        [
          -0.5251873731613159,
          -0.10811980813741684,
          -0.3525421917438507,
          0.18186840415000916,
          0.39726537466049194,
          0.0035265078768134117,
          -0.23794735968112946,
          0.08832366019487381,
          -0.28498488664627075,
          -0.3179034888744354,
          -0.3602982461452484,
          0.1870659738779068,
          -0.5039402842521667,
          -0.061367761343717575,
          -0.4447062611579895,
          -0.3532167971134186,
          0.20657183229923248,
          -0.10371538996696472,
          -0.4436182975769043,
          -0.024513354524970055,
          -0.19628018140792847,
          0.03504936024546623,
          -0.361963152885437,
          0.3707585334777832,
          0.34421005845069885,
          -0.4094685912132263,
          -0.43038520216941833,
          -0.05429324880242348,
          0.16267946362495422,
          -0.0001602203119546175,
          -0.16017532348632812,
          -0.0076305619440972805
        ],
        [
          0.15593178570270538,
          -0.03040151111781597,
          0.13906428217887878,
          0.18326282501220703,
          0.23513782024383545,
          -0.15642645955085754,
          -0.38689664006233215,
          -0.4150390326976776,
          -0.2711155414581299,
          -0.21712638437747955,
          0.0025804240722209215,
          -0.11548539996147156,
          0.06684301793575287,
          -0.47338366508483887,
          -0.04386723041534424,
          -0.29488635063171387,
          -0.0742347240447998,
          -0.18738582730293274,
          -0.22882378101348877,
          -0.3422037363052368,
          -0.24862830340862274,
          -0.3196892738342285,
          -0.04316060245037079,
          -0.368191659450531,
          0.2842279374599457,
          -0.1950024664402008,
          -0.32379254698753357,
          0.05983788147568703,
          -0.2838246822357178,
          0.049039993435144424,
          -0.19075161218643188,
          0.012134219519793987
        ]
      ],
      "biases": [
        0.4020618200302124,
        0.1591397076845169,
        -0.18101277947425842,
        0.17090359330177307,
        0.13828592002391815,
        -0.01058964803814888,
        0.0004695051466114819,
        0.4565591812133789,
        0.05457373335957527,
        -0.17210309207439423,
        -0.09743091464042664,
        0.14360859990119934,
        0.2945912778377533,
        0.20626714825630188,
        0.2320956438779831,
        -0.0683693066239357,
        -0.11928476393222809,
        0.19791573286056519,
        0.4695702791213989,
        0.3516288995742798,
        -0.21160700917243958,
        0.10680220276117325,
        -0.14522893726825714,
        0.0451975017786026,
        0.16097943484783173,
        0.3989052176475525,
        0.49046972393989563,
        -0.29536107182502747,
        0.28838926553726196,
        -0.20269598066806793,
        0.32459989190101624,
        0.38863152265548706
      ]
    },
    {
      "id": "layer_1",
      "type": "Dense",
      "input_size": 32,
      "output_size": 16,
      "activation": "relu",
      "weights": [
        [
          0.01255718618631363,
          -0.11391617357730865,
          0.05465177819132805,
          0.20495720207691193,
          0.17034722864627838,
          0.17632929980754852,
          0.07145310193300247,
          0.2554492652416229,
          0.13498574495315552,
          0.14819833636283875,
          0.1546698808670044,
          -0.0021103927865624428,
          -0.16975675523281097,
          0.07883164286613464,
          -0.02276688441634178,
          -0.15699824690818787
        ],
        [
          0.1923065334558487,
          0.04081873223185539,
          -0.2400895655155182,
          0.0033961536828428507,
          -0.06819529086351395,
          0.06344867497682571,
          0.15889251232147217,
          0.2459050416946411,
          -0.10250742733478546,
          0.0596177913248539,
          -0.08435521274805069,
          -0.07614888995885849,
          0.12157187610864639,
          0.1298825591802597,
          -0.02621009200811386,
          0.09495312720537186
        ],
        [
          -0.16154780983924866,
          -0.11691652238368988,
          0.08714824169874191,
          -0.1026948094367981,
          -0.09294833987951279,
          0.016705984249711037,
          -0.0373922698199749,
          0.11261741071939468,
          0.16138221323490143,
          -0.165714293718338,
          0.10256750881671906,
          0.14894431829452515,
          0.14481280744075775,
          -0.11793695390224457,
          -0.1489231437444687,
          0.07660385221242905
        ],
        [
          0.04170387238264084,
          -0.12723414599895477,
          -0.24926573038101196,
          0.06688953191041946,
          -0.15904700756072998,
          0.19406382739543915,
          -0.09287242591381073,
          -0.09334170818328857,
          0.14543065428733826,
          0.1518494188785553,
          0.09676181524991989,
          0.09719136357307434,
          0.09511273354291916,
          0.1273830533027649,
          0.12441302090883255,
          0.03394172713160515
        ],
        [
          0.3009430170059204,
          -0.025805994868278503,
          -0.14438527822494507,
          -0.12218206375837326,
          0.04030085355043411,
          0.2900390625,
          -6.992995622567832e-05,
          -0.14544519782066345,
          -0.19632434844970703,
          0.027834581211209297,
          -0.16509747505187988,
          -0.05085001140832901,
          -0.02141382545232773,
          -0.0838765799999237,
          -0.12240652740001678,
          0.08086463063955307
        ],
        [
          -0.006658557336777449,
          -0.0869394987821579,
          -0.013840263709425926,
          -0.05485362559556961,
          -0.1007944867014885,
          -0.02803705632686615,
          -0.09322047978639603,
          0.20627522468566895,
          -0.03520212322473526,
          -0.056024324148893356,
          0.10685001313686371,
          0.061897169798612595,
          -0.06711573898792267,
          -0.07232195883989334,
          0.04101691022515297,
          -0.22199715673923492
        ],
        [
          0.033919114619493484,
          -0.13504835963249207,
          0.04693128913640976,
          0.2123996764421463,
          0.24748767912387848,
          -0.02350889891386032,
          0.1473158746957779,
          0.19149160385131836,
          0.1637849360704422,
          -0.21243952214717865,
          0.10810716450214386,
          0.1774969846010208,
          0.005870988592505455,
          0.13446135818958282,
          0.15618357062339783,
          -0.07859251648187637
        ],
        [
          -0.07702004164457321,
          0.06539751589298248,
          -0.17078711092472076,
          0.1413879245519638,
          0.1449728012084961,
          0.07374745607376099,
          0.31240665912628174,
          0.18339160084724426,
          0.09258262813091278,
          -0.07468211650848389,
          0.22848929464817047,
          0.3405824899673462,
          -0.0021951422095298767,
          0.2244257777929306,
          0.0975366160273552,
          0.10106317698955536
        ],
        [
          0.04959667846560478,
          0.07158960402011871,
          -0.07246261835098267,
          0.2882332503795624,
          0.10330907255411148,
          -0.10107971727848053,
          0.16860821843147278,
          0.15366218984127045,
          0.08838532865047455,
          0.06575630605220795,
          0.21622255444526672,
          0.04937699809670448,
          -0.10460352152585983,
          0.2706419825553894,
          0.18697187304496765,
          -0.024361342191696167
        ],
        [
          0.0950760468840599,
          -0.003709366312250495,
          0.11519064009189606,
          0.2902463972568512,
          0.21067233383655548,
          0.026769500225782394,
          0.15865378081798553,
          0.0015930206282064319,
          0.023185299709439278,
          -0.00229942356236279,
          -0.05874180048704147,
          0.030062450096011162,
          -0.011584803462028503,
          0.009961607865989208,
          -0.029374292120337486,
          -0.027077656239271164
        ],
        [
          0.10219494998455048,
          -0.027815019711852074,
          0.012350033037364483,
          0.09390930831432343,
          0.04925750195980072,
          -0.030238954350352287,
          -0.04379444196820259,
          0.018052121624350548,
          0.19563649594783783,
          -0.1723659336566925,
          0.226850688457489,
          0.16152691841125488,
          0.0533510260283947,
          -0.011151200160384178,
          -0.05258495733141899,
          -0.060720037668943405
        ],
        [
          -0.16060099005699158,
          -0.1672239452600479,
          -0.12929153442382812,
          0.24711811542510986,
          0.27432647347450256,
          -0.2004556804895401,
          0.17926010489463806,
          0.35481011867523193,
          0.05478886142373085,
          -0.010662565939128399,
          0.29930031299591064,
          0.08167869597673416,
          -0.0533660463988781,
          0.19561803340911865,
          0.053510379046201706,
          -0.14312006533145905
        ],
        [
          -0.21286141872406006,
          -0.09139158576726913,
          0.04238663613796234,
          0.14222154021263123,
          0.23468594253063202,
          -0.030335839837789536,
          0.1567632406949997,
          0.06332596391439438,
          0.23361338675022125,
          -0.1017192006111145,
          0.1746768206357956,
          0.08489980548620224,
          0.038200221955776215,
          0.16514071822166443,
          0.04249092936515808,
          0.03734321519732475
        ],
        [
          -0.11515558511018753,
          0.0018593019340187311,
          -0.0019100148929283023,
          0.23865145444869995,
          0.07035274803638458,
          -0.06308764219284058,
          0.28244656324386597,
          0.23521265387535095,
          0.19876210391521454,
          0.08709216862916946,
          0.08243310451507568,
          0.4036065638065338,
          -0.19858762621879578,
          0.2709212899208069,
          0.19376756250858307,
          -0.08835570514202118
        ],
        [
          0.047214146703481674,
          0.05820188298821449,
          -0.04015077278017998,
          0.11430642753839493,
          0.19143469631671906,
          0.036116957664489746,
          0.19190238416194916,
          -0.02908342331647873,
          0.14115114510059357,
          -0.19191794097423553,
          0.053966131061315536,
          0.17109723389148712,
          -0.020045146346092224,
          0.21717458963394165,
          0.13714827597141266,
          0.011602655984461308
        ],
        [
          -0.08126100897789001,
          -0.06587572395801544,
          -0.11969544738531113,
          0.14516563713550568,
          0.17282254993915558,
          0.13327498733997345,
          0.2998955249786377,
          0.053760629147291183,
          0.2632426917552948,
          -0.08466775715351105,
          0.08502829819917679,
          0.19120395183563232,
          0.12967491149902344,
          0.09696546941995621,
          0.12245622277259827,
          -0.11111477017402649
        ],
        [
          -0.17804595828056335,
          -0.10291832685470581,
          0.21242961287498474,
          0.11085505038499832,
          0.08966474235057831,
          0.01575268991291523,
          -0.04043504595756531,
          0.0302633848041296,
          0.0012019774876534939,
          -0.23063936829566956,
          0.009568851441144943,
          0.05364309251308441,
          0.038947973400354385,
          0.1645139902830124,
          0.11293210834264755,
          0.004986876156181097
        ],
        [
          0.14861749112606049,
          0.08336350321769714,
          -0.10704780369997025,
          0.2905222773551941,
          0.15253287553787231,
          0.17932097613811493,
          0.13350151479244232,
          0.03450540453195572,
          0.010686416178941727,
          -0.1152346208691597,
          0.22458460927009583,
          0.13185028731822968,
          -0.22998684644699097,
          0.24627262353897095,
          0.2767069637775421,
          -0.0001505218679085374
        ],
        [
          -0.058729179203510284,
          -0.16794194281101227,
          -0.23316611349582672,
          0.1417515128850937,
          0.2172333300113678,
          -0.08169425278902054,
          0.1038159653544426,
          0.17380034923553467,
          0.11600414663553238,
          0.0066710589453577995,
          0.22878840565681458,
          0.38390257954597473,
          0.07979527115821838,
          0.11627087742090225,
          0.27379804849624634,
          -0.04278373718261719
        ],
        [
          -0.041832633316516876,
          0.06701167672872543,
          -0.09910217672586441,
          0.10901115089654922,
          0.08786872774362564,
          -0.21168017387390137,
          0.04872985929250717,
          0.2717473804950714,
          0.28511321544647217,
          0.10474102199077606,
          0.31140273809432983,
          0.1193222776055336,
          0.06293245404958725,
          0.2851641774177551,
          0.14620457589626312,
          0.0326659269630909
        ],
        [
          -0.056450825184583664,
          -0.0935351699590683,
          0.14365820586681366,
          0.08326736837625504,
          0.09156004339456558,
          -0.1335602104663849,
          0.10960184037685394,
          -0.02549532614648342,
          -0.034394048154354095,
          -0.008225783705711365,
          0.05231268331408501,
          0.15673954784870148,
          -0.1114024817943573,
          0.18779003620147705,
          -0.011428967118263245,
          0.05447815731167793
        ],
        [
          -0.09872934967279434,
          -0.023483941331505775,
          0.12065373361110687,
          -0.019570013508200645,
          0.21781077980995178,
          -0.09899783879518509,
          -0.10533670336008072,
          0.11842318624258041,
          0.096861332654953,
          0.11096213757991791,
          0.1217193603515625,
          0.10939767211675644,
          0.2210026979446411,
          0.21415501832962036,
          0.12248733639717102,
          0.11993744224309921
        ],
        [
          -0.2599357068538666,
          -0.044401928782463074,
          0.11586599797010422,
          0.266974538564682,
          0.3145468831062317,
          -0.2847001254558563,
          0.3375987708568573,
          0.14426034688949585,
          0.012365555390715599,
          0.00745957437902689,
          0.2776567339897156,
          0.1554298996925354,
          -0.07826212793588638,
          0.103202685713768,
          0.19164124131202698,
          0.05453341454267502
        ],
        [
          -0.10701406747102737,
          -0.0036772238090634346,
          0.01730109006166458,
          0.2891556918621063,
          0.15799976885318756,
          -0.042846690863370895,
          0.1831725537776947,
          0.08315085619688034,
          0.22788608074188232,
          0.024975167587399483,
          0.01824384368956089,
          0.34079545736312866,
          -0.03443804383277893,
          0.06013505905866623,
          0.2502603828907013,
          -0.13168677687644958
        ],
        [
          -0.03259797394275665,
          -0.057360369712114334,
          0.29913631081581116,
          0.08122099936008453,
          -0.22860771417617798,
          -0.12692761421203613,
          -0.12073579430580139,
          0.012931272387504578,
          0.007958345115184784,
          0.1259131282567978,
          -0.1886269599199295,
          -0.09666072577238083,
          0.2419494390487671,
          -0.06100422143936157,
          0.033438872545957565,
          -0.16131490468978882
        ],
        [
          0.07204225659370422,
          0.08821076899766922,
          -0.24055910110473633,
          0.2774834930896759,
          0.17917053401470184,
          -0.1765088438987732,
          0.2769373655319214,
          0.3485162854194641,
          0.16846488416194916,
          0.12301436811685562,
          0.09199833124876022,
          0.14978066086769104,
          -0.29389628767967224,
          0.18930253386497498,
          0.2745400667190552,
          -0.017049415037035942
        ],
        [
          -0.0685582384467125,
          -0.05505336448550224,
          -0.19621697068214417,
          0.0481128916144371,
          0.0401347316801548,
          -0.177674800157547,
          0.022546639665961266,
          0.13693471252918243,
          0.21295112371444702,
          -0.13140720129013062,
          0.2707153856754303,
          0.1700373739004135,
          0.05020071193575859,
          0.26633453369140625,
          0.3634572923183441,
          -0.07279237359762192
        ],
        [
          -0.0272151418030262,
          0.07786855101585388,
          0.1827724725008011,
          -0.13347207009792328,
          0.11543954163789749,
          -0.21622298657894135,
          -0.07611808180809021,
          -0.11013808101415634,
          -0.027183005586266518,
          0.1013624295592308,
          -0.16573652625083923,
          -0.12252682447433472,
          -0.08521387726068497,
          -0.0873057171702385,
          0.10164794325828552,
          -0.08926097303628922
        ],
        [
          0.1637459099292755,
          0.1295967549085617,
          -0.13510142266750336,
          0.09223198890686035,
          0.019879840314388275,
          -0.07113052159547806,
          0.09650793671607971,
          -0.01504875160753727,
          0.2027972787618637,
          0.05354764312505722,
          -0.030081946402788162,
          -0.03244199976325035,
          -0.12993784248828888,
          0.2016250193119049,
          0.1642131507396698,
          -0.10442613065242767
        ],
        [
          0.24929043650627136,
          -0.03685669228434563,
          -0.2307179868221283,
          -0.08278588205575943,
          -0.1297800987958908,
          0.24286633729934692,
          -0.2629309594631195,
          -0.14160509407520294,
          -0.17587655782699585,
          0.010280807502567768,
          0.060229796916246414,
          -0.07050008326768875,
          0.021886643022298813,
          -0.10069548338651657,
          -0.16436578333377838,
          0.09866555780172348
        ],
        [
          0.011808408424258232,
          -0.11859135329723358,
          -0.11105857044458389,
          0.19437383115291595,
          0.12692958116531372,
          0.04525463655591011,
          0.07523083686828613,
          0.0409112386405468,
          0.11805032193660736,
          -0.13922691345214844,
          0.25414377450942993,
          0.2502255439758301,
          -0.10552123934030533,
          0.2643651068210602,
          0.3629177212715149,
          0.04405796900391579
        ],
        [
          -0.07556257396936417,
          0.1130988672375679,
          0.12954261898994446,
          -0.10790704935789108,
          0.07149474322795868,
          -0.03569890931248665,
          0.040827639400959015,
          0.00977320410311222,
          0.11381709575653076,
          -0.15087957680225372,
          0.21183174848556519,
          -0.0635058730840683,
          0.25694891810417175,
          0.06050584465265274,
          -0.05140368267893791,
          0.0071751996874809265
        ]
      ],
      "biases": [
        0.025302385911345482,
        -0.10762283951044083,
        -0.05344745144248009,
        0.06847015768289566,
        0.23196762800216675,
        0.14956393837928772,
        0.2513483464717865,
        0.13741113245487213,
        0.130729079246521,
        0.05112869292497635,
        -0.056049589067697525,
        0.10470955818891525,
        0.013109329156577587,
        0.007760590873658657,
        0.023159468546509743,
        0.11061841994524002
      ]
    },
    {
      "id": "layer_2",
      "type": "Dense",
      "input_size": 16,
      "output_size": 1,
      "activation": "sigmoid",
      "weights": [
        [
          0.394040584564209
        ],
        [
          0.08753437548875809
        ],
        [
          0.46875736117362976
        ],
        [
          -0.3120371699333191
        ],
        [
          -0.1802608072757721
        ],
        [
          0.22201767563819885
        ],
        [
          -0.2191198319196701
        ],
        [
          -0.22972983121871948
        ],
        [
          -0.34742048382759094
        ],
        [
          0.06462454050779343
        ],
        [
          -0.32746079564094543
        ],
        [
          -0.16461442410945892
        ],
        [
          0.4254010319709778
        ],
        [
          -0.24530762434005737
        ],
        [
          -0.32123443484306335
        ],
        [
          0.1244363784790039
        ]
      ],
      "biases": [
        -0.1475290209054947
      ]
    }
  ]
}