{
  "name": "wine_quality_binary",
  "input_shape": [
    11
  ],
  "output_shape": [
    1
  ],
  "quantize": false,
  "use_fpu": true,
  "layers": [
    {
      "id": "layer_0",
      "type": "Dense",
      "input_size": 11,
      "output_size": 32,
      "activation": "relu",
      "weights": [
        [
          0.22899310290813446,
          0.11592007428407669,
          -0.11440499871969223,
          0.12142530083656311,
          0.25633952021598816,
          0.0462484285235405,
          0.21868357062339783,
          0.020685305818915367,
          -0.2534860074520111,
          -0.17190179228782654,
          0.2484694868326187,
          -0.15491513907909393,
          -0.2979145348072052,
          -0.33247697353363037,
          0.37428906559944153,
          -0.086368128657341,
          -0.3701927065849304,
          -0.15652383863925934,
          -0.005964851472526789,
          0.008080756291747093,
          -0.2336394041776657,
          0.2664880156517029,
          -0.14050164818763733,
          -0.2545039653778076,
          0.07912912219762802,
          -0.16325487196445465,
          -0.29863423109054565,
          -0.029292473569512367,
          -0.06402350962162018,
          0.13610579073429108,
          0.1304241269826889,
          0.012556826695799828
        ],
        [
          0.2821405827999115,
          0.15716975927352905,
          0.22575438022613525,
          -0.21432283520698547,
          -0.195278599858284,
          0.19981978833675385,
          -0.11254730075597763,
          0.025499483570456505,
          0.08506210893392563,
          -0.27086716890335083,
          0.17965920269489288,
          0.07838765531778336,
          0.2198483645915985,
          -0.19870184361934662,
          -0.39278432726860046,
          -0.08795564621686935,
          0.1225036010146141,
          -0.021501872688531876,
          0.13778811693191528,
          0.2906383275985718,
          0.2949419915676117,
          0.024335689842700958,
          -0.16770198941230774,
          -0.0034884789492934942,
          0.24943888187408447,
          -0.3786449134349823,
          0.21881750226020813,
          -0.02718639001250267,
          -0.0011355638271197677,
          -0.31122058629989624,
          0.1044783741235733,
          -0.23941172659397125
        ],
        [
          -0.03352993354201317,
          0.047589488327503204,
          -0.2595832645893097,
          0.18467268347740173,
          0.1387997716665268,
          -0.027428535744547844,
          -0.1589730679988861,
          0.35862112045288086,
          0.07181574404239655,
          0.12066081166267395,
          0.10804146528244019,
          -0.2190549373626709,
          -0.05356242507696152,
          0.11471420526504517,
          0.2425357550382614,
          0.3273325562477112,
          0.14349864423274994,
          0.003071351908147335,
          -0.2427830845117569,
          0.07305366545915604,
          -0.15412399172782898,
          0.3029842972755432,
          0.04680158197879791,
          -0.3009543716907501,
          -0.1066824421286583,
          0.09990143030881882,
          0.375967413187027,
          -0.22830241918563843,
          0.3122062087059021,
          -0.026321284472942352,
          -0.22441735863685608,
          -0.2759023904800415
        ],
        [
          0.18540437519550323,
          0.23890523612499237,
          -0.1923467218875885,
          0.16319522261619568,
          0.15467827022075653,
          0.20225760340690613,
          -0.22525331377983093,
          -0.09714698791503906,
          -0.13809442520141602,
          -0.07014283537864685,
          -0.2604367733001709,
          -0.29305967688560486,
          -0.24432995915412903,
          0.10112301260232925,
          0.14515110850334167,
          0.02523258700966835,
          -0.32323557138442993,
          -0.008703225292265415,
          -0.20375077426433563,
          -0.3024909198284149,
          -0.07906544953584671,
          0.14242590963840485,
          -0.1558435708284378,
          0.08864221721887589,
          0.023444006219506264,
          0.21933043003082275,
          -0.17058582603931427,
          0.01060884352773428,
          0.21114960312843323,
          0.3239056169986725,
          -0.34067219495773315,
          -0.21993502974510193
        ],
        [
          -0.1787446141242981,
          -0.15541712939739227,
          -0.04070647433400154,
          0.03376110643148422,
          -0.010442178696393967,
          -0.28079769015312195,
          0.5206277370452881,
          -0.2665553689002991,
          0.22878319025039673,
          -0.24677744507789612,
          -0.23050443828105927,
          -0.11977091431617737,
          -0.30246415734291077,
          0.2905607223510742,
          -0.10352327674627304,
          -0.065389484167099,
          0.034555770456790924,
          -0.0063495212234556675,
          0.30298373103141785,
          -0.07698052376508713,
          -0.2704150974750519,
          -0.02411823533475399,
          -0.10660304129123688,
          -0.03665576130151749,
          -0.07467416673898697,
          -0.3826914131641388,
          -0.06425294280052185,
          -0.04944388568401337,
          -0.17573635280132294,
          -0.043310388922691345,
          0.23164552450180054,
          -0.2565314471721649
        ],
        [
          0.050716448575258255,
          0.27589160203933716,
          -0.21800938248634338,
          0.08499071002006531,
          -0.06360501050949097,
          -0.00029502567485906184,
          0.05471673980355263,
          0.07522463798522949,
          0.24776825308799744,
          0.02699868381023407,
          -0.24270185828208923,
          -0.09716589748859406,
          -0.2762307822704315,
          0.26438868045806885,
          -0.08252381533384323,
          -0.144841268658638,
          0.15530414879322052,
          0.18860729038715363,
          0.13094687461853027,
          -0.14524689316749573,
          0.1935882717370987,
          -0.08560370653867722,
          0.0439639687538147,
          0.16470177471637726,
          -0.22571112215518951,
          -0.13708873093128204,
          -0.11541973799467087,
          -0.07650631666183472,
          0.13684892654418945,
          -0.1516345590353012,
          -0.264444500207901,
          0.3098551332950592
        ],
        [
          -0.053812067955732346,
          -0.005097288638353348,
          0.023791994899511337,
          -0.14711594581604004,
          -0.44281500577926636,
          -0.1264171600341797,
          0.3331167995929718,
          -0.09025482088327408,
          -0.18392379581928253,
          -0.2543366253376007,
          0.10535243898630142,
          -0.14538249373435974,
          0.18239106237888336,
          -0.11964332312345505,
          0.2229413092136383,
          0.008810257539153099,
          0.17531955242156982,
          0.32649365067481995,
          0.09504663199186325,
          0.3340168297290802,
          0.1761656105518341,
          -0.4059750437736511,
          -0.07663857191801071,
          0.21352830529212952,
          0.15135200321674347,
          -0.2216036021709442,
          -0.19410239160060883,
          -0.09702441096305847,
          0.23774059116840363,
          -0.3605801463127136,
          0.12150080502033234,
          -0.24442313611507416
        ],
        [
          0.2375587671995163,
          -0.21126526594161987,
          -0.3232981264591217,
          -0.022010155022144318,
          -0.12735967338085175,
          0.12267519533634186,
          -0.044694721698760986,
          0.11561180651187897,
          -0.09341616183519363,
          -0.2959040403366089,
          -0.17171701788902283,
          0.3796870708465576,
          0.06426940858364105,
          0.04219696298241615,
          -0.04814215004444122,
          0.3094022572040558,
          -0.20257076621055603,
          0.07568275928497314,
          -0.07615700364112854,
          0.1953594982624054,
          0.25050196051597595,
          -0.2846347987651825,
          0.2587087154388428,
          0.25752919912338257,
          -0.40132713317871094,
          -0.12065582722425461,
          -0.1660131961107254,
          -0.27955853939056396,
          0.17895856499671936,
          -0.2470676600933075,
          0.20968596637248993,
          -0.25404322147369385
        ],
        [
          0.1999276578426361,
          0.0654570683836937,
          0.28437963128089905,
          -0.0890643447637558,
          -0.14909304678440094,
          -0.10069175809621811,
          -0.3711518347263336,
          -0.11568424850702286,
          0.32267531752586365,
          -0.30943983793258667,
          -0.11220021545886993,
          -0.07593861222267151,
          0.14102424681186676,
          -0.16016729176044464,
          -0.05033160001039505,
          -0.028579359874129295,
          0.29024654626846313,
          -0.07128777354955673,
          -0.12021388858556747,
          -0.08940241485834122,
          -0.10719997435808182,
          -0.33004528284072876,
          -0.06147336587309837,
          -0.2622505724430084,
          0.18342050909996033,
          -0.2168353796005249,
          0.12969373166561127,
          0.23585760593414307,
          0.14538297057151794,
          -0.3328208923339844,
          -0.16814742982387543,
          0.07456310093402863
        ],
        [
          -0.49430051445961,
          0.04780084267258644,
          -0.11289563775062561,
          0.2821521759033203,
          0.4287012219429016,
          0.03357618674635887,
          -0.208613783121109,
          0.23943081498146057,
          -0.2517699599266052,
          -0.05431479588150978,
          -0.38074374198913574,
          0.2680186629295349,
          -0.4788362979888916,
          -0.02931196242570877,
          -0.055803392082452774,
          -0.37282252311706543,
          0.36977848410606384,
          -0.021246423944830894,
          -0.4583115577697754,
          0.02713763155043125,
          -0.19106420874595642,
          0.2510981857776642,
          -0.3693028688430786,
          0.33646973967552185,
          0.3321149945259094,
          -0.021539269015192986,
          -0.4264242649078369,
          0.029618430882692337,
          0.2499314844608307,
          0.008279289118945599,
          -0.13061945140361786,
          0.27457305788993835
        ],
        [
          0.17018312215805054,
          0.06451668590307236,
          0.238551527261734,
          0.4511807858943939,
          0.21793264150619507,
          -0.1559247076511383,
          -0.3759646415710449,
          -0.17972992360591888,
          -0.1696808934211731,
          -0.13651199638843536,
          0.04304119199514389,
          -0.0531366690993309,
          0.10494357347488403,
          -0.48509618639945984,
          0.2806098759174347,
          -0.25238585472106934,
          0.22098632156848907,
          -0.22911690175533295,
          -0.20221532881259918,
          -0.3680039346218109,
          -0.344038188457489,
          -0.11039846390485764,
          -0.06795565038919449,
          -0.35307082533836365,
          0.37580516934394836,
          0.015096809715032578,
          -0.2872826159000397,
          0.09635346382856369,
          -0.13652253150939941,
          -0.002484951401129365,
          -0.11880283802747726,
          0.28561949729919434
        ]
      ],
      "biases": [
        0.30396410822868347,
        0.21447978913784027,
        -0.29768311977386475,
        0.17336468398571014,
        0.23479673266410828,
        -0.05333801358938217,
        -0.014926400035619736,
        0.501774251461029,
        0.031060080975294113,
        -0.18546506762504578,
        -0.15062326192855835,
        0.0009763689013198018,
        0.27378854155540466,
        0.14435535669326782,
        0.13603822886943817,
        -0.09276924282312393,
        -0.19556410610675812,
        0.18637798726558685,
        0.4129154682159424,
        0.3101269602775574,
        -0.11830172687768936,
        -0.013319886289536953,
        -0.18684087693691254,
        -0.0515468567609787,
        0.102580226957798,
        0.22762179374694824,
        0.48308736085891724,
        -0.28816279768943787,
        0.2566722333431244,
        -0.1819290816783905,
        0.2287016361951828,
        0.36876386404037476
      ]
    },
    {
      "id": "layer_1",
      "type": "Dense",
      "input_size": 32,
      "output_size": 16,
      "activation": "relu",
      "weights": [
        [
          0.06859678775072098,
          -0.06975653022527695,
          0.04208946228027344,
          0.16931642591953278,
          0.10305632650852203,
          0.14520364999771118,
          0.019472867250442505,
          0.20772655308246613,
          0.10967069864273071,
          0.13875751197338104,
          0.15206417441368103,
          -0.03286680951714516,
          -0.12458444386720657,
          0.05357059836387634,
          -0.026058299466967583,
          -0.12598365545272827
        ],
        [
          0.2170674353837967,
          0.1576879918575287,
          -0.1400294303894043,
          -0.032070692628622055,
          -0.15992645919322968,
          0.1008201614022255,
          0.1312250792980194,
          0.1469438672065735,
          -0.17167793214321136,
          0.14110445976257324,
          -0.12837424874305725,
          0.009438147768378258,
          0.2618221938610077,
          0.10358867794275284,
          -0.12666621804237366,
          0.19043394923210144
        ],
        [
          -0.2390424758195877,
          -0.04631397873163223,
          0.046178143471479416,
          -0.09939664602279663,
          -0.08334662765264511,
          0.12011535465717316,
          -0.0024294552858918905,
          0.08048514276742935,
          0.10875972360372543,
          -0.10225339978933334,
          0.09028805047273636,
          0.08301161229610443,
          0.12385837733745575,
          -0.14159312844276428,
          -0.1339942216873169,
          0.18226632475852966
        ],
        [
          0.029564276337623596,
          0.0259596798568964,
          -0.14997598528862,
          -0.002333607990294695,
          -0.26477473974227905,
          0.2614712715148926,
          -0.1512308567762375,
          -0.16912196576595306,
          0.06099686771631241,
          0.2624392807483673,
          -0.00470772385597229,
          0.2777343988418579,
          0.19830751419067383,
          0.03900659456849098,
          0.08284880220890045,
          0.16789506375789642
        ],
        [
          0.21474689245224,
          0.12574169039726257,
          -0.17079859972000122,
          -0.11526385694742203,
          0.06006820499897003,
          0.2639729678630829,
          0.04924964904785156,
          -0.12339138984680176,
          -0.20098339021205902,
          0.09096955507993698,
          -0.17885234951972961,
          0.23379521071910858,
          0.008651191368699074,
          -0.11345323920249939,
          -0.09669796377420425,
          0.11738114804029465
        ],
        [
          0.014618427492678165,
          -0.06288488209247589,
          -0.05251340568065643,
          -0.05213155969977379,
          -0.15351296961307526,
          -0.029616713523864746,
          -0.11986172944307327,
          0.21267364919185638,
          -0.04538612440228462,
          -0.035137470811605453,
          0.1444016695022583,
          0.07472696900367737,
          -0.11332821100950241,
          -0.07549557834863663,
          0.12417297065258026,
          -0.1692604124546051
        ],
        [
          0.0073241135105490685,
          -0.08856513351202011,
          0.03417165204882622,
          0.21768127381801605,
          0.27412670850753784,
          -0.049779802560806274,
          0.15152406692504883,
          0.2223653346300125,
          0.18007440865039825,
          -0.16666972637176514,
          0.13623346388339996,
          -0.008605738170444965,
          0.0029258220456540585,
          0.15499013662338257,
          0.14723937213420868,
          -0.0817226991057396
        ],
        [
          -0.015608716756105423,
          0.1463666707277298,
          -0.07364693284034729,
          0.07317333668470383,
          0.041078586131334305,
          0.1341235339641571,
          0.20149613916873932,
          0.1518530398607254,
          0.04424295946955681,
          0.0025488690007478,
          0.14849750697612762,
          0.22178307175636292,
          0.035026416182518005,
          0.1324521154165268,
          0.009394378401339054,
          0.16763387620449066
        ],
        [
          -0.08695012331008911,
          0.014978437684476376,
          -0.09215983748435974,
          0.2737381160259247,
          0.0779038518667221,
          -0.17904435098171234,
          0.167390376329422,
          0.10560975223779678,
          0.06529635936021805,
          -0.0037629082798957825,
          0.19772371649742126,
          -0.34276893734931946,
          -0.16600307822227478,
          0.25458595156669617,
          0.14545056223869324,
          -0.05254004895687103
        ],
        [
          0.1785612553358078,
          0.08567102253437042,
          0.09847687929868698,
          0.24045267701148987,
          0.09116102010011673,
          0.1521029770374298,
          0.09721693396568298,
          -0.07537394016981125,
          -0.00959612987935543,
          0.10261433571577072,
          -0.11914335191249847,
          0.017349060624837875,
          0.0713425874710083,
          -0.05322732403874397,
          -0.08004007488489151,
          0.041924621909856796
        ],
        [
          0.07635081559419632,
          -0.018847305327653885,
          -0.021579349413514137,
          0.10634364932775497,
          -0.02370169758796692,
          -0.04353813827037811,
          -0.06109652668237686,
          0.044669751077890396,
          0.18848450481891632,
          -0.09876087307929993,
          0.18344274163246155,
          0.11009056866168976,
          0.048912424594163895,
          -0.04619932547211647,
          -0.013025323860347271,
          -0.034395091235637665
        ],
        [
          -0.17813636362552643,
          -0.25215718150138855,
          -0.10557178407907486,
          0.22572606801986694,
          0.20674818754196167,
          -0.21704022586345673,
          0.07330521941184998,
          0.32123759388923645,
          0.013753000646829605,
          -0.08055377006530762,
          0.276141494512558,
          -0.248408704996109,
          -0.10158451646566391,
          0.14384600520133972,
          -0.006184395868331194,
          -0.18312013149261475
        ],
        [
          -0.21051137149333954,
          -0.06014738231897354,
          0.0034358359407633543,
          0.1443997025489807,
          0.24555273354053497,
          -0.0002820724039338529,
          0.1839812844991684,
          0.03161988407373428,
          0.2137855738401413,
          -0.12911491096019745,
          0.1795182079076767,
          -0.1444651484489441,
          0.02516198344528675,
          0.16491557657718658,
          0.046797823160886765,
          0.051658015698194504
        ],
        [
          -0.12730464339256287,
          -0.17538824677467346,
          -0.0067360177636146545,
          0.2766103446483612,
          0.1072753295302391,
          -0.14557252824306488,
          0.34355926513671875,
          0.26130738854408264,
          0.2641041874885559,
          -0.020113030448555946,
          0.13190357387065887,
          -0.0699024349451065,
          -0.27359288930892944,
          0.33759260177612305,
          0.2323933094739914,
          -0.21173684298992157
        ],
        [
          0.12565122544765472,
          0.1688179224729538,
          -0.0512920580804348,
          -0.032849717885255814,
          -0.03880944475531578,
          0.17201469838619232,
          0.048196159303188324,
          -0.16635288298130035,
          0.029236316680908203,
          -0.0665493905544281,
          -0.08855709433555603,
          0.1558254361152649,
          0.15574242174625397,
          0.061377715319395065,
          -0.015307667665183544,
          0.19511809945106506
        ],
        [
          -0.1503138393163681,
          -0.11880514770746231,
          -0.13321715593338013,
          0.1880129873752594,
          0.1671583503484726,
          0.07398039102554321,
          0.3283489942550659,
          0.09378255158662796,
          0.2901758849620819,
          -0.15217694640159607,
          0.12891972064971924,
          -0.05369006097316742,
          -0.01187694352120161,
          0.1281507909297943,
          0.15611571073532104,
          -0.13958896696567535
        ],
        [
          -0.1918676346540451,
          0.014522703364491463,
          0.17812377214431763,
          0.13184191286563873,
          0.12438315153121948,
          0.19084018468856812,
          0.0028305426239967346,
          -0.012389948591589928,
          -0.0776931643486023,
          -0.10312750935554504,
          -0.0016304005403071642,
          -0.12590457499027252,
          -0.014754748903214931,
          0.16188524663448334,
          0.09633534401655197,
          0.13370919227600098
        ],
        [
          0.1526404619216919,
          0.1112721785902977,
          -0.11781443655490875,
          0.2837028503417969,
          0.1583145707845688,
          0.20260661840438843,
          0.12698064744472504,
          0.018429413437843323,
          -0.013763039372861385,
          -0.09246960282325745,
          0.24460960924625397,
          0.02635839581489563,
          -0.11725571751594543,
          0.24479323625564575,
          0.2322334200143814,
          0.03425108641386032
        ],
        [
          -0.08944720029830933,
          -0.31435394287109375,
          -0.2191644012928009,
          0.11935903131961823,
          0.2056896835565567,
          -0.18930180370807648,
          0.09098508954048157,
          0.15145637094974518,
          0.11712580919265747,
          -0.1061636358499527,
          0.2202836126089096,
          -0.02011716179549694,
          0.019932828843593597,
          0.10828489810228348,
          0.23862306773662567,
          -0.10331834852695465
        ],
        [
          -0.08242505043745041,
          -0.013312548398971558,
          -0.13064312934875488,
          0.1479608714580536,
          0.14124009013175964,
          -0.2794555723667145,
          0.08294641971588135,
          0.30602777004241943,
          0.3299039602279663,
          0.019740676507353783,
          0.3431491255760193,
          -0.2510426640510559,
          -0.034604933112859726,
          0.32723623514175415,
          0.15001866221427917,
          -0.04689883440732956
        ],
        [
          -0.06971476227045059,
          -0.15646453201770782,
          0.0898737981915474,
          0.15520641207695007,
          0.17764867842197418,
          -0.19861020147800446,
          0.19343602657318115,
          0.062374308705329895,
          0.03774253651499748,
          -0.10422277450561523,
          0.14613954722881317,
          -0.055138759315013885,
          -0.10538006573915482,
          0.26825150847435,
          0.012183909304440022,
          0.0256851427257061
        ],
        [
          -0.060493212193250656,
          0.10743734985589981,
          0.05623649060726166,
          -0.06967460364103317,
          0.1140926405787468,
          -0.0179161187261343,
          -0.1715056151151657,
          0.1089405044913292,
          0.05440973490476608,
          0.2655012309551239,
          0.06107550486922264,
          0.182002991437912,
          0.26849424839019775,
          0.12709666788578033,
          0.10130894929170609,
          0.23926763236522675
        ],
        [
          -0.3584056496620178,
          -0.2612453103065491,
          0.1370566487312317,
          0.25771355628967285,
          0.32809266448020935,
          -0.3769552707672119,
          0.34180617332458496,
          0.10931573063135147,
          0.028242820873856544,
          -0.18208059668540955,
          0.26616501808166504,
          -0.3786924183368683,
          -0.20551860332489014,
          0.11002025008201599,
          0.14339342713356018,
          -0.05905817449092865
        ],
        [
          -0.10462600737810135,
          -0.06761621683835983,
          -0.01476236991584301,
          0.32437634468078613,
          0.19369176030158997,
          -0.13027246296405792,
          0.2210886925458908,
          0.10985016077756882,
          0.2640396058559418,
          -0.022556550800800323,
          0.09367982298135757,
          0.09806599467992783,
          0.04151023179292679,
          0.1071915403008461,
          0.26096194982528687,
          -0.15642227232456207
        ],
        [
          -0.02056441456079483,
          0.1035677120089531,
          0.2292059063911438,
          0.0977291464805603,
          -0.23384635150432587,
          -0.005156790371984243,
          -0.12559127807617188,
          -0.01519786100834608,
          -0.030187983065843582,
          0.30149638652801514,
          -0.200735941529274,
          0.06904026120901108,
          0.21232441067695618,
          -0.10372043401002884,
          0.059276409447193146,
          -0.02458059787750244
        ],
        [
          0.16458123922348022,
          0.21158573031425476,
          -0.1568937599658966,
          0.12922339141368866,
          -0.06531588733196259,
          -0.06637958437204361,
          0.1024293527007103,
          0.1883910745382309,
          0.06442256271839142,
          0.2440931499004364,
          -0.03207343444228172,
          0.0756596177816391,
          -0.07860870659351349,
          0.012594692409038544,
          0.12139201164245605,
          0.08755580335855484
        ],
        [
          -0.16928821802139282,
          -0.17921361327171326,
          -0.18842338025569916,
          0.035099416971206665,
          0.023655226454138756,
          -0.29845499992370605,
          0.019388364627957344,
          0.10148591548204422,
          0.22105348110198975,
          -0.2848750352859497,
          0.27323785424232483,
          -0.25414004921913147,
          0.005530341062694788,
          0.2571219503879547,
          0.31378814578056335,
          -0.16414286196231842
        ],
        [
          -0.05125301331281662,
          0.2287524789571762,
          0.14221367239952087,
          -0.10097527503967285,
          0.12259646505117416,
          -0.08553937077522278,
          -0.05316395312547684,
          -0.11399645358324051,
          -0.0667257159948349,
          0.25071272253990173,
          -0.16424542665481567,
          -0.024183154106140137,
          -0.07902012020349503,
          -0.09574203938245773,
          0.14694230258464813,
          0.0434945710003376
        ],
        [
          0.19222433865070343,
          0.1959494650363922,
          -0.10986460745334625,
          0.06534507870674133,
          -0.0553518682718277,
          -0.03947938233613968,
          0.04124469310045242,
          -0.08276844024658203,
          0.14076822996139526,
          0.10274413973093033,
          -0.038055747747421265,
          -0.08295141160488129,
          -0.012653646059334278,
          0.1465638279914856,
          0.07730825245380402,
          -0.016391338780522346
        ],
        [
          0.1744718998670578,
          0.038453396409749985,
          -0.260135680437088,
          -0.07984278351068497,
          -0.15578894317150116,
          0.18433541059494019,
          -0.1928807497024536,
          -0.12288331240415573,
          -0.1416930854320526,
          0.04671664163470268,
          0.06609414517879486,
          0.23465831577777863,
          0.06953389197587967,
          -0.11393441259860992,
          -0.12217307835817337,
          0.10042649507522583
        ],
        [
          0.0652344673871994,
          -0.19615863263607025,
          -0.09438637644052505,
          0.15512782335281372,
          0.0861874669790268,
          0.0073951357044279575,
          0.00915170181542635,
          0.006476151756942272,
          0.10068140923976898,
          -0.21212244033813477,
          0.21888180077075958,
          -0.11162332445383072,
          -0.18371134996414185,
          0.22474132478237152,
          0.29522421956062317,
          0.002731252694502473
        ],
        [
          0.003044904675334692,
          0.27734896540641785,
          0.10568144172430038,
          -0.15122148394584656,
          -0.03444734588265419,
          0.08881425112485886,
          -0.046261485666036606,
          -0.10709764063358307,
          0.005746420938521624,
          0.003174233017489314,
          0.11780718713998795,
          0.009268630295991898,
          0.29864397644996643,
          -0.03853132948279381,
          -0.12649571895599365,
          0.17294298112392426
        ]
      ],
      "biases": [
        0.0007674804655835032,
        -0.0025167036801576614,
        -0.030818719416856766,
        0.06226008012890816,
        0.21864311397075653,
        0.16650758683681488,
        0.26044657826423645,
        0.10319099575281143,
        0.1275460422039032,
        0.11169714480638504,
        -0.05180744081735611,
        0.1137782484292984,
        0.05674007162451744,
        0.0013996559428051114,
        -0.01869395561516285,
        0.1468300074338913
      ]
    },
    {
      "id": "layer_2",
      "type": "Dense",
      "input_size": 16,
      "output_size": 1,
      "activation": "sigmoid",
      "weights": [
        [
          0.34991079568862915
        ],
        [
          0.266496479511261
        ],
        [
          0.38911107182502747
        ],
        [
          -0.31306391954421997
        ],
        [
          -0.1842394918203354
        ],
        [
          0.23818622529506683
        ],
        [
          -0.22143971920013428
        ],
        [
          -0.2168973982334137
        ],
        [
          -0.35194632411003113
        ],
        [
          0.1852075457572937
        ],
        [
          -0.34657448530197144
        ],
        [
          0.11474373191595078
        ],
        [
          0.3972482979297638
        ],
        [
          -0.26549795269966125
        ],
        [
          -0.26568603515625
        ],
        [
          0.23312081396579742
        ]
      ],
      "biases": [
        -0.10158234089612961
      ]
    }
  ]
}